<?xml version="1.0"?>
<opencv_storage>
<DigitOCR type_id="opencv-ml-ann-mlp">
  <layer_sizes type_id="opencv-matrix">
    <rows>1</rows>
    <cols>3</cols>
    <dt>i</dt>
    <data>
      256 16 95</data></layer_sizes>
  <activation_function>SIGMOID_SYM</activation_function>
  <f_param1>5.9999999999999998e-01</f_param1>
  <f_param2>1.</f_param2>
  <min_val>-9.4999999999999996e-01</min_val>
  <max_val>9.4999999999999996e-01</max_val>
  <min_val1>-9.7999999999999998e-01</min_val1>
  <max_val1>9.7999999999999998e-01</max_val1>
  <training_params>
    <train_method>BACKPROP</train_method>
    <dw_scale>1.0000000000000001e-01</dw_scale>
    <moment_scale>1.0000000000000001e-01</moment_scale>
    <term_criteria><epsilon>9.9999999747524271e-07</epsilon>
      <iterations>1000</iterations></term_criteria></training_params>
  <input_scale>
    1. 0. 1. 0. 1. 0. 1. 0. 1. 0. 1. 0. 1. 0. 1. 0. 1. 0. 1. 0. 1. 0. 1.
    0. 1. 0. 1. 0. 1. 0. 1. 0. 1. 0. 2.0507312359376413e+00
    -7.9870584978623926e-01 2.0135435411466625e+00
    -8.9019819713852444e-01 2.0090359385796144e+00
    -9.0935310904129918e-01 2.0090359385796144e+00
    -9.0935310904129918e-01 2.0135435411466625e+00
    -8.9019819713852444e-01 2.0730699572419278e+00
    -7.6376261582597338e-01 2.1158181651400265e+00
    -7.1269664509979835e-01 2.1328129615679519e+00
    -6.9597054535375269e-01 2.0860236566825292e+00
    -7.4657688765479990e-01 2.0328123394268363e+00
    -8.3452296039628016e-01 2.0613244238630446e+00
    -7.8113346588494326e-01 2.0328123394268363e+00
    -8.3452296039628016e-01 2.0090359385796144e+00
    -9.0935310904129918e-01 2.0027758514399734e+00
    -9.4868329805051366e-01 2.0054515718735582e+00
    -1.0766108438479103e+00 1. 0. 2.0613244238630446e+00
    -7.8113346588494326e-01 2.0090359385796144e+00
    -9.0935310904129918e-01 2.0254068053782990e+00
    -8.5280286542244166e-01 2.0135435411466625e+00
    -8.9019819713852444e-01 2.0135435411466625e+00
    -8.9019819713852444e-01 2.0027758514399734e+00
    -9.4868329805051366e-01 2.0328123394268363e+00
    -8.3452296039628016e-01 2.0135435411466625e+00
    -8.9019819713852444e-01 2.0189929247005716e+00
    -8.7135484118656248e-01 2.0135435411466625e+00
    -8.9019819713852444e-01 2.0090359385796144e+00
    -9.0935310904129918e-01 2.0090359385796144e+00
    -9.0935310904129918e-01 2.0090359385796144e+00
    -9.0935310904129918e-01 2.0027758514399734e+00
    -9.4868329805051366e-01 2.0254068053782990e+00
    -1.1726039399558574e+00 1. 0. 2.0730699572419278e+00
    -7.6376261582597338e-01 2.0027758514399734e+00
    -9.4868329805051366e-01 2.0189929247005716e+00
    -8.7135484118656248e-01 2.0054515718735582e+00
    -9.2884072802564799e-01 2.0027758514399734e+00
    -9.4868329805051366e-01 2.0189929247005711e+00
    -1.1476380835140088e+00 2.0507312359376413e+00
    -1.2520253861514021e+00 2.0730699572419278e+00
    -1.3093073414159544e+00 2.0507312359376413e+00
    -1.2520253861514021e+00 2.0507312359376413e+00
    -1.2520253861514021e+00 2.0412414523193152e+00
    -1.2247448713915892e+00 2.0135435411466625e+00
    -1.1233453440081380e+00 2.0009979763878896e+00
    -1.0320936930842799e+00 2.0027758514399734e+00
    -1.0540925533894596e+00 2.0412414523193152e+00
    -1.2247448713915892e+00 1. 0. 2.0730699572419278e+00
    -7.6376261582597338e-01 2.0507312359376413e+00
    -7.9870584978623926e-01 2.0135435411466625e+00
    -8.9019819713852444e-01 2.0001108125329825e+00
    -9.8952850725315977e-01 2.0009979763878896e+00
    -1.0320936930842799e+00 2.0328123394268363e+00
    -1.1982893790305560e+00 2.0135435411466625e+00
    -1.1233453440081380e+00 2.0328123394268363e+00
    -1.1982893790305560e+00 2.0254068053782990e+00
    -1.1726039399558574e+00 2.0412414523193152e+00
    -1.2247448713915892e+00 2.0001108125329825e+00
    -1.0105823052798228e+00 2.0090359385796144e+00
    -1.0996828295383154e+00 2.0254068053782990e+00
    -1.1726039399558574e+00 2.0254068053782990e+00
    -1.1726039399558574e+00 2.1002490193555641e+00
    -1.3706888336846841e+00 1. 0. 2.1328129615679519e+00
    -6.9597054535375269e-01 2.0730699572419278e+00
    -7.6376261582597338e-01 2.0054515718735582e+00
    -9.2884072802564799e-01 2.0001108125329825e+00
    -9.8952850725315977e-01 2.0009979763878896e+00
    -1.0320936930842799e+00 2.0328123394268363e+00
    -1.1982893790305560e+00 2.0135435411466625e+00
    -1.1233453440081380e+00 2.0412414523193152e+00
    -1.2247448713915892e+00 2.0135435411466625e+00
    -1.1233453440081380e+00 2.0135435411466625e+00
    -1.1233453440081380e+00 2.0090359385796144e+00
    -1.0996828295383154e+00 2.0001108125329825e+00
    -1.0105823052798228e+00 2.0328123394268363e+00
    -1.1982893790305560e+00 2.0507312359376413e+00
    -1.2520253861514021e+00 2.0860236566825292e+00
    -1.3394467690277292e+00 1. 0. 2.1158181651400265e+00
    -7.1269664509979835e-01 2.0328123394268363e+00
    -8.3452296039628016e-01 2.0001108125329825e+00
    -1.0105823052798228e+00 2.0027758514399734e+00
    -1.0540925533894596e+00 2.0090359385796144e+00
    -1.0996828295383154e+00 2.0135435411466625e+00
    -1.1233453440081380e+00 2.0009979763878896e+00
    -1.0320936930842799e+00 2.0001108125329825e+00
    -9.8952850725315977e-01 2.0027758514399734e+00
    -9.4868329805051366e-01 2.0001108125329825e+00
    -1.0105823052798228e+00 2.0027758514399734e+00
    -1.0540925533894596e+00 2.0135435411466625e+00
    -1.1233453440081380e+00 2.0860236566825292e+00
    -1.3394467690277292e+00 2.0507312359376413e+00
    -1.2520253861514021e+00 2.1513263648747318e+00
    -1.4719601443879744e+00 1. 0. 2.1328129615679519e+00
    -6.9597054535375269e-01 2.0613244238630446e+00
    -7.8113346588494326e-01 2.0027758514399734e+00
    -9.4868329805051366e-01 2.0027758514399734e+00
    -1.0540925533894596e+00 2.0135435411466625e+00
    -1.1233453440081380e+00 2.0009979763878896e+00
    -1.0320936930842799e+00 2.0054515718735582e+00
    -9.2884072802564799e-01 2.0054515718735582e+00
    -9.2884072802564799e-01 2.0027758514399734e+00
    -9.4868329805051366e-01 2.0027758514399734e+00
    -1.0540925533894596e+00 2.0189929247005711e+00
    -1.1476380835140088e+00 2.0090359385796144e+00
    -1.0996828295383154e+00 2.0412414523193152e+00
    -1.2247448713915892e+00 2.0412414523193152e+00
    -1.2247448713915892e+00 2.1002490193555641e+00
    -1.3706888336846841e+00 1. 0. 2.2171101330443488e+00
    -6.3012603781260434e-01 2.0412414523193152e+00
    -8.1649658092772615e-01 2.0027758514399734e+00
    -9.4868329805051366e-01 2.0054515718735582e+00
    -1.0766108438479103e+00 2.0090359385796144e+00
    -1.0996828295383154e+00 2.0001108125329825e+00
    -9.8952850725315977e-01 2.0009979763878896e+00
    -9.6890428330360967e-01 2.0009979763878896e+00
    -9.6890428330360967e-01 2.0090359385796144e+00
    -9.0935310904129918e-01 2.0027758514399734e+00
    -1.0540925533894596e+00 2.0189929247005711e+00
    -1.1476380835140088e+00 2.0090359385796144e+00
    -1.0996828295383154e+00 2.0135435411466625e+00
    -1.1233453440081380e+00 2.0054515718735582e+00
    -1.0766108438479103e+00 2.0507312359376413e+00
    -1.2520253861514021e+00 1. 0. 2.1714640241918484e+00
    -6.6286796527961689e-01 2.0254068053782990e+00
    -8.5280286542244166e-01 2.0001108125329825e+00
    -1.0105823052798228e+00 2.0189929247005711e+00
    -1.1476380835140088e+00 2.0189929247005711e+00
    -1.1476380835140088e+00 2.0054515718735582e+00
    -1.0766108438479103e+00 2.0001108125329825e+00
    -9.8952850725315977e-01 2.0001108125329825e+00
    -1.0105823052798228e+00 2.0009979763878896e+00
    -9.6890428330360967e-01 2.0001108125329825e+00
    -9.8952850725315977e-01 2.0054515718735582e+00
    -1.0766108438479103e+00 2.0054515718735582e+00
    -1.0766108438479103e+00 2.0507312359376413e+00
    -1.2520253861514021e+00 2.0135435411466625e+00
    -1.1233453440081380e+00 2.0328123394268363e+00
    -1.1982893790305560e+00 1. 0. 2.1002490193555636e+00
    -7.2956018567088010e-01 2.0001108125329825e+00
    -9.8952850725315977e-01 2.0027758514399734e+00
    -1.0540925533894596e+00 2.0189929247005711e+00
    -1.1476380835140088e+00 2.0254068053782990e+00
    -1.1726039399558574e+00 2.0090359385796144e+00
    -1.0996828295383154e+00 2.0001108125329825e+00
    -1.0105823052798228e+00 2.0009979763878896e+00
    -1.0320936930842799e+00 2.0027758514399734e+00
    -1.0540925533894596e+00 2.0009979763878896e+00
    -1.0320936930842799e+00 2.0001108125329825e+00
    -1.0105823052798228e+00 2.0090359385796144e+00
    -1.0996828295383154e+00 2.0412414523193152e+00
    -1.2247448713915892e+00 2.0254068053782990e+00
    -1.1726039399558574e+00 2.0254068053782990e+00
    -1.1726039399558574e+00 1. 0. 2.1158181651400265e+00
    -7.1269664509979835e-01 2.0090359385796144e+00
    -9.0935310904129918e-01 2.0001108125329825e+00
    -9.8952850725315977e-01 2.0090359385796144e+00
    -1.0996828295383154e+00 2.0135435411466625e+00
    -1.1233453440081380e+00 2.0189929247005711e+00
    -1.1476380835140088e+00 2.0135435411466625e+00
    -1.1233453440081380e+00 2.0328123394268363e+00
    -1.1982893790305560e+00 2.0730699572419278e+00
    -1.3093073414159544e+00 2.0412414523193152e+00
    -1.2247448713915892e+00 2.0027758514399734e+00
    -1.0540925533894596e+00 2.0054515718735582e+00
    -1.0766108438479103e+00 2.0090359385796144e+00
    -1.0996828295383154e+00 2.0054515718735582e+00
    -1.0766108438479103e+00 2.0328123394268363e+00
    -1.1982893790305560e+00 1. 0. 2.1158181651400265e+00
    -7.1269664509979835e-01 2.0254068053782990e+00
    -8.5280286542244166e-01 2.0090359385796144e+00
    -9.0935310904129918e-01 2.0001108125329825e+00
    -9.8952850725315977e-01 2.0189929247005711e+00
    -1.1476380835140088e+00 2.0507312359376413e+00
    -1.2520253861514021e+00 2.1158181651400261e+00
    -1.4031215200402276e+00 2.0730699572419278e+00
    -1.3093073414159544e+00 2.1328129615679519e+00
    -1.4368424162141991e+00 2.1002490193555641e+00
    -1.3706888336846841e+00 2.0328123394268363e+00
    -1.1982893790305560e+00 2.0254068053782990e+00
    -1.1726039399558574e+00 2.0009979763878896e+00
    -1.0320936930842799e+00 2.0001108125329825e+00
    -1.0105823052798228e+00 2.0328123394268363e+00
    -1.1982893790305560e+00 1. 0. 2.1513263648747318e+00
    -6.7936622048675743e-01 2.0328123394268363e+00
    -8.3452296039628016e-01 2.0412414523193152e+00
    -8.1649658092772615e-01 2.0001108125329825e+00
    -1.0105823052798228e+00 2.0328123394268363e+00
    -1.1982893790305560e+00 2.0507312359376413e+00
    -1.2520253861514021e+00 2.0860236566825292e+00
    -1.3394467690277292e+00 2.0730699572419278e+00
    -1.3093073414159544e+00 2.0860236566825292e+00
    -1.3394467690277292e+00 2.0860236566825292e+00
    -1.3394467690277292e+00 2.0189929247005711e+00
    -1.1476380835140088e+00 2.0001108125329825e+00
    -9.8952850725315977e-01 2.0001108125329825e+00
    -1.0105823052798228e+00 2.0027758514399734e+00
    -9.4868329805051366e-01 2.0001108125329825e+00
    -1.0105823052798228e+00 1. 0. 2.2171101330443488e+00
    -6.3012603781260434e-01 2.1002490193555636e+00
    -7.2956018567088010e-01 2.0730699572419278e+00
    -7.6376261582597338e-01 2.0054515718735582e+00
    -9.2884072802564799e-01 2.0027758514399734e+00
    -1.0540925533894596e+00 2.0001108125329825e+00
    -1.0105823052798228e+00 2.0001108125329825e+00
    -1.0105823052798228e+00 2.0009979763878896e+00
    -9.6890428330360967e-01 2.0135435411466625e+00
    -8.9019819713852444e-01 2.0009979763878896e+00
    -9.6890428330360967e-01 2.0135435411466625e+00
    -8.9019819713852444e-01 2.0328123394268363e+00
    -8.3452296039628016e-01 2.0090359385796144e+00
    -9.0935310904129918e-01 2.0027758514399734e+00
    -9.4868329805051366e-01 2.0001108125329825e+00
    -9.8952850725315977e-01 1. 0. 2.1933462085631481e+00
    -6.4645993515545408e-01 2.0328123394268363e+00
    -8.3452296039628016e-01 2.0613244238630446e+00
    -7.8113346588494326e-01 2.0730699572419278e+00
    -7.6376261582597338e-01 2.0254068053782990e+00
    -8.5280286542244166e-01 2.0189929247005716e+00
    -8.7135484118656248e-01 2.0189929247005716e+00
    -8.7135484118656248e-01 2.0507312359376413e+00
    -7.9870584978623926e-01 2.0613244238630446e+00
    -7.8113346588494326e-01 2.0135435411466625e+00
    -8.9019819713852444e-01 2.0189929247005716e+00
    -8.7135484118656248e-01 2.0009979763878896e+00
    -1.0320936930842799e+00 2.0090359385796144e+00
    -1.0996828295383154e+00 2.0090359385796144e+00
    -1.0996828295383154e+00 2.0135435411466625e+00
    -1.1233453440081380e+00</input_scale>
  <output_scale>
    5.2631578947368418e-01 4.9999999999999994e-01 5.2631578947368418e-01
    4.9999999999999994e-01 5.2631578947368418e-01 4.9999999999999994e-01
    5.2631578947368418e-01 4.9999999999999994e-01 5.2631578947368418e-01
    4.9999999999999994e-01 5.2631578947368418e-01 4.9999999999999994e-01
    5.2631578947368418e-01 4.9999999999999994e-01 5.2631578947368418e-01
    4.9999999999999994e-01 5.2631578947368418e-01 4.9999999999999994e-01
    5.2631578947368418e-01 4.9999999999999994e-01 5.2631578947368418e-01
    4.9999999999999994e-01 5.2631578947368418e-01 4.9999999999999994e-01
    5.2631578947368418e-01 4.9999999999999994e-01 5.2631578947368418e-01
    4.9999999999999994e-01 5.2631578947368418e-01 4.9999999999999994e-01
    5.2631578947368418e-01 4.9999999999999994e-01 5.2631578947368418e-01
    4.9999999999999994e-01 5.2631578947368418e-01 4.9999999999999994e-01
    5.2631578947368418e-01 4.9999999999999994e-01 5.2631578947368418e-01
    4.9999999999999994e-01 5.2631578947368418e-01 4.9999999999999994e-01
    5.2631578947368418e-01 4.9999999999999994e-01 5.2631578947368418e-01
    4.9999999999999994e-01 5.2631578947368418e-01 4.9999999999999994e-01
    5.2631578947368418e-01 4.9999999999999994e-01 5.2631578947368418e-01
    4.9999999999999994e-01 5.2631578947368418e-01 4.9999999999999994e-01
    5.2631578947368418e-01 4.9999999999999994e-01 5.2631578947368418e-01
    4.9999999999999994e-01 5.2631578947368418e-01 4.9999999999999994e-01
    5.2631578947368418e-01 4.9999999999999994e-01 5.2631578947368418e-01
    4.9999999999999994e-01 5.2631578947368418e-01 4.9999999999999994e-01
    5.2631578947368418e-01 4.9999999999999994e-01 5.2631578947368418e-01
    4.9999999999999994e-01 5.2631578947368418e-01 4.9999999999999994e-01
    5.2631578947368418e-01 4.9999999999999994e-01 5.2631578947368418e-01
    4.9999999999999994e-01 5.2631578947368418e-01 4.9999999999999994e-01
    5.2631578947368418e-01 4.9999999999999994e-01 5.2631578947368418e-01
    4.9999999999999994e-01 5.2631578947368418e-01 4.9999999999999994e-01
    5.2631578947368418e-01 4.9999999999999994e-01 5.2631578947368418e-01
    4.9999999999999994e-01 5.2631578947368418e-01 4.9999999999999994e-01
    5.2631578947368418e-01 4.9999999999999994e-01 5.2631578947368418e-01
    4.9999999999999994e-01 5.2631578947368418e-01 4.9999999999999994e-01
    5.2631578947368418e-01 4.9999999999999994e-01 5.2631578947368418e-01
    4.9999999999999994e-01 5.2631578947368418e-01 4.9999999999999994e-01
    5.2631578947368418e-01 4.9999999999999994e-01 5.2631578947368418e-01
    4.9999999999999994e-01 5.2631578947368418e-01 4.9999999999999994e-01
    5.2631578947368418e-01 4.9999999999999994e-01 5.2631578947368418e-01
    4.9999999999999994e-01 5.2631578947368418e-01 4.9999999999999994e-01
    5.2631578947368418e-01 4.9999999999999994e-01 5.2631578947368418e-01
    4.9999999999999994e-01 5.2631578947368418e-01 4.9999999999999994e-01
    5.2631578947368418e-01 4.9999999999999994e-01 5.2631578947368418e-01
    4.9999999999999994e-01 5.2631578947368418e-01 4.9999999999999994e-01
    5.2631578947368418e-01 4.9999999999999994e-01 5.2631578947368418e-01
    4.9999999999999994e-01 5.2631578947368418e-01 4.9999999999999994e-01
    5.2631578947368418e-01 4.9999999999999994e-01 5.2631578947368418e-01
    4.9999999999999994e-01 5.2631578947368418e-01 4.9999999999999994e-01
    5.2631578947368418e-01 4.9999999999999994e-01 5.2631578947368418e-01
    4.9999999999999994e-01 5.2631578947368418e-01 4.9999999999999994e-01
    5.2631578947368418e-01 4.9999999999999994e-01 5.2631578947368418e-01
    4.9999999999999994e-01 5.2631578947368418e-01 4.9999999999999994e-01
    5.2631578947368418e-01 4.9999999999999994e-01 5.2631578947368418e-01
    4.9999999999999994e-01 5.2631578947368418e-01 4.9999999999999994e-01
    5.2631578947368418e-01 4.9999999999999994e-01 5.2631578947368418e-01
    4.9999999999999994e-01 5.2631578947368418e-01 4.9999999999999994e-01
    5.2631578947368418e-01 4.9999999999999994e-01 5.2631578947368418e-01
    4.9999999999999994e-01 5.2631578947368418e-01 4.9999999999999994e-01
    5.2631578947368418e-01 4.9999999999999994e-01 5.2631578947368418e-01
    4.9999999999999994e-01 5.2631578947368418e-01 4.9999999999999994e-01
    5.2631578947368418e-01 4.9999999999999994e-01 5.2631578947368418e-01
    4.9999999999999994e-01 5.2631578947368418e-01 4.9999999999999994e-01
    5.2631578947368418e-01 4.9999999999999994e-01 5.2631578947368418e-01
    4.9999999999999994e-01 5.2631578947368418e-01 4.9999999999999994e-01
    5.2631578947368418e-01 4.9999999999999994e-01 5.2631578947368418e-01
    4.9999999999999994e-01</output_scale>
  <inv_output_scale>
    1.8999999999999999e+00 -9.4999999999999996e-01
    1.8999999999999999e+00 -9.4999999999999996e-01
    1.8999999999999999e+00 -9.4999999999999996e-01
    1.8999999999999999e+00 -9.4999999999999996e-01
    1.8999999999999999e+00 -9.4999999999999996e-01
    1.8999999999999999e+00 -9.4999999999999996e-01
    1.8999999999999999e+00 -9.4999999999999996e-01
    1.8999999999999999e+00 -9.4999999999999996e-01
    1.8999999999999999e+00 -9.4999999999999996e-01
    1.8999999999999999e+00 -9.4999999999999996e-01
    1.8999999999999999e+00 -9.4999999999999996e-01
    1.8999999999999999e+00 -9.4999999999999996e-01
    1.8999999999999999e+00 -9.4999999999999996e-01
    1.8999999999999999e+00 -9.4999999999999996e-01
    1.8999999999999999e+00 -9.4999999999999996e-01
    1.8999999999999999e+00 -9.4999999999999996e-01
    1.8999999999999999e+00 -9.4999999999999996e-01
    1.8999999999999999e+00 -9.4999999999999996e-01
    1.8999999999999999e+00 -9.4999999999999996e-01
    1.8999999999999999e+00 -9.4999999999999996e-01
    1.8999999999999999e+00 -9.4999999999999996e-01
    1.8999999999999999e+00 -9.4999999999999996e-01
    1.8999999999999999e+00 -9.4999999999999996e-01
    1.8999999999999999e+00 -9.4999999999999996e-01
    1.8999999999999999e+00 -9.4999999999999996e-01
    1.8999999999999999e+00 -9.4999999999999996e-01
    1.8999999999999999e+00 -9.4999999999999996e-01
    1.8999999999999999e+00 -9.4999999999999996e-01
    1.8999999999999999e+00 -9.4999999999999996e-01
    1.8999999999999999e+00 -9.4999999999999996e-01
    1.8999999999999999e+00 -9.4999999999999996e-01
    1.8999999999999999e+00 -9.4999999999999996e-01
    1.8999999999999999e+00 -9.4999999999999996e-01
    1.8999999999999999e+00 -9.4999999999999996e-01
    1.8999999999999999e+00 -9.4999999999999996e-01
    1.8999999999999999e+00 -9.4999999999999996e-01
    1.8999999999999999e+00 -9.4999999999999996e-01
    1.8999999999999999e+00 -9.4999999999999996e-01
    1.8999999999999999e+00 -9.4999999999999996e-01
    1.8999999999999999e+00 -9.4999999999999996e-01
    1.8999999999999999e+00 -9.4999999999999996e-01
    1.8999999999999999e+00 -9.4999999999999996e-01
    1.8999999999999999e+00 -9.4999999999999996e-01
    1.8999999999999999e+00 -9.4999999999999996e-01
    1.8999999999999999e+00 -9.4999999999999996e-01
    1.8999999999999999e+00 -9.4999999999999996e-01
    1.8999999999999999e+00 -9.4999999999999996e-01
    1.8999999999999999e+00 -9.4999999999999996e-01
    1.8999999999999999e+00 -9.4999999999999996e-01
    1.8999999999999999e+00 -9.4999999999999996e-01
    1.8999999999999999e+00 -9.4999999999999996e-01
    1.8999999999999999e+00 -9.4999999999999996e-01
    1.8999999999999999e+00 -9.4999999999999996e-01
    1.8999999999999999e+00 -9.4999999999999996e-01
    1.8999999999999999e+00 -9.4999999999999996e-01
    1.8999999999999999e+00 -9.4999999999999996e-01
    1.8999999999999999e+00 -9.4999999999999996e-01
    1.8999999999999999e+00 -9.4999999999999996e-01
    1.8999999999999999e+00 -9.4999999999999996e-01
    1.8999999999999999e+00 -9.4999999999999996e-01
    1.8999999999999999e+00 -9.4999999999999996e-01
    1.8999999999999999e+00 -9.4999999999999996e-01
    1.8999999999999999e+00 -9.4999999999999996e-01
    1.8999999999999999e+00 -9.4999999999999996e-01
    1.8999999999999999e+00 -9.4999999999999996e-01
    1.8999999999999999e+00 -9.4999999999999996e-01
    1.8999999999999999e+00 -9.4999999999999996e-01
    1.8999999999999999e+00 -9.4999999999999996e-01
    1.8999999999999999e+00 -9.4999999999999996e-01
    1.8999999999999999e+00 -9.4999999999999996e-01
    1.8999999999999999e+00 -9.4999999999999996e-01
    1.8999999999999999e+00 -9.4999999999999996e-01
    1.8999999999999999e+00 -9.4999999999999996e-01
    1.8999999999999999e+00 -9.4999999999999996e-01
    1.8999999999999999e+00 -9.4999999999999996e-01
    1.8999999999999999e+00 -9.4999999999999996e-01
    1.8999999999999999e+00 -9.4999999999999996e-01
    1.8999999999999999e+00 -9.4999999999999996e-01
    1.8999999999999999e+00 -9.4999999999999996e-01
    1.8999999999999999e+00 -9.4999999999999996e-01
    1.8999999999999999e+00 -9.4999999999999996e-01
    1.8999999999999999e+00 -9.4999999999999996e-01
    1.8999999999999999e+00 -9.4999999999999996e-01
    1.8999999999999999e+00 -9.4999999999999996e-01
    1.8999999999999999e+00 -9.4999999999999996e-01
    1.8999999999999999e+00 -9.4999999999999996e-01
    1.8999999999999999e+00 -9.4999999999999996e-01
    1.8999999999999999e+00 -9.4999999999999996e-01
    1.8999999999999999e+00 -9.4999999999999996e-01
    1.8999999999999999e+00 -9.4999999999999996e-01
    1.8999999999999999e+00 -9.4999999999999996e-01
    1.8999999999999999e+00 -9.4999999999999996e-01
    1.8999999999999999e+00 -9.4999999999999996e-01
    1.8999999999999999e+00 -9.4999999999999996e-01
    1.8999999999999999e+00 -9.4999999999999996e-01</inv_output_scale>
  <weights>
    <_>
      1.1141456454872782e-03 3.6687257794188540e-04
      3.2212246682736204e-03 -5.1057656093632534e-03
      -6.9183921674536297e-03 3.1927878248565050e-03
      -7.6900299344884867e-03 -8.3257982002518519e-04
      -3.8038494894763407e-03 -4.0151737800990725e-03
      -6.5113511263961352e-03 6.7339978366287309e-03
      1.9820628488142803e-03 3.5460465076364540e-04
      -7.0690746901658722e-03 -5.5761501393510960e-04
      6.7292229478335850e-03 7.8011885893049856e-03
      -1.8923427337776127e-03 6.4051831542125785e-03
      5.6727074502381366e-03 -7.6149729117212734e-03
      2.5000332953264023e-03 3.1513850240607582e-03
      -7.5541393658153707e-03 -2.0210298483339328e-03
      2.0650207805466953e-03 1.5984217852921803e-03
      5.4438414304665544e-03 1.5138530778633973e-03
      2.5726994160064206e-03 4.3381043428288467e-03
      7.0822082508187100e-03 4.6167963987071596e-03
      5.6202396059600035e-03 1.2834376101600782e-03
      -7.0118303365749330e-03 -6.6856042310727819e-03
      -1.6157518461095653e-03 2.7690096892620552e-03
      -1.8116396426441175e-03 -3.7218513573407130e-03
      -6.4574349336718679e-03 1.3722054738341282e-03
      3.5046535906553371e-03 1.9032360391400432e-03
      -1.2669067114820620e-03 3.5971181739071554e-03
      2.8633649808585964e-03 -7.2791633843949507e-03
      5.9556679259057787e-03 1.1913936867420255e-03
      -2.4527426993445384e-03 4.4253894136553800e-03
      -4.8633669759068207e-03 -7.5920935406051764e-03
      5.6708581672843036e-03 -1.6693371562074874e-03
      2.7792659221806495e-03 4.3106447862162490e-03
      -4.8243310086772508e-04 2.0575650003896717e-03
      -3.1478883959509214e-05 6.8039837881980420e-03
      -7.6683107470073867e-03 -6.3591572052203713e-04
      3.1875175256761991e-03 -7.3879280517439071e-03
      2.9690509513430343e-03 3.5575470195261101e-04
      3.4628877148677861e-03 4.3831141530322011e-03
      5.1024907842633421e-03 -2.5519597634151908e-03
      5.5128227637997315e-03 8.4582672475236450e-05
      6.8466367370891611e-03 -4.0734397763917421e-04
      -5.6391070682727720e-03 -5.6858948471076578e-03
      -7.8898236688022076e-05 -5.1879035356845200e-03
      -8.8265022330512679e-04 -3.3452520661995146e-03
      7.5317962245416174e-03 5.0264840848418379e-03
      2.3488040051186158e-04 -6.6408586904029851e-03
      -2.7487111422717805e-04 1.8653483080011341e-03
      8.7768590411619501e-04 7.0854014039725671e-03
      -3.1658285879376368e-03 -6.6166793762524611e-05
      -7.3997477060430234e-03 2.7202666629727859e-03
      6.3456998170325291e-03 -4.8305972288329047e-03
      -1.2341734979731331e-03 4.7558927860896832e-03
      1.6694524991227441e-03 1.8236629152072123e-03
      -3.7251244060034988e-03 -6.1796945646767275e-05
      7.3628133095097201e-03 -3.7427642460808861e-03
      -7.4908458115805982e-03 7.2014137609738554e-03
      -2.4480517496511082e-03 3.6497578927174330e-03
      3.1963549352984266e-03 -2.2318995590319530e-03
      1.0563752908753011e-03 6.0110487914439232e-03
      -6.6691234274612815e-03 7.2841177357428231e-03
      -7.9427876000260564e-03 -5.6073796775523137e-03
      4.0400716013278036e-03 3.2798690635575521e-04
      4.8558145611997420e-03 -1.4106115898786945e-03
      7.0329709755203524e-03 -4.7594466820972603e-03
      9.1966720059220484e-04 -7.6710608729130339e-03
      1.4142474179932029e-04 6.1304538303025673e-03
      -6.8269079982694464e-03 -6.3243311130488445e-03
      -4.8063944338454989e-03 -4.6274433853658748e-03
      6.8504974276806432e-03 -4.2188676442751213e-04
      -4.1980987288106463e-03 4.8608495330278523e-03
      -5.7255963406328235e-03 -3.7828002453711208e-03
      6.5071560696774956e-03 2.4042275202827931e-04
      5.4546836587889991e-03 -5.7085813152278411e-03
      5.2830171393811352e-03 -7.1348676731438415e-03
      2.4500175287490928e-03 -4.8317545582736068e-03
      -6.1975478536620780e-03 5.9889040529192321e-03
      2.9577738512026070e-03 5.5063229248389529e-03
      3.7611917208158906e-03 -2.3511795679242629e-03
      5.9332911550820239e-03 3.7736147599399051e-03
      7.6947954508856031e-03 3.3160566734294667e-03
      6.1791494425341769e-03 -2.1476067131623588e-03
      8.1889351896310991e-04 -7.9310637164608216e-03
      3.4918544249986738e-03 -7.7876396540623363e-03
      2.3270504972797016e-03 -5.5477456877797140e-03
      -3.0437468072194791e-03 6.5316995129198550e-04
      -4.3237157634478749e-03 -2.2483881185235612e-03
      -1.9981974685484875e-03 -1.4959867405845836e-03
      2.4833020746904098e-03 -2.7472422731753075e-03
      -5.1405750867405632e-03 -5.0344405093587594e-03
      3.3417815621448661e-03 -1.1188008717120241e-03
      -8.1758491294422232e-03 3.9386169834974977e-03
      5.9766505452173791e-03 -7.3578147599884962e-04
      -7.8221272426033904e-03 6.9914345690638398e-03
      2.9548476054602826e-03 6.6275316206950144e-03
      -2.8065193238265684e-03 -6.8361016092472237e-03
      1.3151390559614155e-03 4.0081356124703612e-04
      6.7000533701433084e-03 3.4237444640434142e-03
      -6.6620306257155490e-03 7.2391110227502742e-03
      -2.2218183674815161e-03 -4.8917650993440169e-04
      -4.0790559478652419e-03 -3.8584896829415051e-03
      2.9380133374153124e-03 -4.6565535498458777e-04
      4.2046130354477700e-03 4.9226164566540586e-03
      -3.6245664458376885e-03 6.5377890114991987e-03
      -5.5050278903552357e-03 7.1502053162544191e-03
      -3.7357183253707406e-03 -1.2070157675068674e-03
      3.9226212158440174e-03 6.6337070077870518e-04
      6.1800123305822364e-03 -4.1143346881967573e-03
      -7.5579938260959684e-03 1.6034740849083437e-03
      5.0720463874639309e-03 1.5890637014674832e-03
      -3.1381941431722444e-03 5.2816068751866630e-03
      3.7112765459184835e-03 9.7211400124149621e-04
      4.4108741181042799e-04 2.0614561705820417e-04
      -4.1101034908219538e-03 5.0696183807334609e-03
      4.7282177981818468e-03 -1.9462720671447901e-03
      -3.6481658139763803e-03 2.2922137606755069e-03
      4.9284833327667031e-04 7.7683593402813359e-03
      6.0026743003131610e-03 4.8078314610645609e-03
      7.7072487360945151e-03 1.1524789245294194e-03
      6.6174405836032747e-03 5.2693489882476791e-03
      1.0806919709690740e-03 3.9629686167502905e-03
      -5.3998151438213067e-04 2.3821690528326414e-03
      3.6808167360893470e-03 6.9115614427912317e-03
      -3.2712132153402337e-03 -4.8967737922947273e-03
      5.9618195907436685e-03 3.8829870009203611e-03
      -6.9899807358699004e-03 -3.3099604926292792e-03
      -7.6870277855433690e-03 7.5814767385068915e-04
      -6.5677197386084345e-03 -1.0029348115823064e-03
      1.1119229308008960e-03 -5.3801096097888523e-03
      -8.0299496489322341e-03 -4.6306156239657387e-03
      6.6884090191305350e-03 1.0760672352371130e-03
      -2.5930565544113587e-03 7.3233903845087312e-03
      3.9575035177254723e-04 -1.1558696131723789e-03
      5.3084819168195034e-03 1.2980768751052248e-03
      -2.4354754886311528e-03 -5.1045182875683950e-03
      5.1215257837448546e-03 1.8647223448853773e-03
      -7.6671703667405998e-03 5.4691893794614321e-03
      -2.0057854566733271e-03 7.7105339149374248e-03
      1.7921681802929865e-03 7.7546239797928740e-03
      -1.2686349847236134e+01 6.7136702147451832e-01
      2.0441742475099631e-01 7.1124508618433524e-01
      -1.1563238211603777e-01 1.2806757429676147e-01
      -1.5317094265808973e-01 -4.2919073322066564e-01
      3.8529274989645967e-01 -5.2540982061827037e-02
      6.0820235834475200e-01 -5.4526027437751860e-02
      -4.8793924382321496e-01 9.7375263826373626e-02
      -2.0690430864062140e-01 4.6280467921647264e-02
      -1.7746343415067813e+01 4.6388459149562022e-01
      2.2490945124914305e-01 6.3495151356420898e-01
      -3.4738484995984364e-01 5.1648988491380865e-01
      -1.3268138671730437e-01 -3.5501951378158125e-01
      6.7207762086241463e-02 2.2049489183947271e-01
      3.0119245928450389e-01 3.1200171903374315e-02
      -2.3621335722935111e-01 6.5017464696443350e-01
      1.0006253989044096e-01 -3.7874120754748575e-01
      -3.8677915205654564e+01 2.6612832545869963e-01
      1.8390357670739019e-01 8.8722338696682623e-01
      4.1218927628496854e-01 3.3988875804521657e-01
      2.0087294648817942e-02 -4.3987438331478523e-01
      -6.3274738400631428e-02 -1.1826497540334961e-01
      1.6942274812757380e-01 6.6730638922582824e-02
      1.4981622254633442e-01 6.3629586947697880e-01
      1.3463433680570658e-01 -1.9941359077524765e-01
      6.5743284938640363e+00 4.9417226883826992e-02
      -6.4533924544554278e-01 9.8684781166711955e-01
      4.5986866542046984e-01 2.0591198684785036e-01
      -4.2433790847442038e-01 -2.6571279161200800e-03
      -4.6062991341323321e-02 1.8988327590443946e-01
      5.9780409915974586e-01 -1.1574336351664094e-01
      3.9643009224214265e-02 1.0425416227825518e-01
      2.4515113557754981e-01 -1.1538637548569133e-01
      8.5860105251982226e+00 1.1133541606779268e-01
      -4.7904979496137767e-01 7.3674781920321275e-01
      9.5299732415563984e-02 4.6130528935561788e-01
      -1.4154514241526242e-01 -1.4673168204991069e-01
      -4.0289397753065115e-01 3.5053090438756085e-01
      2.1558839413196915e-01 7.3328418073053153e-02
      2.7326065283020257e-01 4.8430021299304638e-01
      4.2638206505009207e-01 1.8099339601462064e-01
      -1.2671262540654674e+01 4.3964544649200898e-01
      -2.1223733222406660e-01 7.7337021506824333e-01
      5.6269264219541648e-01 8.0602946130814326e-02
      -4.8139000261544213e-01 -2.8277969640128497e-01
      -2.4949638243034317e-01 5.6293297968145573e-01
      2.0279823060680074e-01 -1.9302041840015252e-01
      2.4471985108290398e-01 2.8016857657730188e-01
      -4.9653107321799547e-02 -6.1133291654037206e-02
      -8.3412347446168784e+00 3.8075047792895239e-01
      -1.7502517577518312e-01 1.9583484532848772e-01
      -1.9559189491059703e-01 3.0635343347561650e-01
      -2.8207493116335802e-01 -2.8127460482957661e-01
      -4.7862322512116312e-01 2.1938357553456081e-01
      -1.0993016795010639e-01 4.8907457709815139e-01
      2.8697646867794252e-01 1.2860060191653144e-01
      2.8309989289729616e-02 5.4842247355084839e-01
      -2.0616197026006002e+00 -1.8319807746637131e-02
      -3.0697614489429526e-01 1.1605036055524334e-01
      -2.3714523641311019e-01 -2.6850904337944431e-02
      -2.1843156186700543e-02 -1.9696777744500321e-01
      -3.3717601569279027e-01 2.2742070089291072e-01
      -1.7208016732257891e-01 3.4924443347539935e-01
      2.6895597769902763e-01 1.3720875331567015e-01
      -2.8707388467832769e-02 1.1500419332223646e-01
      -6.4854381643972958e-01 5.7414495157743529e-02
      -5.8590928223951888e-01 -7.8436681016885237e-02
      -2.7869846627275700e-02 -1.4003104729001165e-01
      -2.3764401991530956e-01 -1.9736249550705037e-01
      -2.6971302612864023e-01 1.5988786272136093e-01
      -1.3513845762594052e-02 2.8090208239853454e-01
      1.7553251685879909e-01 3.5174357012374763e-01
      -1.7331653151089782e-01 -5.8633870076993902e-02
      -1.1179535291078180e+00 -2.4877986098083341e-02
      -3.1561868244681784e-01 -2.5218119250027077e-01
      -2.3793915272810867e-01 -2.6708076398571123e-01
      -8.1133099805287906e-02 -5.9840504275797757e-01
      -2.6238297511270670e-01 2.0672927047387649e-01
      -6.2536330684414262e-02 -5.5808545748631111e-01
      -3.2488546956550851e-01 6.0857695603767026e-01
      -1.2788056988459121e-01 5.3354975284319750e-01
      9.6134359147636861e+00 -2.2713842608545387e-01
      -1.0479480476880665e-01 -4.8506808209073338e-01
      -3.2770241223981500e-01 -3.7801809279794774e-01
      3.5651056858945498e-02 -5.7737126273024153e-01
      -1.7684537750681129e-01 5.9876414079481577e-02
      1.3571063572455389e-01 -5.0694186069250258e-01
      -2.0815556849928316e-01 3.3801510412417923e-01
      -7.6282216855669327e-02 5.6364599381264580e-01
      2.8194078786780679e+01 1.4691595735554452e-01
      3.6769942511396708e-01 -4.1162427525458511e-01
      -4.8193724926324906e-02 -2.5833277503479208e-02
      3.1441360047376077e-01 -4.8553434778323590e-01
      -4.1947153254065755e-01 -3.9813832542224287e-01
      5.3978027896005500e-03 -3.3224472195852789e-01
      -5.9938160679629238e-01 4.4894270062266692e-02
      -3.1011977465238677e-01 9.1461487708189360e-01
      2.4807459302165110e+01 3.7435339050432931e-01
      3.8475754960287339e-01 -3.4333975643760606e-01
      4.0996158489250595e-01 -6.5089696302899780e-01
      -2.0842316699064345e-01 -7.6043904288833974e-01
      -3.6210832307936069e-01 -2.6792815153745642e-01
      4.3056511735725625e-02 7.5067390771800135e-02
      2.3387580825567422e-02 -6.9110797853943723e-02
      -1.2634025580261668e-01 1.6360483271875631e-01
      -1.0055875103175943e+01 1.0873463420999209e-01
      3.5174061694186209e-01 -9.8227538260323960e-02
      5.3835563061996472e-01 -4.0584175503618541e-01
      -9.6182539730160033e-01 -3.9961530904186543e-01
      -3.2307416919320664e-01 -2.0692422558042067e-01
      1.3034063023876175e-01 -2.6657354873446570e-01
      -1.3039394036767868e-01 -1.0909354821330432e-01
      1.0297113870510323e-01 1.2899786245177755e-01
      -2.5907675284393456e+01 2.6837307179982067e-01
      3.5719510286575862e-01 1.0534780743870663e-01
      8.0536230791258920e-02 1.5314246829234071e-01
      -1.8976190269219190e-01 -4.6596970424367068e-01
      -7.0192352546230774e-01 -2.7316164220672762e-02
      -3.6655696614527994e-01 -3.6468779084509156e-01
      -2.6195107398897854e-01 3.6703411993894666e-02
      2.2834557956743567e-01 3.8682719931103388e-01
      1.9530620930374486e-03 3.1567384075759305e-03
      3.7006789248712414e-03 3.5947915993560947e-04
      -5.6899532250788572e-04 1.5321421935173603e-03
      -1.7033490857740171e-03 -2.7137011491637445e-03
      -5.5402520368325126e-03 2.8241617977948406e-03
      -5.7435293714330100e-03 -3.1921407330369527e-03
      6.9436721084012790e-03 7.6217960846365895e-03
      -3.3475423116072142e-03 -2.4110697101219106e-03
      -7.6762190500859617e+00 3.1927087359148154e-01
      4.5527900062236493e-01 4.9693443618767380e-01
      6.8527529750187943e-01 -4.8805584909941857e-02
      -1.9174273073268860e-01 -7.2947684096590371e-01
      5.0313587170315410e-01 -1.8537477771454916e-01
      -4.4915521398434945e-02 3.0125260815973798e-01
      4.1026614753297136e-01 -8.5163577206429017e-02
      9.3567732359688099e-02 -5.9402999501387881e-02
      -5.6206211678338782e+00 -5.2316247374283878e-02
      3.6253196716061517e-02 5.5392230139966325e-01
      5.8612294313221114e-01 -1.4348889617224983e-01
      -3.6621509407085573e-01 6.8017139288628195e-02
      4.8268467592704584e-01 3.5062758403820721e-01
      -6.6293136795623220e-01 4.6784741893149728e-01
      9.0322897047328310e-01 2.1765500649601879e-01
      4.8785404288195361e-01 -3.1314704077428368e-01
      -5.8969183928228173e+00 -5.2896549723211485e-02
      -4.2043593471547769e-01 3.7074473740839464e-01
      8.1819336630350414e-01 4.4581836166438310e-01
      -2.5535352577772075e-01 -2.9086796974529594e-01
      -2.2985966640475536e-01 -1.3725423574358259e-02
      -4.1838624849498740e-01 2.0104071686535377e-01
      6.2264048143477402e-01 2.3917103792070288e-01
      3.0832319118641238e-01 -1.7876522232511492e-02
      -8.3393564403576903e+00 2.4843874729354787e-01
      -3.8849791582137777e-01 1.4835615326371456e+00
      3.1190631079121484e-01 5.7320190090180601e-01
      -6.2753109225029535e-01 -4.5542425650693014e-01
      -6.6789235009037373e-01 -1.9031842754312642e-01
      -9.0740803371341203e-02 -1.1992162748291066e-01
      6.7335327189514138e-01 -3.4156625642501770e-01
      -1.9462737456362042e-01 5.9159677911501951e-01
      -1.5713528835958556e+01 6.6827979479988461e-02
      -1.5763811854688872e-01 8.9592016694804311e-01
      -1.9103106171852349e-01 4.4597657841585014e-01
      -4.2610592140893988e-01 -6.4513315878759714e-01
      -4.6933447344444662e-01 8.6555400942500749e-02
      3.9831782153885054e-02 3.0245276120514031e-02
      6.8313384690842249e-01 4.1300579196875187e-02
      -3.5571384001457618e-01 7.9580102425827604e-01
      -3.8752262608048987e+01 1.8601201063189216e-01
      -4.4770304139133792e-02 5.8346572160738230e-01
      1.9765604539023054e-01 2.7020966740800845e-02
      6.1478559354617920e-02 -2.5365797789456157e-01
      -2.7282699354301287e-01 2.5010068937160790e-01
      7.9380748945256374e-02 -8.2920652800074224e-01
      2.0913381333333586e-01 2.1519824979284385e-01
      1.3973396977952740e-01 4.2513268000259719e-01
      -3.1355499160657455e+01 6.7032214466668530e-02
      7.6438216085653404e-02 3.9504176043976669e-01
      -3.4561637721665328e-01 5.6088531472622682e-01
      1.3656424286598715e-01 -1.4051782364019652e-01
      -1.4125999871487674e-01 -2.0085606212668144e-01
      7.9885874720983310e-02 6.3952462158207504e-02
      9.2407955199156555e-01 -7.6744146574435360e-02
      1.6061164705288214e-01 3.5894436042555994e-01
      -3.2103935340728533e+01 -1.4079005213499790e-01
      1.0347386640391092e-01 1.8318696107037308e-01
      -3.2878728695776051e-02 1.3661738128618284e-01
      2.1148531035488216e-01 -3.6942138108010697e-01
      -1.5892200043468124e-01 -1.0804257470688711e-01
      8.8953704513888079e-02 2.9911605593109564e-01
      3.4568726865993371e-01 -2.1539469603331218e-01
      -1.6046335845417903e-01 2.8445956906249220e-01
      -3.9732971982798169e+01 -2.7530900202801833e-01
      -3.2304038559793863e-01 2.5152012628204401e-01
      -2.0504988176755454e-01 -4.9230268509379151e-02
      7.4810736640281858e-02 -5.8512950392954344e-01
      -3.2275094460732823e-01 1.2963639958432072e-01
      2.1197535708078946e-01 1.3021232821869347e-01
      1.3505006656661794e-01 -3.9159584709157619e-01
      -6.6639510471312211e-02 3.5873043078279954e-01
      -3.7203371649589570e+01 3.0365063244592938e-01
      7.6291879657276358e-03 4.6635437604468316e-01
      -3.8012327920329680e-01 -1.1144408673586883e-03
      2.8957600040985385e-02 -2.0770741676288396e-01
      -3.7157254926145444e-01 -2.5963788550471972e-01
      1.0935629224533666e-01 1.6338025361058045e-01
      3.7913672208780946e-01 -3.4325460138736563e-01
      -7.7817650734286453e-02 6.3984202072688590e-01
      -3.1084409405235721e+01 1.7322329310842555e-01
      3.1130190285022502e-01 3.4253488949554056e-01
      -1.5427413023859265e-01 1.9070546145080081e-01
      -4.6266693478072975e-02 -1.6637720986586169e-01
      -5.5567660632894011e-01 -2.9379396273346997e-01
      5.6659434914958035e-02 2.2178283151971440e-01
      -2.5151310498384101e-02 -7.1732443504732735e-02
      3.3447486346994126e-02 5.5878312711988709e-01
      -2.4693732941064592e+00 3.6722526027051272e-01
      2.1713135317966889e-01 5.5879636863886140e-02
      -2.9762199869323203e-01 1.1867997835679471e-01
      1.2212820109611230e-01 -1.3976367733049957e-01
      -4.9877473113088711e-01 6.8165718037138112e-02
      6.0411008763870977e-01 -2.1013882754202715e-02
      -1.2897437517770269e-01 -2.8029691570447618e-01
      1.6016319024121742e-01 9.2897254906894644e-01
      -2.7120772605930149e+01 3.4323561893317550e-01
      6.0835572575021424e-01 2.8772200644609841e-01
      3.0242292873580007e-01 -1.8552797227249057e-01
      5.0047381945111179e-02 -1.7324244864916971e-01
      -3.4389153679462581e-01 -4.4846347417117877e-01
      -5.1130430577796579e-02 2.4617434250257161e-01
      8.8632909688096728e-02 -7.6647302445554155e-01
      2.0587954810565159e-01 3.2407690096601038e-01
      -1.9896660091200257e+01 3.4366897196030294e-01
      6.4397325600770966e-02 3.6145943539535062e-02
      5.8711459219550621e-01 -2.8380095942750794e-01
      7.0431224968682940e-02 -9.3264806905461517e-02
      -1.8925410930994266e-01 -4.8204463896662053e-01
      -2.7453947745492163e-01 -1.9243745597776707e-01
      -4.4528600995675288e-01 -4.4027634039706709e-01
      -6.8357111924905511e-02 3.9763525298493030e-01
      -4.0982747328047147e+01 4.7314707873942069e-01
      7.3397055475919862e-02 1.9771784793380257e-01
      3.0065908870257296e-01 1.6423867555395494e-01
      -3.1918489648993582e-02 -6.1464161470268541e-01
      -2.5632280746385988e-01 -2.7393721985425779e-01
      -9.9839582734548449e-01 -3.3325760340539456e-01
      -1.4612871362481283e-01 -5.9772695518616847e-01
      8.3489754384957801e-02 5.5504787491068786e-01
      -2.9443810402959227e-03 3.7969021170283284e-03
      6.3270920185220644e-03 7.5348180188842748e-03
      -7.3728558910967782e-03 -7.5131369689847884e-03
      2.4126393578548884e-03 2.7903452159680642e-03
      2.5244362256919540e-04 -4.0057369934562714e-03
      -5.0571749447861029e-03 -1.0689934209804370e-03
      5.9687671218958370e-03 -4.7928593980095498e-03
      -5.9644273234912238e-03 4.5793501085690056e-03
      5.7037234985076521e+00 -5.0899343515414516e-02
      1.8045517726675545e-01 4.5368325130404585e-01
      2.6005407317814438e-01 -6.1389447406814401e-01
      1.0357931527760333e-01 -4.4767250016476945e-01
      1.5730317891620438e-01 -1.0137223250935992e-01
      4.3446629538217617e-02 -1.9890712080698224e-02
      3.2349537206744927e-01 3.3119054318724089e-01
      -1.9502512755955877e-03 -1.2193293591978992e-01
      1.3374864007101404e+01 5.3921539960406939e-01
      -4.8117768250487469e-01 4.3457135557814375e-01
      3.9528380917369876e-01 -5.4812778634077175e-01
      2.3956506124547566e-01 -2.0449045337014618e-01
      1.1338282957176092e-01 2.8450613836764360e-01
      -4.2746184665313774e-01 1.8304609716635006e-01
      1.5411608005469335e-01 -2.0479271047662728e-01
      8.3545987405109556e-01 -2.2079456380335999e-01
      -2.4414711761671459e-01 2.4969985965608960e-01
      -6.3078511206332155e-01 8.1495433765068481e-01
      1.7125217551381763e-01 5.9262190138522342e-01
      -9.6501807962736941e-02 -1.7150075203377305e-01
      -7.4806860421985077e-01 -2.1722408619998565e-01
      -7.3581320772597836e-01 2.9758297509483461e-01
      3.8306330604322522e-02 -3.9302244437807277e-02
      3.4030035487677646e-01 5.0849756417780911e-01
      -9.3760442936765465e+00 1.3674457734197251e-01
      -4.9811352666418479e-01 6.1520040867989856e-01
      -3.9269726905980951e-01 -2.9619587659309759e-02
      -7.1434103181716657e-01 -2.7760767807844111e-01
      -8.2336115189203540e-01 -4.3335717415578137e-02
      -4.5776026793413943e-01 -3.6213822250527378e-01
      1.6660375390665139e-01 5.0267141832411377e-01
      2.1781254578868939e-02 9.5152520300171117e-01
      -2.0282581883173275e+01 1.3760749233430930e-01
      -2.8167723407952361e-01 2.0050735290795085e-01
      -8.3388206266927900e-01 3.1644563410456225e-02
      -5.4832320718866856e-01 -2.8345023791693796e-01
      -7.2144689841725429e-01 2.7814790029296854e-01
      3.2884028065752202e-01 -9.9751597080845744e-02
      -1.7457637896880904e-01 5.3830020045215987e-01
      -3.7445939922058434e-02 6.1526998606789607e-01
      -4.1845745643494233e+01 -1.4781145516817490e-01
      2.2409271485688778e-01 5.4290232651314899e-02
      -4.9085635639878600e-01 -5.9505128403543728e-01
      -1.9704803896182541e-01 -5.3691040755200559e-01
      -5.6928356144809167e-01 -3.4117861815613809e-01
      -1.0689051057030473e-01 -9.2594911008725655e-01
      8.0256542873654857e-02 6.2181804893949044e-01
      2.6471323768546152e-02 1.5288783060205441e-01
      -3.4221560622024789e+01 -5.0005404508119744e-01
      2.1082214693981066e-01 1.2691033329861792e-01
      3.6964524183561459e-01 -4.4429177450832597e-01
      -2.1755233404990068e-01 -6.0477573786774952e-01
      -4.8098665981337446e-01 -4.7196394811830961e-01
      -3.1246192402164985e-01 -8.2977040754645925e-01
      2.9600003060944419e-01 4.9865027567743936e-01
      1.4951572944496189e-01 1.6950962890293145e-01
      -1.1326982074551241e+01 -5.0416633298265756e-01
      -4.2359938585868229e-01 -3.6403154657202041e-01
      -1.6643685864019345e-01 -5.8361997014673395e-01
      -4.9532662609221199e-02 -3.2067836134012140e-01
      -7.5973809035388506e-01 -2.6004998612368674e-01
      7.2352197442196564e-02 -5.4609628891170747e-01
      2.1057865215094987e-01 1.4820674514622018e-01
      2.3989301674754598e-01 2.4559831854253464e-01
      -2.0382831843249203e+01 -3.6049652306895902e-01
      -2.9685955001046088e-01 -1.5257939363984813e-01
      -3.1885020235047368e-01 -2.2197585245894319e-01
      2.9873438676616109e-02 -2.5843142502952599e-01
      -7.3767498844947854e-01 -1.1903353813236235e-01
      7.6325844965712736e-02 -7.5554938345839207e-02
      3.0938093504818903e-01 -2.1180104425062840e-01
      4.4053700470450929e-01 2.3645451802150796e-01
      -2.3941132841323313e+01 3.0700619802205775e-01
      -2.7297748022665974e-01 2.7309820901577714e-02
      3.8309164829229102e-02 1.0332022323716278e-01
      -1.3445902898187007e-02 3.2317828464334501e-02
      -2.2901052954486259e-01 -4.5290840263448306e-01
      6.9573373837664565e-01 -3.7041824037134924e-01
      5.8965290808804605e-01 -1.8651620751384268e-01
      6.1298982941997127e-01 4.5156019438873884e-01
      -1.5694828810919686e+01 2.2013509737304168e-01
      -4.1488208310416091e-01 6.0372537916453239e-01
      -3.9938899595261368e-01 5.1087404146125259e-01
      1.0338232032953829e-01 -2.6087182552098448e-01
      -2.4820323886577869e-01 -7.3208630631420701e-01
      1.6620444016560443e-01 -3.9561418177402863e-01
      2.2723870805772628e-01 -4.7116425398780498e-02
      2.9983074080151967e-01 6.4664040560619596e-01
      -3.4712886034898851e+01 4.9694324719734262e-01
      8.7555476435465596e-01 7.1021516489792591e-01
      -6.1515368904131829e-01 6.1294871444931098e-01
      5.8243838280815574e-01 -2.6920854454358284e-01
      -4.0881587954809473e-01 -4.3352506987712180e-01
      8.0333932903563576e-01 -4.0082862874274972e-01
      1.0972950167245069e-01 7.0413371852515547e-02
      4.1234127031676754e-01 1.0537882805365228e+00
      -2.7718980324119066e+01 6.2335177720332857e-01
      3.3933977527627485e-01 6.8778065304600844e-01
      -1.1427010166140979e-01 4.7829232643189284e-01
      5.8838097829459890e-01 -2.3461150526148999e-01
      -2.7243412969838227e-01 -3.2234359580723115e-01
      6.8131016661577060e-01 -6.3034133822750207e-02
      -3.9607270937530609e-02 -2.0446805942004051e-01
      5.3274140433198780e-01 8.1928911250714698e-01
      -4.3278520779101370e+00 4.2726397814743938e-01
      1.4479361945329122e-01 2.3343328547779024e-01
      3.3778479340344675e-01 4.4531928915893093e-01
      6.8812085214681962e-01 -1.7230603920635673e-01
      -3.1727001884527067e-01 -4.1968984873339110e-01
      -3.7461315287871055e-01 6.6748266071733175e-02
      -2.0615850828458257e-01 -1.9759502573168525e-01
      2.6090282955369436e-02 6.7446394966393020e-01
      -2.6120830005829415e+01 6.2175129748498226e-01
      4.1812422905110358e-01 3.0980958561521776e-01
      2.7110796496924272e-01 -1.9242172592949106e-01
      3.6356608374462568e-01 -5.8006742653545107e-01
      -2.1152436196261873e-01 -3.1049244218048500e-01
      -5.0752110707809750e-01 5.5650366704184544e-02
      -4.8620537344197447e-02 -2.9570183993545407e-01
      2.2494157580609916e-01 3.4669905345838087e-01
      2.5997792502462131e-03 1.8406564722332384e-04
      7.2083666167302180e-03 7.8675834778815408e-03
      3.2985997446666913e-03 6.7733334647967873e-04
      -2.9692410443401579e-03 -4.6222748909174379e-03
      2.8905604025839031e-04 3.1135684464450530e-03
      -5.3729311642302944e-03 -6.5786808163555716e-03
      -1.1841416375620807e-03 5.2571869908361506e-03
      2.4430000017738028e-04 -7.8916164465992564e-03
      2.3538166398318250e+01 1.8007295520810766e-02
      1.9510450131458504e-01 4.4739511968244478e-01
      3.4124512399034646e-01 -5.9156207260290150e-01
      2.7629207554736956e-01 -4.2921258453868616e-01
      1.5084424385009010e-01 -5.6023119289678229e-02
      3.3786714401967871e-01 4.6258032137633182e-01
      2.7895611232545020e-01 1.8491760816218311e-01
      -3.0714428956104212e-02 -1.3959320739783346e-03
      2.5030182580343705e+01 7.4853392986502554e-01
      -3.0992638742511086e-01 5.0233355796908630e-01
      -5.1586015820423686e-04 8.4235766685526486e-02
      2.7865743836244600e-01 -1.0409302369725870e-01
      -4.2654100406463613e-01 2.7252980033211680e-02
      -3.2397457733928303e-01 -1.7877293295746255e-01
      3.0120302887636574e-01 3.0129302222020549e-01
      6.2158605186510973e-01 4.4936021650270047e-01
      -1.8073242913127554e+01 7.0421075504017927e-01
      -5.1999875635382731e-01 9.3718368936418650e-01
      -9.4172746410129085e-02 4.5715273085889829e-01
      6.8839033662140031e-02 5.9760251690083803e-02
      -6.1043745882217915e-01 -3.2516011243164766e-01
      -5.3686763060278742e-01 -2.5093829659709292e-02
      -2.9876485975710099e-01 4.8339863005155714e-01
      3.5441760348806978e-01 5.8740695292701273e-01
      -6.3637587354496556e+00 4.5039499718081216e-01
      1.5963420760909831e-03 3.9020568492330382e-01
      -5.1886420435988158e-02 -3.3587067509560048e-01
      -1.8901349910437729e-01 1.1030015240542586e-01
      -3.9007416432632142e-01 2.8265330981777467e-02
      -3.3188352247368408e-02 5.4244121442021377e-02
      -6.1736411950550030e-01 -1.4387896389063010e-01
      6.0195042586209578e-02 7.7673179256602121e-01
      -1.9673715172277646e+01 -2.8848402501620835e-01
      1.6575746834486782e-01 1.5483628400785654e-01
      -5.8267498459008871e-01 -6.5248683767384547e-02
      9.4369730473378627e-02 -2.8625510741028561e-02
      -4.0460546543865533e-01 3.0580388740484371e-01
      -5.0032285362063855e-01 -2.0083471442212469e-01
      -4.0034697966409805e-01 -1.3375209233688751e-01
      -2.1280541111131776e-01 3.7165380444057083e-01
      1.3136261745970543e+01 -5.3126676238615034e-01
      3.1452557482583027e-01 -2.4594594088421029e-01
      -4.2339132507182980e-01 1.2640581606331938e-01
      2.0277519288961898e-01 -2.3117489666124744e-01
      -6.0902869363360346e-01 -4.0098016339140063e-01
      -8.7418694967945509e-01 -9.7815752152898205e-01
      -3.9023268961468111e-01 5.0313757793914426e-01
      -3.2752462245014280e-01 2.4340270434633093e-01
      -5.1144556243135435e+00 -8.0682291988413768e-01
      3.6050534720839567e-01 -2.3142962676102374e-01
      -5.0739344083015592e-01 2.8075576900554844e-01
      -2.6850060941353338e-01 -7.6371256092722462e-01
      -7.9396117790884857e-01 -3.4969155038132338e-01
      -6.6879872053407730e-01 3.7433851453034456e-01
      2.2548497240753895e-01 5.3338948464707092e-01
      -1.6502678153503386e-01 2.0933288650739726e-01
      -1.0052609120172484e+01 -3.8892109913283207e-01
      -2.2930612012017942e-01 -6.8415148205421925e-02
      -8.3378644978238256e-02 -2.7487480762163896e-01
      -2.0007872811430349e-01 -5.6672402851736436e-01
      -9.7130858311607882e-01 -4.7717615330378138e-01
      3.4069507320538478e-01 2.3690949110595141e-01
      1.3435696645961276e-01 -2.7531053312796046e-02
      7.7542000855856039e-02 4.5329227765714747e-01
      -1.3330667544940892e+01 -1.8415355505686087e-01
      -2.2246416844482289e-01 -1.7263550716580544e-02
      -2.5643343139910540e-01 -2.8392049785555501e-01
      1.3793712363040664e-01 -2.4257926048699061e-01
      -6.9267730479412515e-01 -5.4751069089780502e-01
      3.7661267396570441e-01 2.0301437763566269e-01
      -1.3563198116323857e-01 -1.2357153942894875e-01
      -9.5437399324819219e-02 2.9343230499115591e-01
      -3.2990330637871756e+00 -5.6313625509290755e-01
      -3.4433076878036867e-01 -6.7505976297948467e-02
      -2.3349251021993003e-01 -2.9015677201929513e-01
      -2.5249533693965770e-01 4.8941358374443307e-02
      -4.1534764280689085e-01 -9.3439144063222956e-01
      5.7170966727351968e-01 3.2089641581643763e-01
      -6.9108524444112225e-03 3.2619219342937195e-01
      1.3817142311827837e-01 4.3970947916245257e-02
      -2.7369509892677822e+01 -2.5615304456864940e-01
      -1.4719480274412799e-01 4.2729258741553461e-01
      -3.6892100835127151e-01 5.8477753361037568e-02
      1.4195022400857232e-01 -7.2823199991123119e-02
      -4.7808308855985832e-01 -6.7435707779356313e-01
      7.0817159960257769e-01 -1.4848000915305012e-01
      -4.1275798172254941e-01 -2.0090348274072459e-01
      -3.8107994565606838e-02 1.6711070875389042e-01
      -4.1786193843537525e+01 2.9830301562836858e-01
      -9.6302846343673393e-02 2.5091818771411689e-01
      -1.9056148605403403e-01 2.8740872412704327e-01
      2.7517755415191442e-01 -1.9256761872057121e-01
      -4.4572905842595184e-01 -2.6520857612858112e-01
      1.2072546011879841e+00 -4.5741474869385457e-02
      -4.1723610022151736e-01 1.0617038651046484e-01
      2.8908999035364763e-01 4.5860329389329096e-01
      -2.2484823452146117e+01 6.0507559892027085e-01
      -9.8744968140110856e-02 3.5084873860656329e-01
      -4.5639569117599660e-01 4.7013270157060727e-01
      3.8608683211659245e-01 -4.7452037321409446e-01
      -6.4767871301678892e-01 -2.9893162441743965e-01
      6.3780636629311449e-01 -3.8954380280164147e-01
      5.7160854022758979e-02 9.2055907492914646e-02
      1.1280885275476092e-01 8.4862550449602303e-01
      -1.9383969743668121e+01 2.7098657743504295e-01
      4.7314300753685853e-02 4.4982831838474602e-01
      -1.7352221423720485e-01 3.0180992393135841e-01
      -7.0627594079363004e-02 -3.1531836380394379e-01
      -1.1640335228935038e-01 7.1335412449638785e-02
      2.0775292689680483e-01 1.4907679556468992e-01
      3.2987246120795866e-01 6.5677235980419510e-02
      3.4779367172644687e-01 4.4689492560943905e-01
      9.3966834870015925e-01 4.1373314132625683e-01
      7.2380930645950872e-02 1.3008964036533610e-01
      -3.2304652567874254e-01 9.2329797327514868e-02
      9.7243478001142761e-02 -2.5938980714310789e-01
      -2.6262066871452890e-02 -4.3721978423451983e-02
      -3.7357434711350346e-01 1.8527525335151576e-01
      9.9820137542883963e-02 -2.6114205893269948e-01
      2.3124390639241640e-02 1.0896970752131778e-01
      -2.1170753046694667e-03 7.6923446477124638e-04
      -5.8885061716377517e-03 5.8618325908320916e-03
      -1.3670702582102212e-03 7.8385080706221150e-03
      4.9146471500164830e-03 6.2585107442718107e-04
      1.5462720612694821e-03 1.0320694156947419e-03
      1.7702376883623928e-04 7.3558133745240577e-03
      5.0171776995041337e-03 -4.4651344229930008e-03
      4.9121831636011483e-04 3.1756500746920996e-03
      2.6018117637227846e+01 3.6635958126749169e-01
      -2.3285645085670628e-01 2.4950742807113860e-01
      -7.9440448427929689e-02 2.0833276505535156e-01
      2.1612686219268004e-01 -3.0887109260008866e-01
      2.8801846220036575e-01 -8.4713707793221696e-02
      3.0936081951627037e-01 4.8747721939568861e-01
      -8.5375453138202079e-02 1.8926655971736125e-01
      -2.6809196850156997e-01 1.4237179204815137e-01
      1.3394834691734529e+01 7.0418162167944287e-01
      -2.3450928890575348e-01 1.4153928823882383e-01
      -3.2038575885388032e-01 3.6760886321456249e-01
      2.6631868004556930e-01 2.5425129830969095e-01
      -6.9719231913467100e-02 1.1457538775392725e-01
      -4.8438166670263660e-01 -6.4278661896407407e-02
      2.4828798867984725e-01 2.1824655549386970e-01
      4.5589022901839915e-01 2.2136146472507751e-01
      -4.7633958821914346e+00 5.0112300876347959e-01
      -1.0020859629803229e-01 5.1222362125880172e-01
      -6.7367273945182204e-01 1.5546656968710265e-01
      2.3013534520085679e-01 3.7127173368082711e-01
      -1.8015696443547408e-01 -8.0084519030350396e-02
      -1.1798191439356794e-01 6.2108618818109640e-02
      -4.9324353105765401e-01 6.3475258333866857e-02
      2.3961885090794985e-01 2.1814207117238341e-01
      2.7585110383848535e+00 1.4637343051398627e-01
      -2.5525772437270666e-01 5.5861592787459069e-01
      4.4124782400294821e-01 -4.5549606285047672e-01
      -4.5176043358958487e-02 1.6752699215250935e-01
      -4.2169449686326377e-01 1.5694773865117939e-01
      -5.3893447528540465e-02 5.2752799581795282e-02
      -2.7918344759239927e-01 2.2133772073414937e-03
      -2.1007317399361700e-01 1.9704839769572380e-01
      -2.9794841452026567e+01 1.8952070743225063e-01
      -1.5042421432815542e-01 -2.0297988782161397e-01
      -2.2791862312934194e-01 -2.2914996581436739e-03
      6.8476387082999357e-02 7.5653196225799663e-02
      -1.5422750648350128e-01 2.7513179630370793e-01
      -4.2458702297787282e-01 -2.7538401571062410e-02
      2.4428502257498699e-01 -3.4780945233670602e-01
      -3.6216620939757693e-01 4.0654420821966825e-01
      1.0972575912884260e+01 -2.3732251673090862e-01
      1.4494004768733390e-01 -3.8800866976395870e-01
      -8.6632666278786668e-03 1.8759680823716207e-01
      1.4289150592590599e-01 -2.3659799499384632e-01
      -6.1085399446505673e-01 -3.7527790913386760e-01
      -7.3195625863144831e-01 -5.7899645610521422e-01
      1.9536105709514293e-01 2.7144041354533505e-01
      -2.4072618015223371e-01 3.2650455878243007e-01
      5.5622493592494076e+00 -5.0764329245838680e-01
      5.4165493945903742e-01 -3.1039687774285912e-01
      -2.0601337663094504e-01 1.6998847185347454e-01
      -2.4821276160681860e-01 -4.5063848614108285e-03
      -4.5176481084379785e-02 -7.4528095621274404e-01
      9.2697501155348624e-02 -1.3472857096692295e-01
      8.8495685329876395e-01 6.2145502672090658e-01
      -8.4574533123707926e-02 1.0126401248289028e-02
      -1.4376128865149084e+01 -9.0822890628429132e-02
      -2.1927360583471639e-01 3.2379312276467681e-01
      8.0282742461894110e-02 1.6475496616220400e-01
      -3.2534014902799796e-01 -1.7104452642614662e-01
      -1.1122013915092609e-01 -3.0985342855663750e-01
      8.1560220804865113e-01 -1.0451846161394571e-01
      9.1412615659261098e-01 2.0045776574621679e-01
      3.0560484498437079e-01 3.5571391611070946e-01
      -1.1162586256286788e+01 -3.8238277573091717e-01
      -6.7391115370211985e-01 2.5555557803055151e-01
      1.8300695559031863e-01 1.6636781244950639e-02
      -1.2391234501152840e-01 3.8063200605870456e-01
      -3.2811373378800197e-02 -3.8579321880997053e-01
      2.5751323494938233e-01 -2.4420324571273674e-01
      5.2594578886056864e-01 2.9422841569706243e-01
      -2.1503672583919448e-01 3.0224960801558440e-02
      -2.7279344068111275e+01 -5.0885146925794644e-01
      -2.1513372809086106e-01 -1.5071430735665478e-01
      -2.8306798135976863e-01 -1.1607407692746237e-01
      2.5924547736976428e-01 3.7008143535299698e-01
      4.5023134277502802e-01 -4.1168365435544169e-01
      6.7156912398870761e-01 -1.4118490318636986e-01
      4.6467269090249236e-01 -2.6835674084683259e-01
      2.7640624492294413e-02 -2.9805445130035763e-01
      -1.4236699707931374e+01 -1.8702523592920614e-01
      -7.0101521940930300e-01 4.4230620259552572e-01
      -5.0931034750182935e-01 -2.3686807317680866e-01
      -3.2600415748623890e-01 3.3293239339967040e-01
      2.0068206392731328e-01 -4.7442193920714021e-01
      2.5544985532172378e-02 -4.2168743118928759e-01
      4.5953320527870190e-01 -3.6189373706393452e-01
      -2.7282617935227859e-02 -1.4222526014348807e-01
      -1.7444559611256691e+00 -2.0909218471499968e-01
      -1.2995979208351931e-02 2.7403488644685781e-01
      -4.3148156134251303e-01 -9.2243612610387313e-02
      -2.4244301428288650e-01 -3.9192480006122304e-01
      -5.6894266461755168e-02 -5.6852225559872427e-01
      4.1619800562185033e-01 -5.9696819809139301e-01
      3.1089293713551758e-01 1.0718662229681397e-01
      -2.5793814743547413e-02 6.8960912726255541e-01
      2.8684843252143427e+01 -1.1938634023867031e-01
      -3.1691575181863413e-01 2.9087632615628006e-01
      -2.5527110508684026e-01 -2.3261392953659873e-01
      -2.7860370441746923e-01 -2.9214281290727706e-01
      -3.1952506046382950e-01 -6.7309448282507267e-01
      3.0539377492397957e-01 -1.4461373585583503e-01
      6.9262202626455749e-01 4.0652814387397311e-02
      3.8268970183287537e-01 8.4584807283982932e-01
      1.5443002342405403e+01 3.5064299776142144e-01
      -8.9097829642638352e-03 2.8336177878692037e-01
      -2.7311340289179736e-01 -1.2821748068325747e-01
      -5.3100417054784199e-01 -2.7363450542415435e-01
      1.4136355482229590e-01 2.7432448463337752e-02
      -5.3668053268661260e-02 -3.4899489007498390e-02
      7.1510559796764228e-01 2.6584301887311351e-01
      1.5117107328376628e-01 2.9961959281083916e-01
      1.8228405663470966e+01 7.7481825539785595e-02
      2.0799718899845268e-01 5.3615226025402682e-02
      2.3539806289224427e-01 -4.9034310079916921e-01
      -7.8875004189010042e-02 -4.7770979714418838e-01
      2.2932853107674644e-01 2.3311257674444727e-01
      -6.6500640634282304e-01 -1.0382220862730503e-01
      6.5674077800093178e-01 -2.3593838792291905e-01
      9.4633769138393303e-02 8.9413220103899321e-02
      -2.6927237755773265e-03 -6.1997899083642604e-03
      3.9462875046175731e-03 -1.9434719803626411e-03
      5.1576841789378828e-03 7.3038518847526549e-03
      3.3343556164111767e-03 1.8546460466173993e-03
      1.6962595475682580e-03 -2.6418585329210952e-03
      3.3566675439299699e-03 -3.5485833609043248e-03
      -4.6694374268786741e-03 -9.9511747274160412e-04
      -2.0255279472572488e-03 4.1104412833531997e-03
      5.4236592137976906e+01 2.6626044214680394e-01
      4.3322457419759403e-02 -1.6058493551418630e-02
      -2.8836161468847521e-01 3.9778554648191011e-01
      -8.3567896618280540e-02 3.9265320367850451e-02
      7.3799784978747562e-02 -2.5912266026379849e-01
      -3.1671108335803340e-02 4.1702539099289831e-01
      -3.1769968515028640e-01 3.5943635883711073e-01
      -4.9749772175263535e-01 3.0733973628328032e-01
      2.1384815233355596e+01 6.1682809029285257e-01
      1.3181073357341401e-02 -2.0008167581907962e-01
      1.2179363810380102e-01 5.2186765524241996e-01
      -5.8036612974277174e-02 2.0980081266358530e-01
      -3.5208679217955197e-01 -1.0462561235890704e-01
      -4.1020920467672539e-01 1.1255418608075510e-02
      3.0184880035353173e-01 4.6663145632094427e-01
      5.1036522920691874e-01 3.4209563488872158e-01
      2.1037973695694832e+00 3.1163721116487412e-02
      -7.1956867221683568e-02 2.7094056946060024e-01
      -3.7819768516599500e-01 2.6700987367587353e-01
      1.0107549714673093e-01 1.5019876542441721e-01
      -3.8037227670886792e-01 -4.7829056991250957e-01
      -8.1321984859932292e-02 1.3105578535552369e-02
      2.4899472230489311e-02 3.2757906443694357e-01
      7.3327316504659706e-02 4.1965440225325001e-01
      6.1070737975387921e+00 8.6303082079911927e-02
      -4.6282103626292903e-01 5.1735561778322858e-01
      -9.2001105277913622e-02 -8.5883654690998401e-02
      -3.2122564644732132e-01 2.9794107123873237e-01
      -1.9933099278723346e-01 2.8139185039296943e-01
      -2.7494716666421957e-03 1.9246779070083458e-01
      -5.7595533404206187e-02 8.2626995820898580e-02
      5.0942143821949573e-02 -5.5976284534783996e-02
      -9.3395490272212616e+00 3.9347326250020664e-01
      -6.7719546522989171e-01 2.3935722303237014e-01
      -5.3328980647726754e-01 9.6082714850131867e-02
      -1.7637752562704154e-01 3.5371312037625852e-01
      -5.4325266215962557e-02 -2.0040723301656219e-01
      -1.2810453995793628e-01 1.8080486965872800e-01
      1.9634363284592887e-01 -3.2133451632018112e-01
      5.1887449421820296e-02 3.1091955037121227e-01
      -2.0601578096605273e+01 -1.1732202299010687e-01
      -7.4091390695550000e-02 -2.0170673101205169e-01
      2.6436357764657328e-02 3.0177156737846350e-02
      -8.3820421162406858e-02 1.1115676870618903e-01
      -2.4627380634113347e-01 -1.4707493567801874e-01
      -4.0736412636341846e-01 1.6756487472987511e-01
      -2.1206747063173689e-01 1.2812318741811007e-01
      1.9744441789375705e-01 3.0410678603076230e-01
      -3.2597790141414634e+01 1.1679179944947227e-01
      -1.7414818384986688e-01 5.0509523449522267e-02
      2.4874478460609861e-01 4.9153637162829111e-01
      -1.8637287011132492e-01 1.2291129113161807e-01
      2.5203280273336132e-01 -3.3290033857717044e-01
      2.5524484442591994e-02 -2.7979556737280648e-01
      4.6106042600582336e-01 8.7709347973852866e-02
      1.8476422405950044e-01 -2.0517366437817139e-01
      -9.0490517478008208e+00 1.5784757917249689e-01
      -2.8476900639483727e-01 2.5779097257415901e-01
      3.0330165098500378e-01 3.9814615375317042e-01
      -3.8648645898042849e-01 1.0552935100444125e-01
      -1.8779481978058749e-01 1.9047261267059032e-01
      4.0217775300347314e-01 -4.6883581280581887e-01
      2.2414328449194124e-01 1.3547866275050879e-01
      2.5289303000911434e-01 -7.6815232599314776e-02
      -2.0732496784679135e+01 -3.6425336891178250e-01
      -2.9317254154203254e-01 3.0053381129667428e-01
      8.8380772877085095e-02 4.8507308904448515e-02
      -2.9467662081322860e-01 3.8453833031864504e-01
      -8.4311068494856908e-02 -1.9775584051804898e-01
      -6.5347066836879442e-01 -3.7765765732714111e-02
      6.3716059178447026e-02 1.5688468603202364e-02
      -1.1556917537516108e-01 -3.8491274941144210e-01
      -3.4231438403345031e+01 -5.4497509673208022e-01
      -4.3038427273392282e-01 1.1674470906112099e-01
      -1.5226730644552952e-01 -8.6268067414185981e-02
      -5.5127030104962793e-01 3.0599844611557919e-01
      -8.7370320020634468e-02 -7.1193636897145640e-02
      -8.3933013744551022e-01 -9.5809379443200685e-02
      -2.7509163632450911e-01 4.9662286602591005e-03
      9.8799735400455266e-02 -1.6319955937843303e-01
      -2.7530775742372892e+01 4.7162123072992002e-02
      -3.2980322419510066e-01 7.1816914874040194e-01
      -3.7175804817620273e-01 -1.1422346001956238e-01
      -8.8756928697759085e-01 -1.1611490749231448e-01
      -3.2448951651697611e-01 -1.4378117298321505e-01
      -3.5153345132053598e-01 -5.1540786920966142e-01
      -1.6611277743541783e-01 1.0559910541166709e-01
      1.7599298054589041e-01 1.3987174515477896e-01
      7.4136806701368076e+00 -5.4991006282473109e-01
      -3.4436428222762699e-01 4.1206647275055114e-01
      -2.2702280008606582e-02 1.6673383572725253e-01
      -9.2731657760932240e-01 -1.8752150476091040e-01
      -2.4377973833037131e-01 -3.5438298963324349e-01
      -7.6862252427125757e-02 3.6502451598523680e-02
      2.1435730526571994e-01 5.1342861615489421e-01
      1.0636497787455038e-01 4.6066762605845057e-01
      2.7403066203927480e+01 -4.9757253247285821e-01
      -4.6225070085761412e-03 -1.3273783159114444e-01
      -1.7346609728790072e-02 -8.6754258535938336e-02
      -8.0662863758258052e-01 2.9821478999134194e-02
      -2.4094805812201886e-02 -3.0254144892997631e-01
      -1.1915091010509703e-01 -1.0763750140422079e-01
      4.7311879355529612e-01 5.2571831097663690e-01
      1.0181689499172608e-01 1.7910590836796608e-01
      2.9493464430514560e+01 -3.9327211647292459e-01
      -1.3202067451509339e-01 -1.1410861046382482e-01
      3.2419255483997184e-01 -1.8939980328896105e-01
      -6.3782063447190618e-01 -6.9890569716204748e-02
      1.2534828782407076e-01 1.6511453328143000e-01
      -3.6133133800501527e-01 -7.5093772164881556e-02
      6.9125182865738366e-01 -4.3796742484646309e-02
      3.1680168161565114e-01 -3.3607583851876266e-01
      1.6068489157889491e+01 3.6808902518933109e-02
      2.0297289775494304e-01 6.2207433883758302e-02
      3.9688355267100128e-01 1.4797524221016618e-02
      -4.3020682547066968e-01 -1.4529609650663902e-02
      3.6129005091032157e-01 6.7601755796693630e-01
      5.0090814738888345e-01 -2.6350382648860582e-01
      6.2479276089650249e-01 -6.5325492418573505e-03
      8.7776219067086414e-01 -2.4179424285408635e-01
      2.9237997026200094e-03 -1.1298265216243106e-03
      -5.6898200716401449e-04 -8.1786736678409898e-04
      -4.6370777672945689e-03 -2.6746403801648673e-03
      4.4042742952581544e-03 -5.5939986137676801e-03
      -5.6040338877590577e-03 -2.2749852618768923e-04
      -2.1994772595274360e-03 -5.1781079553139802e-03
      2.4644530379415771e-03 -4.6911568643752226e-03
      6.9586312883543177e-03 3.9637951328251198e-03
      3.7373335097951603e+01 3.4312809593452964e-01
      -2.1472592211510738e-02 -2.0042678797027619e-02
      -2.4516597131130913e-01 2.9645503478699642e-01
      -2.6215057992009327e-01 -4.1816809832583582e-02
      -2.3919141202422421e-02 -2.5122179334898420e-01
      -1.5750838809464603e-02 3.7334772355404905e-01
      -2.1894202916078978e-01 3.5177424050748918e-01
      -2.0587013081006042e-01 1.6984465069994126e-01
      -1.8460898267077279e+00 6.2912837400079114e-01
      4.2262148133582561e-01 5.4939876602027551e-02
      5.3303830855695589e-01 8.1506352705748386e-01
      2.2037754661528960e-02 9.2749323065878089e-02
      -5.3366769976344075e-01 -5.5652052768545435e-01
      -7.3339732527510282e-01 -1.2963866545047426e-01
      1.5585664041513833e-01 5.0904233910321062e-01
      1.2132855763389248e-01 3.3494786099571261e-01
      -1.4751628192513075e+00 -9.1311215314310260e-02
      3.0019543026796303e-01 4.7992449936391834e-01
      3.1034167810672569e-02 4.1692178168216498e-01
      -8.9273981712761463e-02 -3.1637904622429036e-01
      -5.4163852413256819e-01 -4.5126024914414176e-01
      -4.4399835705041690e-01 8.7111613942809606e-03
      4.2628603609278115e-01 2.5342515103484181e-01
      4.0400106693613005e-02 4.3738562157386407e-01
      -8.2475252909478147e+00 -7.2877682010112549e-02
      1.4734322353722923e-01 7.4475110507081588e-01
      -3.9439739582495759e-01 3.0744682734150203e-01
      -1.3710685393324240e-01 -3.5663488101320923e-01
      2.7503609767061256e-03 -1.4015527717777862e-01
      -1.5140149473213559e-02 4.7256394773598015e-01
      8.6025346284927209e-02 -1.8234697334016328e-01
      3.0188267380936645e-01 2.4702702175656685e-01
      -8.3717156312564001e+00 -5.8009126007284228e-03
      4.2488755130221861e-01 1.2301172008399025e-01
      -4.3078828615495451e-01 -1.1332747342493629e-01
      1.5441137600612834e-01 -1.3252263586943397e-01
      -5.4995125179059710e-02 -3.1681518254843338e-01
      -4.2250412109472318e-01 4.5574707010680759e-01
      1.8501887848792148e-01 -2.7951717491671985e-01
      2.9306106443543256e-01 3.4111094268022762e-01
      -6.4556053954888775e+00 1.5345921053998032e-01
      2.8116175014312034e-01 -2.0210579376240070e-01
      -6.7210237336348844e-02 -6.2440211734347800e-02
      1.8173017183758547e-01 -6.2016383368550289e-02
      -1.0220641732926457e-01 -4.5816205342388078e-01
      -2.4842738958030622e-01 -9.7871926797192629e-02
      -4.9218443564875708e-01 -1.0464967509976752e-02
      1.8515775583444957e-01 4.6249366605412193e-02
      -2.2359829372470521e+01 1.5721919139024840e-01
      4.2964926477993812e-02 -3.2870268662372765e-01
      4.6493832410827829e-01 3.4733822589541091e-01
      -4.2588004769619370e-01 1.8467934485125173e-01
      3.4362841612462136e-01 1.3450094254516501e-01
      -8.0592295525200697e-01 -6.5712484523415868e-02
      -1.1645758755759435e-01 7.0902825563025615e-02
      1.8436164512551131e-01 -4.6775728445720799e-01
      2.5771703248524358e+00 -2.0355309139098182e-01
      -8.8442420715642095e-02 -2.4066763957888485e-02
      -4.4076505775212202e-02 1.7017437827278784e-01
      -7.0099647546966659e-01 -9.0384732003617338e-02
      -1.8483616506195252e-01 -1.6374112512079853e-01
      -1.3486248474436389e-02 4.7111931015597303e-01
      1.7189396752607586e-01 -1.1428326865131987e-01
      -2.4895296288251026e-01 -7.7395941987306605e-01
      -1.1493887072253155e+00 -5.8103106667827913e-02
      -2.4333717651597314e-01 3.4177045427819977e-02
      -4.1485171758034989e-01 2.2839920114246606e-01
      -5.0298441471230826e-01 2.2743694299339218e-01
      -2.2202698965031707e-02 2.9547161831300772e-01
      -4.4294162732577552e-02 4.2793220013376432e-01
      -1.6042438391997951e-01 -3.4577259598111826e-01
      -3.8702248078865698e-01 -9.0879817438987154e-01
      -2.5983237485952660e+01 -3.1173995431458335e-01
      1.7724778925603477e-01 -1.0167362383528830e-01
      -8.2653790050508735e-01 5.2246015539992929e-01
      -7.3365614967960424e-01 2.2842177767261243e-01
      -5.2540655847415046e-02 1.1731354278209410e-02
      -3.3010001410954182e-01 6.1186467380912568e-01
      -1.9096033771678081e-01 -2.6386414114515416e-01
      6.3192179798589931e-02 -8.1458207791694093e-01
      1.3429345446094283e+00 -1.1090159995251067e-01
      5.8223903003740397e-02 5.3183616029282725e-02
      -5.8151568232737760e-01 8.7076982267548481e-02
      -7.2125558686441482e-01 1.1901939321913294e-01
      -3.0780310242783510e-01 4.1335297255613701e-01
      -4.5439399838542033e-02 -3.8739121017592743e-01
      -6.6856903479800833e-01 -1.4369507547688481e-01
      1.4009006791109685e-01 -7.1471373700373475e-01
      1.6363678423959200e+01 -4.2134910549159948e-01
      1.8010385289057382e-01 1.1084060114446810e-01
      -1.9837753855485568e-01 9.9964025977689816e-02
      -7.5886026600404749e-02 1.9594330413452807e-01
      -7.6828242017714751e-02 -2.8470561684341761e-01
      -1.8924963940591141e-01 -1.9312067155385193e-01
      -5.7971019452474259e-01 2.7350861294278322e-01
      -1.2696984469668809e-01 -4.7434283484884715e-01
      3.7202549185429071e+01 -1.6202856118099801e-01
      5.6427804495828326e-01 -1.3619213121902032e-01
      -6.5018539384288324e-02 -2.7560847673408356e-01
      2.1888541631117056e-01 -4.0787855975819715e-02
      9.0692393920702497e-02 -3.6144316836248758e-01
      2.0818512122020286e-01 1.0893968242590542e-01
      5.4777317431188863e-03 -1.9760146067208453e-01
      9.7173201892642252e-02 -1.5011183082957652e-01
      2.1282719049174037e+01 -5.2796806026768395e-01
      2.5546915052148128e-01 -4.9223627807710363e-01
      3.7125590042922663e-01 -2.4441689786570170e-01
      -1.4436651095287387e-01 -3.8142552584720635e-01
      4.3344615277539071e-02 9.7819131971822695e-02
      -1.6802232706653439e-01 3.6798390432517253e-01
      7.0248813312863631e-02 -1.6634296349448729e-01
      5.8116228387815871e-01 -1.7483525143800938e-01
      9.9997110053231069e+00 -1.2024368540926307e-01
      -8.3205935549166457e-02 2.5502716087949456e-01
      2.7887177939308827e-01 -1.3432272821409491e-01
      -4.9179357436457904e-01 -3.6433792326674419e-01
      -5.9420205235278009e-02 -9.4079573701637248e-02
      -4.7400887715121374e-02 -1.6479289010076292e-02
      7.9161475515390337e-02 -4.5823345552188394e-01
      8.1933394176574770e-01 -1.9061973427310722e-01
      7.6868678337147734e-03 -2.3535142384566703e-03
      5.2781955714301517e-03 -6.6715605725903657e-03
      6.1643291255805517e-03 7.5970994341587718e-03
      -1.9487145808454107e-03 -1.5022485668110990e-03
      7.1900846815075815e-03 3.2631868989484164e-04
      -2.0614698717205276e-03 6.3696128702001214e-03
      7.8565787097848918e-03 -4.4748201619853887e-03
      -8.9679870983326441e-04 -3.2000424698628246e-03
      2.3325510717728388e+01 4.2212776703389271e-01
      1.8812884641143945e-02 -1.8883186997218948e-01
      -6.3268188879910059e-01 1.9243036752995205e-01
      -9.5982569990909566e-02 4.4087701307854441e-05
      5.0148134439858993e-02 8.4936529063331476e-02
      -1.5105755281230709e-02 -4.0967369204756209e-02
      -1.5322235382116561e-01 -1.1721521324041696e-01
      -1.8396108622410742e-01 -1.0939694017434205e-02
      2.4114636080417644e+00 8.3041032941908996e-02
      2.3274764922799657e-01 -4.1056957171563224e-01
      4.5144625620334633e-01 -4.2495000801595947e-02
      8.1822927563197823e-01 -1.7728817901796770e-01
      -4.0384582407034691e-01 2.3054182580609733e-01
      1.4741711287704745e-01 -4.5336588236573577e-01
      1.0170921530986055e-01 -8.7673749976088997e-02
      4.1880394255435757e-02 2.3656984325125080e-01
      -4.3558169351661276e+00 -2.6202333712026310e-01
      1.4022142007804861e-01 5.4910825610840708e-02
      7.7267665569764998e-02 2.9829563353895517e-02
      5.2180237481923153e-01 -3.6357684198071377e-01
      -2.0339162759416693e-01 -1.0519312228814878e-01
      -2.9138936412937327e-01 -4.7626367195313511e-02
      2.7173677272763658e-01 -2.1931915202032165e-01
      -4.9363034409928858e-01 3.0444503113213950e-01
      -1.5167971768018038e+01 2.4074724773297271e-01
      1.9339887220895657e-01 3.5943795726194383e-01
      1.9458082211038441e-01 2.5414735717273040e-01
      -4.7944676735671887e-01 -2.6705397033826694e-01
      3.6616404077200554e-01 -2.9551776275472452e-01
      3.0988475863661224e-02 -3.5348672158264444e-01
      1.6668275913235675e-01 -3.7877044558162659e-01
      1.5769267526742681e-01 9.5589474577595281e-03
      6.4649321093271110e+00 2.3158095185833935e-01
      1.4080126302961243e-01 -1.5147285139177896e-01
      -9.0382250861352043e-01 1.4679627302356593e-01
      5.2051995669618531e-02 -2.1281697184700479e-01
      4.8263482053011536e-01 -7.0572420024689564e-01
      5.0951698006956225e-01 3.7285599396307600e-01
      -1.1373768063328116e-01 -4.0155214292296265e-02
      -3.0132238767489983e-02 -1.4247662847186132e-01
      -2.3573414227051361e+00 3.5655070220226065e-01
      6.8091524707035611e-02 -4.3396796366836726e-01
      -1.1164927953980787e-03 1.7907538116161012e-01
      -7.6559890936909805e-02 2.4512928434104322e-01
      2.0576856827020831e-01 -5.1386574605082691e-01
      6.2382689344676512e-01 2.0336838568484675e-01
      -6.1453242821395437e-01 3.4798468217075362e-01
      1.1000128652781163e-01 -4.0302132601087820e-01
      3.3908983089771341e+00 -2.2924815248425376e-01
      1.0011079110493124e-03 -7.5874374140297862e-01
      4.9352191997338613e-01 7.6263757056599144e-02
      -5.1221513130575513e-01 -6.1189677982882926e-02
      1.7305577842096662e-01 -3.5849452161717832e-01
      -2.4655078223048213e-01 3.8134969404642222e-01
      -4.2577888183769769e-01 4.8663135947213665e-01
      -9.9842451635528580e-03 -3.2615256330624365e-01
      2.9906469065543295e+01 -1.4077699248766606e-01
      -4.4241135628871286e-01 -4.7061263042643614e-01
      1.7901708091102075e-01 5.6745522134606352e-01
      -6.1653295596840951e-01 1.4490365308834394e-01
      1.6251393904897587e-02 -2.1195100338936315e-01
      1.9242614689545104e-01 5.4408842089826426e-01
      -3.7066884755529095e-01 -1.7355593921915973e-02
      1.0081869442066685e-01 -4.5381289340492842e-01
      5.2019245362444542e+00 -1.8843968413339567e-02
      2.8501508810664533e-01 -6.7408147713655664e-01
      -3.2366895048852908e-02 2.4331368987566864e-02
      3.7850893791047019e-01 1.6854638485461887e-01
      -9.4313612983491901e-03 8.3599733784318439e-02
      -3.1983722019836858e-01 8.5705723394463529e-01
      -3.0731116577160489e-01 -3.2879122711472336e-01
      -1.7815173137814136e-01 -5.8325421906156882e-01
      3.4086984645366307e+01 1.1849958571643478e-01
      1.0835040271258358e-02 -8.9794959951869469e-01
      -4.7780142127543873e-01 1.6778376401510017e-01
      1.3029801218622256e-01 4.1864346403296010e-01
      2.0917054496618981e-01 6.7726507893929322e-01
      -1.9826259885747216e-01 2.8263665211388156e-01
      -1.2316921023704429e-01 -4.8410224895377296e-01
      -4.4681831600396342e-02 -7.6691910620121728e-01
      2.5280119225624130e+01 -1.7168874123166761e-01
      6.2700292644687328e-01 -5.6622660720188522e-01
      -5.2879625349296899e-01 -4.9094248134075764e-02
      1.2211743075944344e-01 4.0486833932717337e-01
      2.4321262065974594e-01 1.4573460593223656e-01
      2.8829457823281729e-01 -4.2231494086367671e-01
      -4.8574498084151252e-01 1.8511390933993255e-01
      2.3643946909907620e-02 -8.5742828312327535e-01
      2.9895452832431992e+01 -9.5844247418324618e-02
      -4.3777734851128659e-02 1.0241217393690796e-01
      -2.0864424148983857e-01 -4.3209838520682983e-02
      4.7632754411399317e-02 1.0246530722477185e-01
      3.2651112045655234e-01 -1.6280727108277870e-01
      8.5749299045455896e-01 -2.4064757104306897e-01
      -4.7053385270801301e-01 2.1061921495550448e-01
      1.4131182988841645e-01 -2.0073153797268961e-01
      3.0408638910630820e+01 -3.0261464020361388e-02
      -5.9493475427855901e-02 1.0336109698799360e-01
      -1.1485175475897130e-01 -1.5946819085366032e-01
      -1.9497078804617948e-01 -3.6230386473888918e-02
      5.9474909696115419e-01 3.8053273324680570e-01
      1.4389070700926607e-02 -1.9308548359242467e-01
      -3.6680579962087879e-02 -1.2178476537276581e-01
      6.6651142548901698e-02 -4.8521635734027596e-01
      2.1812971932870326e+01 1.3833939119580105e-01
      4.1153872133011460e-01 -1.0153077510801176e-01
      5.5846741030348701e-01 1.6689350981715270e-01
      -3.2540445221399811e-01 -2.6761708836867615e-01
      2.8535029191342914e-01 -5.7379854875640686e-02
      -1.1885422137368480e-01 -4.2976676252868729e-01
      2.0337710780003040e-01 -1.5251071193998303e-01
      3.0874461996989566e-01 -5.8040794820580377e-01
      -1.5874290567152594e+00 2.0514635257060654e-01
      5.0119934022566559e-01 7.2392611501429172e-02
      5.8016555041749129e-02 3.6244038666064421e-01
      -4.1525069064871728e-01 -2.7168760732775460e-01
      1.6234734355646366e-01 7.3937274459694169e-02
      -7.2712516269305152e-02 -9.9316541643111633e-01
      -2.6264601254954323e-01 3.2267202557008157e-01
      4.3658979480805227e-01 -7.4870559675424775e-01
      4.3122366432486814e-03 -6.9068810135028968e-03
      -6.0743434979961301e-04 -3.1405483661563156e-04
      6.0662884681872871e-03 4.7124169908348123e-03
      3.4842023916562242e-04 7.1419427041339708e-03
      -6.7149113112768312e-03 -3.3768984009311990e-03
      7.6147500266490068e-03 4.0987498233454774e-03
      -4.0872378913325037e-05 -2.8401964456498904e-03
      3.8246166311197365e-04 -5.3594630658475870e-03
      1.8403096995025500e+01 1.4040376076269326e-01
      -4.7218949046532156e-02 -1.0533922304171849e-01
      -7.8114739908817776e-01 1.7156576913613150e-01
      -3.4282164884128080e-01 4.1779280580298866e-02
      1.2242149286270192e-01 2.1937911453330746e-03
      -1.9883062849005562e-01 -5.9099211058763514e-02
      -2.3965892846659662e-01 1.1558450613544508e-01
      -9.5880111561092080e-02 -2.2362389357428687e-02
      2.9792542620072158e+01 4.9321127709134084e-02
      -5.8138249713429874e-02 -3.8443340202521248e-01
      1.7513668644869071e-01 -1.9594470425111285e-01
      5.2276166908187705e-01 2.0777612860813359e-02
      -2.7858182209474697e-01 1.4904469893240554e-01
      1.7121337300437606e-01 -3.7438084686779038e-01
      -9.2610843676641560e-02 -6.5673654942823095e-02
      3.2762274324485412e-02 3.3816371249340820e-03
      4.1269229253147444e+00 -1.5959558139295574e-01
      -1.7897151613448581e-01 1.1585470549337738e-01
      1.5549452667497476e-01 -2.9583614079671255e-01
      3.4091539475662330e-01 -3.9995424477757285e-01
      -2.7008813304487783e-01 -2.4878503239687069e-01
      -1.1561582187303442e-03 -2.0091171645315259e-01
      1.7692657724293176e-01 -2.6288039377369843e-01
      -2.6348340207603704e-01 4.2075256300230290e-01
      -1.7046268049528322e+01 2.3703951474234061e-01
      -8.3012780219806792e-02 3.0921759663053161e-01
      6.0655062988652503e-02 -9.7371266190699635e-02
      -7.4227812435712870e-01 -5.2115962935220428e-01
      1.5701101239484072e-01 -2.9913468628562095e-01
      2.0080102077837775e-01 -2.3052352748233002e-01
      2.6771163522265590e-01 -1.1239389724318667e-01
      1.3956059041799770e-01 2.7671287850833753e-01
      -1.4398978528776359e+01 2.6642895037852404e-01
      -4.3586310116235860e-01 1.2346290797576714e-01
      -3.7976739044685109e-01 2.9859178839176620e-03
      -5.7731542579854189e-01 -2.2900411132624732e-01
      3.1600231932095874e-01 -2.7043298032310253e-01
      4.2714599548496096e-01 1.4049101447015905e-01
      -9.6855313263886425e-02 -2.6634015096073892e-02
      3.3077896435987614e-01 3.5065641514878650e-03
      -1.3244628234543072e+01 1.6633664068776491e-01
      -2.7716365403858707e-02 -1.0543622682750881e-01
      1.3960947048946487e-01 -2.9194563729247563e-01
      -4.0111126760350563e-01 5.3510768414562954e-02
      -1.5855421343812673e-01 -3.7105480822289644e-01
      9.9876546016370527e-01 4.4854956191177064e-01
      -8.4074821654929813e-02 3.6982560926541447e-01
      2.7337608403131858e-01 -1.5947700424133576e-01
      5.8132256526447001e+00 -9.3534159998912264e-02
      3.4986217836803879e-01 -4.4320229393035498e-01
      6.9205741625755421e-02 -4.2832608990954213e-01
      -1.4199286740341296e-01 -2.8141150462053977e-01
      -3.1660208453270039e-01 -5.7918657593678635e-01
      5.1567969642288192e-01 3.7951967903543138e-01
      -1.3693349495628437e-01 3.6308634268523643e-01
      4.4943647817117155e-02 1.0028604219346174e-01
      -8.8309094581160652e-01 -3.0200372417939811e-02
      -8.2207005491207144e-02 -4.6653504699506193e-01
      1.9778098084435561e-01 -5.1078415667132693e-01
      1.9165709535277070e-01 3.1581300102756499e-01
      1.1775520879296721e-01 -2.1423267672462665e-01
      6.5421709263744920e-01 7.6652860296340691e-02
      7.1622894764622608e-02 -5.3151134433106118e-01
      4.2268545109718553e-01 -3.8208058237895698e-01
      3.4321470320937268e+00 1.0255748928939983e-01
      -2.4862252842317512e-01 -5.7944900669391297e-01
      1.0945368016161447e-01 -3.0225569116630080e-01
      7.6915878721860320e-01 2.5955921677529170e-01
      1.9314733296251621e-01 4.6588930243008686e-01
      -2.0274150755288259e-01 2.2069221545466408e-01
      -2.2041925557664574e-01 -5.2614030579794735e-01
      1.6220924554323288e-01 -6.4879209190149534e-01
      1.3585194800137829e+01 -1.1962323903058397e-01
      -1.4353795286811732e-01 -5.5104006568281960e-01
      -2.3988415693459775e-01 -3.5257612955634177e-01
      4.3591252983525847e-01 3.6446836609110972e-01
      2.3624988878021469e-01 9.1144821375484775e-01
      -1.4816911184041209e-01 4.1049668986495930e-01
      -5.1050184068618887e-01 -4.1039772297196986e-01
      4.6225000790181348e-01 -7.4317830104900617e-01
      2.9190573405181890e+01 -3.1200513631442806e-01
      -6.7863058510667540e-02 -3.0586742040647952e-01
      -7.0158264829844741e-01 3.3596547224359653e-02
      6.6087647499993829e-01 3.5755669055118922e-01
      4.3595270255749835e-01 -1.2369176387720779e-01
      -1.7651803442608338e-01 7.1480528456460524e-01
      -2.4691290132403079e-01 1.6020301489875127e-01
      7.6530862412403727e-02 -4.0041697570475243e-01
      9.0834021002551530e+00 1.3032226904582103e-01
      -2.1716387644768947e-01 2.9837214428359665e-02
      -2.5355785815145332e-01 9.8180480270911655e-02
      7.6525202968292155e-02 4.2356813718920594e-04
      2.8320102590818719e-01 -3.3688817695428275e-01
      6.9685676392106788e-01 1.1689621984557726e-01
      -3.3279578255333113e-02 2.4607161068789540e-01
      2.6358242335833115e-01 2.1950267345999414e-01
      4.1967145140643941e-01 1.0648185589885101e-01
      -4.6326792589552090e-01 4.7062988007246470e-01
      -9.5819161480944229e-02 1.6891721952775449e-01
      -6.0986161090167912e-01 -2.4840420095644750e-01
      2.2475421485387409e-01 -1.1179250116711113e-01
      -2.9232469132709937e-01 6.5628447094399259e-02
      8.4451916636247548e-01 6.0240697080625738e-01
      3.6600260554551484e-02 7.8759095498942347e-02
      1.1023806060145828e+01 -1.8929136730846752e-01
      -2.7886264520441983e-01 -5.1335838818140307e-02
      -3.4025259395820912e-01 4.3791525839677714e-01
      -3.7061952232851292e-01 -2.3478212676371002e-01
      3.7452480978097574e-01 -2.9331313415903983e-02
      -1.7935905664318191e-01 -1.6038675060203489e-01
      8.3869545237732032e-02 2.4934415319408570e-01
      2.7278068927517174e-01 -5.6633237203427167e-01
      2.5749643089328075e+01 -3.1047778365446393e-01
      5.6893851392473804e-01 -1.8050854503737096e-01
      -3.0337026605960060e-01 2.1484232256558849e-01
      -1.8444689994812916e-01 -2.9678575350662367e-01
      -2.5867947742956515e-01 -1.3181613836389770e-02
      -3.0807150532593736e-01 -4.0686846017253459e-01
      3.1402879855296967e-02 4.2375795744841477e-01
      4.5663799053525095e-01 -3.8397719824064885e-01
      4.7000625566675381e-03 4.4896180824022100e-03
      -6.9729594473024580e-03 -6.8230658472487478e-04
      1.9358023294579207e-03 2.8229477264066260e-04
      4.6297725504416609e-03 5.0249772504639880e-03
      2.8978768034297027e-03 2.5858144662486656e-03
      -7.4703056195773157e-03 -3.7560957813841138e-03
      -2.8068275074696523e-03 -3.7234637091709591e-03
      3.9636709899934968e-03 -3.1369496663394012e-03
      2.3459874980448472e+01 2.0976922973068457e-01
      -4.5666571334748933e-02 9.3375162554750937e-02
      -3.6002530173675101e-01 1.1277218235615211e-01
      -3.5978320321238422e-01 1.5238151606550687e-01
      1.8936220199800519e-01 -2.4658025428630445e-01
      -2.3119225124714962e-01 9.6911261168218341e-02
      -1.9579887839227203e-01 1.6220314279568182e-01
      -2.4413873843656472e-01 -7.5649253839890823e-02
      3.0698169936739987e+01 2.6296974086968505e-01
      2.0392368731802297e-02 -4.5766331457716208e-01
      3.5715622469835284e-02 -4.6024173996972328e-01
      1.7344199376113231e-01 1.9543951294936010e-01
      -2.3465670605765157e-01 3.7122792655432156e-04
      5.3876502164237383e-01 1.2381893027714662e-01
      2.9958914943839615e-01 -4.4617666290013694e-02
      4.9819527320428575e-02 -8.6694287387544033e-02
      2.2897075020771513e+01 -1.7806298972969242e-02
      -8.4355234139475696e-02 -3.4653417114124702e-01
      5.1171006805291031e-01 -9.0768133671267548e-01
      -4.2735501479708643e-01 -5.0858835743081254e-01
      1.4013244648291479e-02 -6.3049856206339669e-02
      3.7134499484169087e-01 3.3680523454527189e-01
      4.1854811396453910e-02 -1.2045842451273765e-01
      -3.8039720016605455e-01 1.2372357118618178e-02
      -1.6310618201061470e+01 9.3721300676660277e-02
      -7.2175933320410335e-01 1.0793948805736357e-01
      1.7509348422792873e-01 -2.3191738534662186e-02
      -5.7060660762295168e-01 -7.4429827859121822e-01
      -1.9819795522517288e-02 -2.9152575029227290e-01
      -6.1296288581875337e-02 -4.2732926496199053e-01
      -4.4905363151164137e-03 -3.9364717196447535e-01
      3.2336633838232121e-01 4.9890778018790088e-01
      -2.8314885143166513e+00 5.2890204970853216e-01
      -8.3769338202709376e-01 1.0826647219025383e-01
      -3.1573157636841720e-01 -2.9049515610669602e-01
      -3.7451115931687658e-02 -1.7594202410487228e-01
      1.1569296300399269e-01 -6.9413024630330789e-01
      4.7355625478138108e-01 -3.7883301647606826e-01
      -3.6639568150235990e-01 -1.9006685084461397e-01
      2.1435049758885241e-01 1.1974747718421089e-01
      -9.6857638418797312e-02 6.8144525677861711e-01
      -8.9328213332312101e-01 -3.0070571566589477e-01
      3.6391025856770481e-02 3.1809764718722977e-01
      4.7881588580771189e-01 9.9969688587144667e-02
      -1.4606119039715879e-01 -3.0553180833886053e-02
      4.2430695421871822e-01 -3.7457916669791402e-01
      -7.2598901519667525e-01 -9.2407202896490107e-04
      -4.8524307380676647e-03 -1.9556983280694135e-01
      3.6539900617094861e-01 3.5349916327287606e-01
      -3.1529140617498994e-02 1.9633662249989406e-01
      3.0244358911551461e-01 -2.3534068788216558e-01
      2.5892128360761366e-02 -1.1604804070871137e-01
      3.2599482082163525e-03 -4.0475126403179579e-01
      7.4040319612418581e-01 3.1459688170600630e-01
      -9.1976056862772632e-02 -2.6992191524684894e-01
      -1.3671249198995888e-01 -2.1003414276457749e-01
      -3.9921642514550392e+01 4.9419396346501221e-01
      -2.1982528689770919e-01 1.2799528652860723e-01
      6.8618472617170567e-01 -1.3926731677689069e-01
      8.5200564338560547e-01 -1.0066045717531479e-01
      2.4718502659515537e-01 -2.2468637468373184e-01
      3.1542556395209670e-01 -3.5954315933245384e-01
      2.5088722202509972e-01 -8.4406744236308207e-01
      5.0458781156978816e-01 -1.7884844812307879e-01
      1.6772659801136539e-01 3.7052772505268611e-01
      -1.8888327990756806e-01 4.4808730866270952e-01
      1.7334157817264462e-01 -3.0336697703784188e-01
      1.3797172960584672e-01 2.2746876498561025e-01
      9.0737198050485871e-02 -2.8851522353426973e-01
      -3.0441717077187008e-01 5.9330888960806995e-02
      -4.4996254144743003e-01 -2.4070370769048074e-01
      1.2556430723989676e-02 -5.5743057932984186e-01
      -4.1115790677730040e+00 4.3696520627720198e-02
      -8.9711524866798259e-02 -1.3135839977964083e-02
      -2.0960011333838574e-01 -3.9661559090006188e-01
      -5.8886011059377595e-02 1.3228363878074481e-01
      1.8840331408096556e-01 8.9605125293143018e-02
      -5.1885429746689016e-01 3.3853984817692062e-01
      -6.3809112113940503e-01 -1.8289771372522151e-01
      3.7606957162237004e-01 -4.4996537778352225e-01
      2.8073315250267989e+00 -7.5033604616135563e-02
      2.1411631710960510e-01 -2.1207793404148456e-01
      -3.4658237969285299e-01 -5.3389583789049433e-01
      6.7070322250988371e-02 1.3599297166402721e-01
      2.6172453654016947e-01 -3.2285057856339644e-02
      -1.8559429973092506e-01 2.9913485236750553e-01
      -6.8495231309761873e-01 1.1987305718048877e-01
      3.9964453079331491e-01 -2.4941621912329354e-01
      5.0956243261776246e-01 -2.4901449420296867e-01
      -2.6538274978927595e-01 2.1949969613078885e-01
      -4.9599499360719368e-01 -1.4271979786219691e-02
      -1.5570794475785416e-01 -8.3267462401442838e-02
      4.2075497924193295e-01 9.4179359996489603e-02
      2.2879368426174473e-01 1.1671208853077106e-02
      -1.2070787992849209e-01 3.8381260994079007e-02
      2.1980611508344277e-02 3.1862443573095440e-04
      6.0744415767054454e+00 -4.1714645908312503e-02
      -7.0730770967960921e-01 2.5897609845225239e-01
      -2.1712790692313436e-01 3.3932718394830536e-01
      6.0050441671513848e-02 -4.1378562050437773e-01
      3.3131191519291914e-01 2.7359689089145883e-01
      -2.3786937852317180e-01 -4.3885255258395306e-01
      7.3133190286066685e-01 3.0929756898738980e-01
      2.8121993499653986e-02 1.0629624186972490e-01
      1.4822749763716857e+01 -1.5512614652729712e-01
      1.7923520459893863e-01 1.7362133033688743e-01
      -3.1245515724462397e-01 1.7373570459102314e-01
      1.5282191692530622e-02 -2.9293743906750208e-01
      -4.3016141342579628e-01 -9.4812393959780417e-02
      7.0627625070403474e-03 -3.9051782310094402e-01
      2.2382058594558565e-01 3.9734777863164533e-01
      2.3609062959153787e-01 1.9374195194155799e-02
      2.4773142401361792e+00 -1.4915100327912052e-02
      2.1139284112893100e-01 -4.0383324228601282e-02
      -2.9031065756477376e-01 3.5098178319538792e-01
      1.7832174495559758e-01 -1.3641973183492542e-01
      -2.3053081217050547e-01 -5.3541437201282305e-01
      -2.8855889674808360e-01 -4.6984686773304618e-01
      3.7087352723049810e-01 3.3385554432674230e-01
      6.8229465868524797e-02 -7.4168355557228643e-02
      7.2322735208096697e-03 -1.2458766017817255e-03
      7.2390805002653371e-03 4.2739556698986880e-03
      -5.7598813918284322e-03 -3.2560137517684017e-03
      -4.5758546187028865e-03 2.6498769739488879e-03
      -4.7421350189538200e-03 1.4158939143324640e-03
      3.3989265750294533e-03 6.5455178697426978e-03
      -4.2238915223663824e-04 1.3617043290845849e-03
      -7.7904585462893732e-03 2.3127824128674566e-03
      2.5800713416470590e+01 3.7906648356374872e-01
      -1.8306837415778784e-01 3.2229673183725949e-01
      -3.9891720488660791e-02 1.2477846050525748e-01
      -5.8118338779843715e-01 -6.6272933036115547e-02
      1.5305757072478415e-01 -2.7013988427535479e-01
      -4.8026011985824446e-01 -2.5318459428384756e-02
      -1.5398666023633734e-01 1.4957145681015374e-01
      -2.7713867864291747e-01 1.6836392063859017e-02
      -3.1011800019682151e-01 2.7068027099290037e-01
      2.0452084976930843e-01 -5.3536579607666235e-01
      2.4609643976542975e-01 -4.4431591801542519e-02
      -1.6172382225886539e-01 -1.6282178573695932e-01
      -3.0220593266868012e-01 1.3771600270384226e-02
      2.0335021939996331e-01 5.5204925659693838e-01
      4.6750366381964642e-01 1.5573386645553258e-01
      1.8661881110810319e-01 1.0178685177134858e-01
      7.7451029398917024e+00 -7.0167689555007862e-01
      -5.0762286292661163e-02 1.2638496882520847e-01
      5.4068148750914702e-01 -3.7050048064541280e-01
      -2.5538328010101896e-01 -5.8449104522383466e-01
      -1.5846087349049692e-01 -4.5224868414340307e-02
      -2.6309165308913057e-01 6.8197954726932208e-01
      -1.6089882062772035e-01 -1.1270599057568512e-01
      -2.5799695668380407e-01 4.4909284464413934e-01
      -1.9536009136513691e+01 -2.3222277615195600e-01
      -8.3021403018504236e-01 -3.9614278587503361e-02
      1.9687493776221229e-01 2.6849695063840669e-02
      -6.4077897302117159e-02 -7.1982657986507681e-01
      -1.6010368426056606e-01 3.8091651034616453e-01
      -3.1568459474510196e-04 -1.8538734694365691e-01
      -3.9571705227521586e-01 -3.3150105628033660e-01
      4.0386647234732320e-01 7.3763849398194725e-01
      -2.9674667990748034e+01 2.8338815180972277e-01
      -9.8839419238553672e-01 -1.1478638958612972e-01
      -3.0233993006033427e-01 2.5833920393849813e-01
      4.5154476627604290e-01 -1.8410609972424694e-01
      1.2908898630679416e-01 3.8022068846583240e-02
      3.6241771163571923e-01 -2.1433046848099896e-01
      -4.4585591720917600e-01 8.3194024260612065e-02
      6.6807229603043294e-01 3.1188337819144424e-01
      -2.4220330710475850e+00 3.6505209755581147e-01
      -6.6027274185098750e-01 -4.6951156746256309e-04
      1.5154380663819114e-01 -1.2450960464899340e-01
      6.9063650169256408e-01 2.8044499250584476e-01
      1.7952175859855418e-01 -4.4828451813520437e-02
      9.5571757455652592e-02 -1.0496027662803908e-01
      -5.4361311429480785e-01 -6.9420825968833963e-02
      1.1938883298231601e-01 -7.3376210779096118e-02
      -5.9595807505008223e+00 1.1630996441634468e-01
      -3.4224904837049402e-01 5.5496352319880327e-01
      1.9365281720484895e-01 -2.7790980261098852e-01
      1.2081508220436712e-01 -8.2196489659769792e-02
      1.4549564434534404e-01 -2.1152159352524419e-01
