<?xml version="1.0"?>
<opencv_storage>
<DigitOCR type_id="opencv-ml-ann-mlp">
  <layer_sizes type_id="opencv-matrix">
    <rows>1</rows>
    <cols>3</cols>
    <dt>i</dt>
    <data>
      256 16 95</data></layer_sizes>
  <activation_function>SIGMOID_SYM</activation_function>
  <f_param1>5.9999999999999998e-01</f_param1>
  <f_param2>1.</f_param2>
  <min_val>-9.4999999999999996e-01</min_val>
  <max_val>9.4999999999999996e-01</max_val>
  <min_val1>-9.7999999999999998e-01</min_val1>
  <max_val1>9.7999999999999998e-01</max_val1>
  <training_params>
    <train_method>BACKPROP</train_method>
    <dw_scale>1.0000000000000001e-01</dw_scale>
    <moment_scale>1.0000000000000001e-01</moment_scale>
    <term_criteria><epsilon>9.9999999747524271e-07</epsilon>
      <iterations>1000</iterations></term_criteria></training_params>
  <input_scale>
    1. 0. 1. 0. 1. 0. 1. 0. 1. 0. 1. 0. 1. 0. 1. 0. 1. 0. 1. 0. 1. 0. 1.
    0. 1. 0. 1. 0. 1. 0. 1. 0. 1. 0. 2.0507312359376413e+00
    -7.9870584978623926e-01 2.0135435411466625e+00
    -8.9019819713852444e-01 2.0090359385796144e+00
    -9.0935310904129918e-01 2.0090359385796144e+00
    -9.0935310904129918e-01 2.0135435411466625e+00
    -8.9019819713852444e-01 2.0730699572419278e+00
    -7.6376261582597338e-01 2.1158181651400265e+00
    -7.1269664509979835e-01 2.1328129615679519e+00
    -6.9597054535375269e-01 2.0860236566825292e+00
    -7.4657688765479990e-01 2.0328123394268363e+00
    -8.3452296039628016e-01 2.0613244238630446e+00
    -7.8113346588494326e-01 2.0328123394268363e+00
    -8.3452296039628016e-01 2.0090359385796144e+00
    -9.0935310904129918e-01 2.0027758514399734e+00
    -9.4868329805051366e-01 2.0054515718735582e+00
    -1.0766108438479103e+00 1. 0. 2.0613244238630446e+00
    -7.8113346588494326e-01 2.0090359385796144e+00
    -9.0935310904129918e-01 2.0254068053782990e+00
    -8.5280286542244166e-01 2.0135435411466625e+00
    -8.9019819713852444e-01 2.0135435411466625e+00
    -8.9019819713852444e-01 2.0027758514399734e+00
    -9.4868329805051366e-01 2.0328123394268363e+00
    -8.3452296039628016e-01 2.0135435411466625e+00
    -8.9019819713852444e-01 2.0189929247005716e+00
    -8.7135484118656248e-01 2.0135435411466625e+00
    -8.9019819713852444e-01 2.0090359385796144e+00
    -9.0935310904129918e-01 2.0090359385796144e+00
    -9.0935310904129918e-01 2.0090359385796144e+00
    -9.0935310904129918e-01 2.0027758514399734e+00
    -9.4868329805051366e-01 2.0254068053782990e+00
    -1.1726039399558574e+00 1. 0. 2.0730699572419278e+00
    -7.6376261582597338e-01 2.0027758514399734e+00
    -9.4868329805051366e-01 2.0189929247005716e+00
    -8.7135484118656248e-01 2.0054515718735582e+00
    -9.2884072802564799e-01 2.0027758514399734e+00
    -9.4868329805051366e-01 2.0189929247005711e+00
    -1.1476380835140088e+00 2.0507312359376413e+00
    -1.2520253861514021e+00 2.0730699572419278e+00
    -1.3093073414159544e+00 2.0507312359376413e+00
    -1.2520253861514021e+00 2.0507312359376413e+00
    -1.2520253861514021e+00 2.0412414523193152e+00
    -1.2247448713915892e+00 2.0135435411466625e+00
    -1.1233453440081380e+00 2.0009979763878896e+00
    -1.0320936930842799e+00 2.0027758514399734e+00
    -1.0540925533894596e+00 2.0412414523193152e+00
    -1.2247448713915892e+00 1. 0. 2.0730699572419278e+00
    -7.6376261582597338e-01 2.0507312359376413e+00
    -7.9870584978623926e-01 2.0135435411466625e+00
    -8.9019819713852444e-01 2.0001108125329825e+00
    -9.8952850725315977e-01 2.0009979763878896e+00
    -1.0320936930842799e+00 2.0328123394268363e+00
    -1.1982893790305560e+00 2.0135435411466625e+00
    -1.1233453440081380e+00 2.0328123394268363e+00
    -1.1982893790305560e+00 2.0254068053782990e+00
    -1.1726039399558574e+00 2.0412414523193152e+00
    -1.2247448713915892e+00 2.0001108125329825e+00
    -1.0105823052798228e+00 2.0090359385796144e+00
    -1.0996828295383154e+00 2.0254068053782990e+00
    -1.1726039399558574e+00 2.0254068053782990e+00
    -1.1726039399558574e+00 2.1002490193555641e+00
    -1.3706888336846841e+00 1. 0. 2.1328129615679519e+00
    -6.9597054535375269e-01 2.0730699572419278e+00
    -7.6376261582597338e-01 2.0054515718735582e+00
    -9.2884072802564799e-01 2.0001108125329825e+00
    -9.8952850725315977e-01 2.0009979763878896e+00
    -1.0320936930842799e+00 2.0328123394268363e+00
    -1.1982893790305560e+00 2.0135435411466625e+00
    -1.1233453440081380e+00 2.0412414523193152e+00
    -1.2247448713915892e+00 2.0135435411466625e+00
    -1.1233453440081380e+00 2.0135435411466625e+00
    -1.1233453440081380e+00 2.0090359385796144e+00
    -1.0996828295383154e+00 2.0001108125329825e+00
    -1.0105823052798228e+00 2.0328123394268363e+00
    -1.1982893790305560e+00 2.0507312359376413e+00
    -1.2520253861514021e+00 2.0860236566825292e+00
    -1.3394467690277292e+00 1. 0. 2.1158181651400265e+00
    -7.1269664509979835e-01 2.0328123394268363e+00
    -8.3452296039628016e-01 2.0001108125329825e+00
    -1.0105823052798228e+00 2.0027758514399734e+00
    -1.0540925533894596e+00 2.0090359385796144e+00
    -1.0996828295383154e+00 2.0135435411466625e+00
    -1.1233453440081380e+00 2.0009979763878896e+00
    -1.0320936930842799e+00 2.0001108125329825e+00
    -9.8952850725315977e-01 2.0027758514399734e+00
    -9.4868329805051366e-01 2.0001108125329825e+00
    -1.0105823052798228e+00 2.0027758514399734e+00
    -1.0540925533894596e+00 2.0135435411466625e+00
    -1.1233453440081380e+00 2.0860236566825292e+00
    -1.3394467690277292e+00 2.0507312359376413e+00
    -1.2520253861514021e+00 2.1513263648747318e+00
    -1.4719601443879744e+00 1. 0. 2.1328129615679519e+00
    -6.9597054535375269e-01 2.0613244238630446e+00
    -7.8113346588494326e-01 2.0027758514399734e+00
    -9.4868329805051366e-01 2.0027758514399734e+00
    -1.0540925533894596e+00 2.0135435411466625e+00
    -1.1233453440081380e+00 2.0009979763878896e+00
    -1.0320936930842799e+00 2.0054515718735582e+00
    -9.2884072802564799e-01 2.0054515718735582e+00
    -9.2884072802564799e-01 2.0027758514399734e+00
    -9.4868329805051366e-01 2.0027758514399734e+00
    -1.0540925533894596e+00 2.0189929247005711e+00
    -1.1476380835140088e+00 2.0090359385796144e+00
    -1.0996828295383154e+00 2.0412414523193152e+00
    -1.2247448713915892e+00 2.0412414523193152e+00
    -1.2247448713915892e+00 2.1002490193555641e+00
    -1.3706888336846841e+00 1. 0. 2.2171101330443488e+00
    -6.3012603781260434e-01 2.0412414523193152e+00
    -8.1649658092772615e-01 2.0027758514399734e+00
    -9.4868329805051366e-01 2.0054515718735582e+00
    -1.0766108438479103e+00 2.0090359385796144e+00
    -1.0996828295383154e+00 2.0001108125329825e+00
    -9.8952850725315977e-01 2.0009979763878896e+00
    -9.6890428330360967e-01 2.0009979763878896e+00
    -9.6890428330360967e-01 2.0090359385796144e+00
    -9.0935310904129918e-01 2.0027758514399734e+00
    -1.0540925533894596e+00 2.0189929247005711e+00
    -1.1476380835140088e+00 2.0090359385796144e+00
    -1.0996828295383154e+00 2.0135435411466625e+00
    -1.1233453440081380e+00 2.0054515718735582e+00
    -1.0766108438479103e+00 2.0507312359376413e+00
    -1.2520253861514021e+00 1. 0. 2.1714640241918484e+00
    -6.6286796527961689e-01 2.0254068053782990e+00
    -8.5280286542244166e-01 2.0001108125329825e+00
    -1.0105823052798228e+00 2.0189929247005711e+00
    -1.1476380835140088e+00 2.0189929247005711e+00
    -1.1476380835140088e+00 2.0054515718735582e+00
    -1.0766108438479103e+00 2.0001108125329825e+00
    -9.8952850725315977e-01 2.0001108125329825e+00
    -1.0105823052798228e+00 2.0009979763878896e+00
    -9.6890428330360967e-01 2.0001108125329825e+00
    -9.8952850725315977e-01 2.0054515718735582e+00
    -1.0766108438479103e+00 2.0054515718735582e+00
    -1.0766108438479103e+00 2.0507312359376413e+00
    -1.2520253861514021e+00 2.0135435411466625e+00
    -1.1233453440081380e+00 2.0328123394268363e+00
    -1.1982893790305560e+00 1. 0. 2.1002490193555636e+00
    -7.2956018567088010e-01 2.0001108125329825e+00
    -9.8952850725315977e-01 2.0027758514399734e+00
    -1.0540925533894596e+00 2.0189929247005711e+00
    -1.1476380835140088e+00 2.0254068053782990e+00
    -1.1726039399558574e+00 2.0090359385796144e+00
    -1.0996828295383154e+00 2.0001108125329825e+00
    -1.0105823052798228e+00 2.0009979763878896e+00
    -1.0320936930842799e+00 2.0027758514399734e+00
    -1.0540925533894596e+00 2.0009979763878896e+00
    -1.0320936930842799e+00 2.0001108125329825e+00
    -1.0105823052798228e+00 2.0090359385796144e+00
    -1.0996828295383154e+00 2.0412414523193152e+00
    -1.2247448713915892e+00 2.0254068053782990e+00
    -1.1726039399558574e+00 2.0254068053782990e+00
    -1.1726039399558574e+00 1. 0. 2.1158181651400265e+00
    -7.1269664509979835e-01 2.0090359385796144e+00
    -9.0935310904129918e-01 2.0001108125329825e+00
    -9.8952850725315977e-01 2.0090359385796144e+00
    -1.0996828295383154e+00 2.0135435411466625e+00
    -1.1233453440081380e+00 2.0189929247005711e+00
    -1.1476380835140088e+00 2.0135435411466625e+00
    -1.1233453440081380e+00 2.0328123394268363e+00
    -1.1982893790305560e+00 2.0730699572419278e+00
    -1.3093073414159544e+00 2.0412414523193152e+00
    -1.2247448713915892e+00 2.0027758514399734e+00
    -1.0540925533894596e+00 2.0054515718735582e+00
    -1.0766108438479103e+00 2.0090359385796144e+00
    -1.0996828295383154e+00 2.0054515718735582e+00
    -1.0766108438479103e+00 2.0328123394268363e+00
    -1.1982893790305560e+00 1. 0. 2.1158181651400265e+00
    -7.1269664509979835e-01 2.0254068053782990e+00
    -8.5280286542244166e-01 2.0090359385796144e+00
    -9.0935310904129918e-01 2.0001108125329825e+00
    -9.8952850725315977e-01 2.0189929247005711e+00
    -1.1476380835140088e+00 2.0507312359376413e+00
    -1.2520253861514021e+00 2.1158181651400261e+00
    -1.4031215200402276e+00 2.0730699572419278e+00
    -1.3093073414159544e+00 2.1328129615679519e+00
    -1.4368424162141991e+00 2.1002490193555641e+00
    -1.3706888336846841e+00 2.0328123394268363e+00
    -1.1982893790305560e+00 2.0254068053782990e+00
    -1.1726039399558574e+00 2.0009979763878896e+00
    -1.0320936930842799e+00 2.0001108125329825e+00
    -1.0105823052798228e+00 2.0328123394268363e+00
    -1.1982893790305560e+00 1. 0. 2.1513263648747318e+00
    -6.7936622048675743e-01 2.0328123394268363e+00
    -8.3452296039628016e-01 2.0412414523193152e+00
    -8.1649658092772615e-01 2.0001108125329825e+00
    -1.0105823052798228e+00 2.0328123394268363e+00
    -1.1982893790305560e+00 2.0507312359376413e+00
    -1.2520253861514021e+00 2.0860236566825292e+00
    -1.3394467690277292e+00 2.0730699572419278e+00
    -1.3093073414159544e+00 2.0860236566825292e+00
    -1.3394467690277292e+00 2.0860236566825292e+00
    -1.3394467690277292e+00 2.0189929247005711e+00
    -1.1476380835140088e+00 2.0001108125329825e+00
    -9.8952850725315977e-01 2.0001108125329825e+00
    -1.0105823052798228e+00 2.0027758514399734e+00
    -9.4868329805051366e-01 2.0001108125329825e+00
    -1.0105823052798228e+00 1. 0. 2.2171101330443488e+00
    -6.3012603781260434e-01 2.1002490193555636e+00
    -7.2956018567088010e-01 2.0730699572419278e+00
    -7.6376261582597338e-01 2.0054515718735582e+00
    -9.2884072802564799e-01 2.0027758514399734e+00
    -1.0540925533894596e+00 2.0001108125329825e+00
    -1.0105823052798228e+00 2.0001108125329825e+00
    -1.0105823052798228e+00 2.0009979763878896e+00
    -9.6890428330360967e-01 2.0135435411466625e+00
    -8.9019819713852444e-01 2.0009979763878896e+00
    -9.6890428330360967e-01 2.0135435411466625e+00
    -8.9019819713852444e-01 2.0328123394268363e+00
    -8.3452296039628016e-01 2.0090359385796144e+00
    -9.0935310904129918e-01 2.0027758514399734e+00
    -9.4868329805051366e-01 2.0001108125329825e+00
    -9.8952850725315977e-01 1. 0. 2.1933462085631481e+00
    -6.4645993515545408e-01 2.0328123394268363e+00
    -8.3452296039628016e-01 2.0613244238630446e+00
    -7.8113346588494326e-01 2.0730699572419278e+00
    -7.6376261582597338e-01 2.0254068053782990e+00
    -8.5280286542244166e-01 2.0189929247005716e+00
    -8.7135484118656248e-01 2.0189929247005716e+00
    -8.7135484118656248e-01 2.0507312359376413e+00
    -7.9870584978623926e-01 2.0613244238630446e+00
    -7.8113346588494326e-01 2.0135435411466625e+00
    -8.9019819713852444e-01 2.0189929247005716e+00
    -8.7135484118656248e-01 2.0009979763878896e+00
    -1.0320936930842799e+00 2.0090359385796144e+00
    -1.0996828295383154e+00 2.0090359385796144e+00
    -1.0996828295383154e+00 2.0135435411466625e+00
    -1.1233453440081380e+00</input_scale>
  <output_scale>
    5.2631578947368418e-01 4.9999999999999994e-01 5.2631578947368418e-01
    4.9999999999999994e-01 5.2631578947368418e-01 4.9999999999999994e-01
    5.2631578947368418e-01 4.9999999999999994e-01 5.2631578947368418e-01
    4.9999999999999994e-01 5.2631578947368418e-01 4.9999999999999994e-01
    5.2631578947368418e-01 4.9999999999999994e-01 5.2631578947368418e-01
    4.9999999999999994e-01 5.2631578947368418e-01 4.9999999999999994e-01
    5.2631578947368418e-01 4.9999999999999994e-01 5.2631578947368418e-01
    4.9999999999999994e-01 5.2631578947368418e-01 4.9999999999999994e-01
    5.2631578947368418e-01 4.9999999999999994e-01 5.2631578947368418e-01
    4.9999999999999994e-01 5.2631578947368418e-01 4.9999999999999994e-01
    5.2631578947368418e-01 4.9999999999999994e-01 5.2631578947368418e-01
    4.9999999999999994e-01 5.2631578947368418e-01 4.9999999999999994e-01
    5.2631578947368418e-01 4.9999999999999994e-01 5.2631578947368418e-01
    4.9999999999999994e-01 5.2631578947368418e-01 4.9999999999999994e-01
    5.2631578947368418e-01 4.9999999999999994e-01 5.2631578947368418e-01
    4.9999999999999994e-01 5.2631578947368418e-01 4.9999999999999994e-01
    5.2631578947368418e-01 4.9999999999999994e-01 5.2631578947368418e-01
    4.9999999999999994e-01 5.2631578947368418e-01 4.9999999999999994e-01
    5.2631578947368418e-01 4.9999999999999994e-01 5.2631578947368418e-01
    4.9999999999999994e-01 5.2631578947368418e-01 4.9999999999999994e-01
    5.2631578947368418e-01 4.9999999999999994e-01 5.2631578947368418e-01
    4.9999999999999994e-01 5.2631578947368418e-01 4.9999999999999994e-01
    5.2631578947368418e-01 4.9999999999999994e-01 5.2631578947368418e-01
    4.9999999999999994e-01 5.2631578947368418e-01 4.9999999999999994e-01
    5.2631578947368418e-01 4.9999999999999994e-01 5.2631578947368418e-01
    4.9999999999999994e-01 5.2631578947368418e-01 4.9999999999999994e-01
    5.2631578947368418e-01 4.9999999999999994e-01 5.2631578947368418e-01
    4.9999999999999994e-01 5.2631578947368418e-01 4.9999999999999994e-01
    5.2631578947368418e-01 4.9999999999999994e-01 5.2631578947368418e-01
    4.9999999999999994e-01 5.2631578947368418e-01 4.9999999999999994e-01
    5.2631578947368418e-01 4.9999999999999994e-01 5.2631578947368418e-01
    4.9999999999999994e-01 5.2631578947368418e-01 4.9999999999999994e-01
    5.2631578947368418e-01 4.9999999999999994e-01 5.2631578947368418e-01
    4.9999999999999994e-01 5.2631578947368418e-01 4.9999999999999994e-01
    5.2631578947368418e-01 4.9999999999999994e-01 5.2631578947368418e-01
    4.9999999999999994e-01 5.2631578947368418e-01 4.9999999999999994e-01
    5.2631578947368418e-01 4.9999999999999994e-01 5.2631578947368418e-01
    4.9999999999999994e-01 5.2631578947368418e-01 4.9999999999999994e-01
    5.2631578947368418e-01 4.9999999999999994e-01 5.2631578947368418e-01
    4.9999999999999994e-01 5.2631578947368418e-01 4.9999999999999994e-01
    5.2631578947368418e-01 4.9999999999999994e-01 5.2631578947368418e-01
    4.9999999999999994e-01 5.2631578947368418e-01 4.9999999999999994e-01
    5.2631578947368418e-01 4.9999999999999994e-01 5.2631578947368418e-01
    4.9999999999999994e-01 5.2631578947368418e-01 4.9999999999999994e-01
    5.2631578947368418e-01 4.9999999999999994e-01 5.2631578947368418e-01
    4.9999999999999994e-01 5.2631578947368418e-01 4.9999999999999994e-01
    5.2631578947368418e-01 4.9999999999999994e-01 5.2631578947368418e-01
    4.9999999999999994e-01 5.2631578947368418e-01 4.9999999999999994e-01
    5.2631578947368418e-01 4.9999999999999994e-01 5.2631578947368418e-01
    4.9999999999999994e-01 5.2631578947368418e-01 4.9999999999999994e-01
    5.2631578947368418e-01 4.9999999999999994e-01 5.2631578947368418e-01
    4.9999999999999994e-01 5.2631578947368418e-01 4.9999999999999994e-01
    5.2631578947368418e-01 4.9999999999999994e-01 5.2631578947368418e-01
    4.9999999999999994e-01 5.2631578947368418e-01 4.9999999999999994e-01
    5.2631578947368418e-01 4.9999999999999994e-01 5.2631578947368418e-01
    4.9999999999999994e-01 5.2631578947368418e-01 4.9999999999999994e-01
    5.2631578947368418e-01 4.9999999999999994e-01 5.2631578947368418e-01
    4.9999999999999994e-01 5.2631578947368418e-01 4.9999999999999994e-01
    5.2631578947368418e-01 4.9999999999999994e-01 5.2631578947368418e-01
    4.9999999999999994e-01 5.2631578947368418e-01 4.9999999999999994e-01
    5.2631578947368418e-01 4.9999999999999994e-01 5.2631578947368418e-01
    4.9999999999999994e-01 5.2631578947368418e-01 4.9999999999999994e-01
    5.2631578947368418e-01 4.9999999999999994e-01 5.2631578947368418e-01
    4.9999999999999994e-01</output_scale>
  <inv_output_scale>
    1.8999999999999999e+00 -9.4999999999999996e-01
    1.8999999999999999e+00 -9.4999999999999996e-01
    1.8999999999999999e+00 -9.4999999999999996e-01
    1.8999999999999999e+00 -9.4999999999999996e-01
    1.8999999999999999e+00 -9.4999999999999996e-01
    1.8999999999999999e+00 -9.4999999999999996e-01
    1.8999999999999999e+00 -9.4999999999999996e-01
    1.8999999999999999e+00 -9.4999999999999996e-01
    1.8999999999999999e+00 -9.4999999999999996e-01
    1.8999999999999999e+00 -9.4999999999999996e-01
    1.8999999999999999e+00 -9.4999999999999996e-01
    1.8999999999999999e+00 -9.4999999999999996e-01
    1.8999999999999999e+00 -9.4999999999999996e-01
    1.8999999999999999e+00 -9.4999999999999996e-01
    1.8999999999999999e+00 -9.4999999999999996e-01
    1.8999999999999999e+00 -9.4999999999999996e-01
    1.8999999999999999e+00 -9.4999999999999996e-01
    1.8999999999999999e+00 -9.4999999999999996e-01
    1.8999999999999999e+00 -9.4999999999999996e-01
    1.8999999999999999e+00 -9.4999999999999996e-01
    1.8999999999999999e+00 -9.4999999999999996e-01
    1.8999999999999999e+00 -9.4999999999999996e-01
    1.8999999999999999e+00 -9.4999999999999996e-01
    1.8999999999999999e+00 -9.4999999999999996e-01
    1.8999999999999999e+00 -9.4999999999999996e-01
    1.8999999999999999e+00 -9.4999999999999996e-01
    1.8999999999999999e+00 -9.4999999999999996e-01
    1.8999999999999999e+00 -9.4999999999999996e-01
    1.8999999999999999e+00 -9.4999999999999996e-01
    1.8999999999999999e+00 -9.4999999999999996e-01
    1.8999999999999999e+00 -9.4999999999999996e-01
    1.8999999999999999e+00 -9.4999999999999996e-01
    1.8999999999999999e+00 -9.4999999999999996e-01
    1.8999999999999999e+00 -9.4999999999999996e-01
    1.8999999999999999e+00 -9.4999999999999996e-01
    1.8999999999999999e+00 -9.4999999999999996e-01
    1.8999999999999999e+00 -9.4999999999999996e-01
    1.8999999999999999e+00 -9.4999999999999996e-01
    1.8999999999999999e+00 -9.4999999999999996e-01
    1.8999999999999999e+00 -9.4999999999999996e-01
    1.8999999999999999e+00 -9.4999999999999996e-01
    1.8999999999999999e+00 -9.4999999999999996e-01
    1.8999999999999999e+00 -9.4999999999999996e-01
    1.8999999999999999e+00 -9.4999999999999996e-01
    1.8999999999999999e+00 -9.4999999999999996e-01
    1.8999999999999999e+00 -9.4999999999999996e-01
    1.8999999999999999e+00 -9.4999999999999996e-01
    1.8999999999999999e+00 -9.4999999999999996e-01
    1.8999999999999999e+00 -9.4999999999999996e-01
    1.8999999999999999e+00 -9.4999999999999996e-01
    1.8999999999999999e+00 -9.4999999999999996e-01
    1.8999999999999999e+00 -9.4999999999999996e-01
    1.8999999999999999e+00 -9.4999999999999996e-01
    1.8999999999999999e+00 -9.4999999999999996e-01
    1.8999999999999999e+00 -9.4999999999999996e-01
    1.8999999999999999e+00 -9.4999999999999996e-01
    1.8999999999999999e+00 -9.4999999999999996e-01
    1.8999999999999999e+00 -9.4999999999999996e-01
    1.8999999999999999e+00 -9.4999999999999996e-01
    1.8999999999999999e+00 -9.4999999999999996e-01
    1.8999999999999999e+00 -9.4999999999999996e-01
    1.8999999999999999e+00 -9.4999999999999996e-01
    1.8999999999999999e+00 -9.4999999999999996e-01
    1.8999999999999999e+00 -9.4999999999999996e-01
    1.8999999999999999e+00 -9.4999999999999996e-01
    1.8999999999999999e+00 -9.4999999999999996e-01
    1.8999999999999999e+00 -9.4999999999999996e-01
    1.8999999999999999e+00 -9.4999999999999996e-01
    1.8999999999999999e+00 -9.4999999999999996e-01
    1.8999999999999999e+00 -9.4999999999999996e-01
    1.8999999999999999e+00 -9.4999999999999996e-01
    1.8999999999999999e+00 -9.4999999999999996e-01
    1.8999999999999999e+00 -9.4999999999999996e-01
    1.8999999999999999e+00 -9.4999999999999996e-01
    1.8999999999999999e+00 -9.4999999999999996e-01
    1.8999999999999999e+00 -9.4999999999999996e-01
    1.8999999999999999e+00 -9.4999999999999996e-01
    1.8999999999999999e+00 -9.4999999999999996e-01
    1.8999999999999999e+00 -9.4999999999999996e-01
    1.8999999999999999e+00 -9.4999999999999996e-01
    1.8999999999999999e+00 -9.4999999999999996e-01
    1.8999999999999999e+00 -9.4999999999999996e-01
    1.8999999999999999e+00 -9.4999999999999996e-01
    1.8999999999999999e+00 -9.4999999999999996e-01
    1.8999999999999999e+00 -9.4999999999999996e-01
    1.8999999999999999e+00 -9.4999999999999996e-01
    1.8999999999999999e+00 -9.4999999999999996e-01
    1.8999999999999999e+00 -9.4999999999999996e-01
    1.8999999999999999e+00 -9.4999999999999996e-01
    1.8999999999999999e+00 -9.4999999999999996e-01
    1.8999999999999999e+00 -9.4999999999999996e-01
    1.8999999999999999e+00 -9.4999999999999996e-01
    1.8999999999999999e+00 -9.4999999999999996e-01
    1.8999999999999999e+00 -9.4999999999999996e-01
    1.8999999999999999e+00 -9.4999999999999996e-01</inv_output_scale>
  <weights>
    <_>
      3.1781613443796594e-03 -4.4766933828043502e-03
      5.3641336518146171e-03 5.9830149090670517e-03
      6.0958759532968648e-03 1.9094115826816173e-03
      6.4819809115663997e-03 -2.4278898120422680e-03
      -2.1809864158238794e-03 2.6178456375780985e-03
      -5.6100001653695067e-03 6.4619918055911609e-03
      7.9369524968610976e-04 5.2664415403124451e-03
      -6.0064872065657077e-03 2.5753314981588394e-03
      -1.2066854179382188e-03 4.6185325388453319e-03
      -4.3487856081521259e-03 2.8574022776825317e-03
      3.9514982930354695e-03 7.1447799884327371e-03
      -3.2729266642004240e-03 -2.2369465838945387e-03
      -5.9730529752937446e-03 3.2985549159400100e-03
      2.0825299066370481e-03 1.1871565821509624e-03
      5.4764274504842973e-03 -2.5518967625664702e-03
      5.6777763313883983e-03 1.7066330154651532e-03
      3.6440845504855136e-03 -2.6170641279630808e-03
      -1.0487065755274726e-03 -6.4924955091780704e-03
      -6.1401546316071983e-04 -5.3519814938517293e-04
      5.1223787654883883e-03 -7.0672136145086143e-03
      6.8818966176747692e-03 4.1882042379514538e-04
      -2.2871261998873094e-03 5.6792926255016876e-03
      3.6218922755632491e-03 2.0505966609860272e-03
      -2.0991950844185623e-03 -1.1683769873688907e-03
      1.8748036251541457e-03 1.7792397363914090e-03
      -5.9634188882006370e-03 2.4907317731198402e-03
      -2.3524806373614873e-04 6.4343672893959316e-03
      -7.4529986650024469e-03 2.8478697904215267e-03
      4.2152183396566576e-03 -1.7876249241401032e-03
      7.0459812848459643e-03 -6.7583975942259343e-03
      4.9326327518518119e-03 3.5211140279362021e-03
      -7.5020641098897389e-03 4.9704800106166198e-03
      6.7391164161363631e-03 6.6248744827798137e-03
      -1.4125433898602325e-03 6.4118130905470852e-03
      7.2464677274572519e-03 3.7229120013403602e-03
      -3.6967578333122015e-03 3.3025062113797043e-03
      -3.2162017990636448e-03 -2.5496375239260462e-03
      3.5283821297296251e-03 -5.6556601975492381e-03
      -7.8822046468110009e-03 -6.6501957486215599e-03
      2.7554995944075954e-03 -5.9284284867187525e-03
      7.2951701923293219e-03 1.2716499867753268e-04
      -2.4850662438752509e-03 -5.3749009742384782e-03
      1.4459816826949080e-04 -3.9238803765287555e-03
      -5.3354629422687544e-03 -2.6803582248485338e-03
      -6.8462642513258468e-03 -7.8122867210003656e-04
      -5.4185263043936881e-03 -6.5773897838514520e-03
      -1.5580064467723102e-04 -1.3572013895208749e-03
      7.6045059769245275e-03 4.0092397734414207e-03
      -2.3479340651496785e-03 2.8029332886321048e-03
      1.8121422251802552e-03 2.9414995969548161e-03
      7.8524197915987495e-03 -7.4093225284430422e-03
      5.9889933900959752e-03 1.6857507799024297e-03
      -2.3285104512150425e-03 7.8381134074853361e-03
      -4.3044411410898421e-03 -5.0123090049632221e-03
      6.0313720025704102e-03 -5.7856243348176103e-04
      5.4198746840624064e-03 -1.4699279387151278e-03
      -1.6789533973441823e-03 -6.2409966665939853e-03
      1.9351423015830517e-03 6.1282497063277572e-03
      -2.5425878224723648e-03 -2.5116903429683547e-03
      -4.1319008293429242e-03 2.4534394615489895e-03
      6.4933902056158151e-03 -3.5665858334597740e-03
      7.5212845784922112e-03 1.5690197650031803e-05
      5.1327725558616456e-03 -8.3232034359639207e-03
      -6.1065799627362633e-04 5.9084641297494842e-03
      2.9719863458569245e-03 5.5786022900608946e-04
      -7.2942126850708998e-03 9.3874954400857279e-04
      6.6405714928273220e-03 -5.1115468966263121e-03
      -4.3661138487479968e-03 6.5751822240732588e-03
      -5.3339689936112511e-03 -5.1351136590543408e-03
      1.8672810355295174e-03 -4.6014969967455091e-03
      7.6286544182207179e-03 -6.2919765086946553e-03
      -2.3009111842692788e-03 5.6132374219155018e-03
      -7.0571314733034872e-04 -1.5958393215506183e-03
      -6.5168055953222711e-05 3.0930459229221792e-03
      2.1787740601596590e-03 6.6488079395641232e-03
      4.3045254365826372e-03 -4.2915317223625989e-03
      2.1160286609500424e-03 -4.9357510294589452e-03
      3.4916542457137622e-05 5.2969138075257549e-03
      1.3760080194772297e-03 -6.8248678873148024e-03
      1.6169031885318946e-03 -5.2306952491744359e-03
      7.6389312742833042e-03 -7.1603366518239479e-03
      -1.5015665820103004e-03 2.5059752988412622e-03
      2.3273631165166247e-03 1.8188925146700899e-03
      1.2554163852348922e-03 -1.0509057385746849e-03
      -7.3137839364267807e-03 -1.3127280433472938e-03
      3.5251395992110905e-03 -2.9554041308326173e-03
      5.8538347543088320e-03 8.0523110474943500e-03
      7.0954461933784435e-03 7.0384962877369627e-03
      -7.2904238174338722e-03 1.4546758416261959e-03
      -1.1890107402661881e-03 7.4332905235715736e-03
      7.9647544453380521e-03 7.0261216789874823e-03
      -4.6976526037641464e-03 -6.8554761626185940e-03
      3.6328189729064899e-05 -6.2489885900602364e-03
      -3.5831972846357440e-03 -4.4953929835603247e-04
      -4.7532852912526072e-05 -7.8192894778405537e-03
      5.6907171520177652e-03 1.9485244995126202e-03
      -1.7410627073571961e-03 -4.9459242662466731e-03
      -2.5746940315274744e-03 1.7349426434790046e-03
      -3.4085471997967985e-03 -2.8320441590205087e-03
      6.3822813656862053e-03 -6.2234941040899836e-03
      3.7575309099198398e-03 -7.1194110730558591e-03
      1.4106637755425286e-03 -3.9867178167578817e-03
      -3.3493314838984999e-03 -3.5103262022706605e-03
      -7.5612725401016812e-03 1.7426944251355419e-03
      2.9659592408995527e-03 2.1363348364204491e-03
      1.5403415921010194e-03 7.7445022001801003e-03
      -1.0081991152573911e-03 4.1576634107109781e-03
      1.4993322337574231e-03 -1.5891485456926628e-03
      -2.4466331529796473e-03 5.8989869286202069e-03
      7.8543881953138158e-03 1.2778850764906245e-03
      -5.8382667364968079e-03 2.1073811914611332e-03
      -3.3350834940080163e-03 1.5840561574453438e-03
      -1.6074688736521900e-03 -7.3992537097824747e-03
      5.5577190461848580e-03 -3.9247764508842263e-03
      1.9265956280973726e-03 2.9990177827481038e-03
      -2.1247812339336342e-03 1.0945159195119825e-03
      7.1400063021320216e-03 7.4135603442479264e-04
      -5.4114340278547399e-03 -1.0045337287027519e-04
      -4.5579602627261939e-03 4.4159911175089232e-04
      -2.6137995139831620e-03 -1.9398526787778403e-03
      7.2981912164456044e-03 -7.7853095174628534e-04
      5.0928162202022106e-03 7.2013918542471467e-03
      1.7664907589883413e-03 -7.1113682261796452e-03
      2.4089118553873018e-04 5.1285638638868683e-03
      -8.7174493454149631e-04 5.0961920206412702e-03
      -9.8961762679004232e-04 -7.4205682470135925e-03
      -4.9269085372665106e-03 -2.0088570790363451e-04
      -1.0717425217239823e-03 1.0077808838108067e-03
      -7.8872367472774766e-03 2.4781157552888995e-03
      7.7435080118930313e-03 2.3060432458603510e-03
      -2.7018402830728482e-03 -1.6111197518374042e-03
      -4.3187284457496516e-03 5.0300356771088729e-03
      5.1048079203141533e-03 4.8014946875162530e-03
      -7.2443889324767061e-03 -1.2060361629859736e-03
      -3.9527627277004115e-03 7.6884128165286463e-03
      -7.0128977878640127e-04 -5.2867929530949903e-03
      -1.9513155356592506e+01 3.8509961287184746e-01
      -6.5149131860914211e-01 -3.0051609763619945e-02
      -1.4589283727123009e-01 4.8392734485041311e-01
      -8.8789141747718833e-02 1.6311648297242679e-01
      -1.4374682943413716e-01 1.7507397221767920e-01
      -4.0635014453498641e-01 1.7968174160044298e-01
      -4.6134573276943550e-02 2.6171294672436685e-01
      5.3914110393909032e-01 -7.6314112995857941e-02
      -1.0253320865210934e+01 7.4269128629344605e-01
      -6.7490980406692669e-01 2.0643864167093429e-01
      -5.5426147910407952e-01 -8.3034780621454862e-02
      1.9787114736887323e-01 3.0057745866997068e-02
      -1.0622317793263679e-01 -1.2012864198239875e-01
      -1.2248982300575388e-02 5.6718371463151029e-01
      -3.7350047948813409e-01 -2.1737028518568616e-01
      -1.4197698756473934e-02 1.5394957017988914e-01
      -2.3843150449398709e+00 4.4605947048121208e-01
      -3.3638418509307877e-01 2.5776214650399371e-01
      -2.4697438427128401e-01 -5.5550516753728840e-01
      1.5302124983572718e-01 2.1961922917412105e-01
      -2.0183905614410563e-01 -1.1965194368281591e-01
      3.1780465042622330e-02 5.4673177477465107e-01
      -6.9603827035398247e-01 -1.4114581866909140e-01
      4.4095372784478987e-01 2.0051979610988702e-01
      3.0250137899654259e+01 3.2185610919899893e-01
      -2.5590283485495097e-01 -1.1244785134117097e-01
      1.4453976005196795e-03 -6.4295466720539107e-01
      4.2954460912814507e-01 2.2997096143814116e-01
      4.1747328948368523e-02 3.2438446072289551e-01
      -3.0547370031451838e-02 -1.5405261785164942e-01
      2.3093812168024239e-01 6.9044053441319767e-02
      6.7318644593115151e-02 4.5210601512891302e-01
      4.0420284331380245e+01 4.0264815899238809e-01
      -1.7780740481703861e-01 -5.6007900266879813e-03
      -5.5099582239729827e-02 -3.5191011706804715e-01
      6.3011658771451151e-02 2.4989678663238063e-01
      -1.1310928391853349e-01 1.8464770100813505e-01
      7.5967714179707116e-02 2.7669642855334181e-01
      3.9810511999044129e-01 -3.2813058363882930e-02
      -1.6772825511069470e-02 5.1979413411658437e-01
      2.2751933989070096e+01 4.2748305532886149e-01
      3.0731031222574950e-01 1.6637722343996517e-01
      1.5509726907207413e-01 -9.3301774687712336e-01
      1.2345071284414895e-01 -9.5213651887528575e-02
      1.1242535288327650e-01 1.6863826608181583e-02
      6.8134074797242178e-02 9.1875776691797417e-02
      7.0360525879833180e-01 -2.2532749946429198e-01
      3.2986314661089242e-03 1.0641720734642898e-01
      5.6190224111063447e+00 1.4482884453503830e-01
      4.7839139111398538e-01 5.5076106012318514e-02
      1.3495646357486621e-01 -4.8438185497119834e-01
      1.2969543849534940e-01 1.5925954916858442e-01
      3.5247847688564581e-03 4.4725084799072079e-01
      1.3822569866362780e-01 -1.5234978365937962e-01
      6.0248204469596833e-01 -1.6444307756142876e-01
      2.4688820261807656e-01 2.5598277822319110e-01
      1.1598252584136036e+01 1.8746139394919370e-01
      1.8861529385238249e-01 2.1862289558585768e-01
      8.9810696469598300e-02 -1.7413227400187109e-01
      -7.1197337246638945e-02 -6.1688803494498047e-02
      -1.6480777301846752e-01 4.1868178226585229e-01
      8.0375910706125320e-02 -3.6078392692778721e-01
      2.9459861775121893e-01 -5.9427423551995373e-02
      3.4178605300964876e-01 2.9060913524089838e-01
      1.3367799945322300e+01 1.2630957864327599e-01
      5.2739827248806166e-02 1.2358256540768522e-03
      2.6104860545580455e-01 -2.2248953452249662e-01
      4.0007952901818286e-02 -6.6605228615827919e-02
      -1.7195763740917377e-01 5.2691482340917395e-01
      1.2249979696454392e-01 -2.4512590598898149e-01
      2.9306756365154252e-01 5.5739774484804334e-02
      4.5731837609488629e-01 2.9773436215075177e-01
      -1.4574684206072095e+00 1.5561307608450270e-01
      -2.4724858208270950e-01 -4.7671140539112325e-02
      2.9632832873825271e-01 1.6033099277009788e-01
      1.1536831272753045e-02 -7.4163198307751099e-01
      -2.0790241255936912e-01 1.4331502941465239e-02
      -1.1976345674420198e-01 1.4606363962733798e-01
      6.5358370862709747e-01 -1.4224836211132763e-01
      1.9365400818044137e-01 2.5646757584886304e-01
      -6.0813693466764052e-01 7.2531310089530759e-02
      -8.2927137712827240e-02 -5.7092473135615218e-02
      1.4779870771546311e-01 -3.5496533582399031e-01
      4.5874154869740461e-02 -8.8750051633669480e-01
      -3.1340144737900866e-01 -2.4856833528940964e-01
      -1.7696300632495995e-01 1.2621562300958616e-01
      8.3212030889236266e-01 -1.5116621342090261e-01
      1.5711428334327624e-02 2.0518297987169962e-01
      -3.0597978656205305e+00 2.5841886711387091e-01
      -1.4899777204539655e-01 -1.3070649035594059e-01
      1.3307280751650730e-01 1.3880900913715721e-01
      -4.7669828116117813e-01 -7.1901391742104737e-01
      -2.0081239946258153e-01 -2.3213185014618523e-01
      -4.4854813033258456e-01 6.6868357534700862e-01
      7.1968769631417495e-01 -4.8523472127443412e-01
      5.3269417295382959e-01 5.1535852197972964e-01
      -1.2124915244129284e+01 -4.4623181984802425e-02
      1.0889146756772812e-01 -2.0856978536288021e-01
      2.9684925038392884e-01 1.6534451630119720e-01
      -1.5828632006256760e-01 -7.4146770987213650e-01
      1.3976542647438372e-01 3.0096034051745912e-01
      -5.0153743386478178e-01 3.4384018347373690e-01
      5.4476903881314453e-01 -3.8939371314274135e-02
      4.6190630758594348e-01 4.3108882635893836e-01
      -1.3083111905975748e+01 -1.3922273471557406e-01
      -4.1146502852948874e-01 3.1306985586025410e-01
      1.0964204797755470e-01 -1.0558602713521245e-01
      1.2040665898864121e-01 -1.9655621184878028e-01
      3.7662497844103020e-02 -1.2879006718023839e-01
      -2.2297781226000360e-01 1.8177856152831734e-01
      5.5506634711483460e-01 4.4992340282411436e-01
      9.7153398154999593e-01 2.7755613643350074e-01
      -2.7430773856238417e+01 2.7079139251815106e-02
      -4.7634686203514742e-01 2.8123417239542459e-01
      2.0971492623300308e-01 3.9402497959911931e-01
      1.0088392548380143e-01 2.2104937683222237e-01
      2.6663857854942280e-01 1.3472337196561951e-01
      1.0984179516611549e-01 3.1531170325426122e-01
      1.7386479782239714e-02 1.4951126361227926e-01
      5.2859956656447760e-01 6.7702264553153491e-01
      3.6121294410599732e-03 4.0073041571565132e-04
      3.2394238021359214e-03 5.5458151171743145e-03
      2.2372587154021921e-03 4.1765256254330715e-04
      4.5361931203885542e-03 -1.8818637296670162e-03
      5.4966885697201179e-03 -7.6311487945627827e-03
      9.4326540453001288e-04 5.6482445182802895e-03
      -7.0985242910379717e-03 5.9863826349696491e-03
      -7.6727697817912483e-04 2.9503091674546516e-03
      -2.6047684498768259e+01 5.1841460624228029e-02
      -5.2988243450519279e-01 -3.4452198534561402e-03
      -6.0685642154002198e-02 4.1315672104640283e-01
      1.7925852350705634e-01 1.0830421230650145e-01
      -1.2708201643332961e-01 3.4954293325305408e-01
      -4.3819452887986421e-01 -1.3151835481584637e-01
      -3.1558798944396504e-01 -4.2608731607212713e-01
      4.6360399163115995e-01 -1.5087841275252240e-01
      2.8481470855541611e+00 1.2812443315207836e-01
      7.0328284246652120e-02 -1.3067143635149281e-01
      1.8828808443095982e-01 -2.2484087228866248e-01
      8.1256351409233962e-01 2.0967244546838269e-02
      -2.3785394413781702e-01 1.2627453529965704e-01
      8.5963905427549787e-03 -1.1734725789603848e-01
      -4.6841831216895768e-01 -4.8743204569767523e-01
      -2.3843017592157074e-02 -1.7052050285424028e-01
      2.3015382230226919e+01 -7.4584574859607761e-02
      2.3953053429218457e-01 3.0207218714102974e-01
      3.3001485893766508e-01 -5.6947907407378519e-02
      2.4538073186809073e-01 1.9103107072859160e-01
      1.7787812076647305e-01 3.6265761390984930e-01
      2.4122603663182585e-01 4.0521814848747251e-01
      -4.5040765475670641e-01 -1.3077383494528369e-01
      2.9406958932311505e-01 3.2749840218693910e-01
      3.6339903813053851e+01 1.1081001633399547e-01
      4.6708045351361366e-01 -3.7607758772158717e-01
      3.6349794407438352e-01 -1.4019613903441638e-01
      7.6518750194170526e-01 1.5069740981975974e-01
      1.7750799392052335e-01 -1.0469883793236866e-01
      -2.4323351889194911e-01 5.4958603431730368e-01
      2.9482478684866842e-01 1.3286458415118030e-01
      -1.3591108239839117e-01 5.7310963007543503e-01
      2.4000912260289127e+01 6.3448293873631334e-01
      1.8939089976997428e-01 -9.1123411808850152e-01
      2.8162804779430523e-01 -2.5398090363212500e-01
      5.4371375468815730e-01 -1.2577026713317024e-01
      -2.5021776876147173e-01 -1.1774707369447922e-01
      3.8660132971397149e-01 6.2182359464009518e-01
      1.8486133134144326e-02 -1.0390315514897842e-01
      -5.5831666625839944e-02 5.2134929574096511e-01
      1.1160002789191635e+01 6.8127295717559044e-01
      3.7246368679898734e-01 -2.9758985659240106e-01
      4.9652942170524954e-02 -4.5533092576375211e-01
      1.9555788793427376e-01 4.0576240464880664e-01
      3.8019117754440174e-01 -3.0843389512080038e-01
      1.3501440018452962e-01 4.7636120845274826e-02
      1.3993390367833872e-01 -7.7440656793296747e-01
      3.0409981072091535e-01 1.2073511126122391e-01
      -4.3383866417753292e-01 1.4666990888508474e-01
      4.1414061567023691e-01 -5.4304122234763129e-02
      -5.8574535648548066e-02 -9.2789274750193107e-02
      3.0415689718735517e-01 7.5917112401351272e-01
      2.8954870037195912e-01 1.9822463939811849e-01
      3.7989026190344465e-02 -8.2314186868403094e-01
      -5.4592776100852287e-02 -1.7433307607240181e-01
      3.8822378435462968e-01 5.8988157113316349e-02
      3.9794646225929977e+00 -4.3047632491438947e-02
      3.3243020259214129e-01 -1.6138262292855088e-01
      -2.0406107950354374e-01 -2.0747658502464399e-02
      -2.7999975811563038e-01 2.5445374052351694e-01
      -6.4996284415619054e-02 -2.1778706153091415e-01
      -1.9578597026997743e-01 -3.2334908651205675e-02
      2.1669470543607230e-01 -3.8783421465996204e-01
      2.0718326298758805e-01 -3.2287395826989906e-01
      -1.2848718004536416e+01 8.3425412066610430e-02
      4.3711107831472334e-01 -6.2620336329014070e-01
      -3.5197032071260659e-01 -3.9711046369268699e-01
      -2.7817113370877949e-01 -2.0006404385995138e-01
      -4.7483910309572130e-01 2.3321702334330605e-01
      -1.3307405731436481e-01 -7.7509053117477106e-02
      1.2316678968310042e-01 -6.7361690177872455e-02
      -6.7175174573893007e-02 -2.4176543143413204e-01
      -5.4877582041380402e+00 -3.9857670642035187e-02
      -5.7067406214281337e-02 -1.1351213595721815e-01
      -2.6224377589166664e-01 -6.4736914072804796e-01
      -1.8451611687633360e-01 1.6413470118156470e-01
      -4.2999401967851769e-01 -1.0289846685725976e-01
      -5.5980492914980762e-01 2.9598531146774770e-01
      8.3530124828856644e-01 1.9622805502454113e-01
      -7.3451433826067747e-05 -5.2093651176036149e-01
      -5.4334752912283459e+00 -7.8714740300407454e-02
      -3.8427258952314564e-01 7.3713233465459507e-02
      -3.3389869080840678e-01 -1.6451012080076638e-01
      -1.1213294143390574e-01 2.2323728914454596e-01
      -1.5269239861727626e-01 -3.6837446414326569e-01
      -6.3567960973088644e-01 1.4196716015455482e-01
      9.0554734508775625e-01 2.8898913568515483e-01
      1.7072450566221639e-01 -2.8810449196700155e-01
      -6.4720948315739024e+00 3.6253556700694617e-01
      5.0097940969791172e-02 -2.3383893351421819e-01
      -4.9848280128751055e-01 9.6412099888782132e-02
      1.1912522403654434e-01 2.9930674967288246e-01
      2.5417939142504631e-01 -6.0993281634272345e-01
      -5.5527210970614922e-02 2.1387905994541892e-01
      7.0552561981712747e-01 -2.8359093809848046e-01
      1.9705594703508522e-01 7.3199997389840954e-02
      -1.2731237962935211e+01 1.9100015753510899e-01
      -1.0900889304282102e-01 -7.8496102176278310e-02
      -5.0653778356368773e-01 5.5049200034944304e-02
      3.8486020881087735e-01 9.2090434235168939e-02
      2.0630939990090102e-01 -1.1688016756412087e+00
      -2.2844048556694929e-01 1.8758267186820135e-01
      3.6204454652454432e-01 -2.9523536668511645e-02
      4.6270948398970241e-01 -1.8816019261687019e-02
      -1.3690147051094272e+01 -3.0769046580490667e-01
      -3.0223863731250182e-02 -5.9227897548489128e-01
      -1.9131811834848428e-01 -4.1228197874250430e-02
      5.3957386230260929e-01 1.2209692760119002e-01
      1.9111029976360955e-01 -6.0577569285409449e-01
      -1.6488034011178673e-01 1.2811964596632416e-01
      1.3684839900403806e-01 -1.6502083763729566e-01
      1.3990434977917129e-01 7.8709975816763353e-02
      -3.1036017069623814e+01 -3.0784056572772200e-01
      -2.5458287743639013e-01 -5.5067316350770479e-01
      -6.6801664328501893e-03 2.5397344164858304e-01
      1.1284593996267489e+00 1.0413465623683904e-01
      4.9564615417287586e-02 -4.4086258235066833e-01
      5.2438190694574416e-01 -2.9168030026639069e-01
      2.1432464837214693e-01 1.6058395787659360e-01
      1.3516533462613384e-01 5.0411303928537987e-02
      -7.9349578967615039e-04 -7.6785429494195560e-03
      4.7615579698825194e-03 3.5487105832096794e-04
      -5.2005789294244003e-03 -6.9322224103722293e-03
      -4.7602230604460814e-03 -8.1610802662470576e-04
      -2.0967171705353659e-03 1.8463281939908685e-03
      7.2340932471260094e-03 7.4819298682527171e-03
      3.0141691102357291e-03 5.3007883690435187e-03
      -1.3860063233000581e-03 1.7797454540305130e-03
      -2.0796261959857318e+01 -8.0747816228916497e-02
      -6.1747502536066437e-02 -2.2413577642256088e-01
      -3.6315472761804457e-01 -2.6304771877339555e-03
      4.6063493464516200e-02 -1.8573141236229648e-01
      1.9498810234020447e-01 3.5446008029869303e-01
      -2.1511402833406013e-01 -8.6594161037634718e-02
      -2.1475507980035433e-01 -2.2616649448955273e-01
      2.9410148180705648e-01 1.9245039769236943e-01
      8.6038381066714873e+00 8.7241078651913814e-02
      5.0330228099154495e-01 -5.0952589390349290e-01
      1.9208679013928565e-01 2.0636084690118844e-01
      4.6228471088739759e-01 -3.6825183177030452e-01
      3.2886040562203023e-01 1.3352504367935614e-01
      -3.4035272475362705e-01 4.0739815495111142e-01
      -3.2476472908503357e-01 -1.6852606957405469e-01
      -1.2465333527189848e-01 2.5562059096935641e-01
      2.7433771630763896e+01 -4.7200298600012555e-02
      5.9391764367969291e-01 -1.7873263191604680e-01
      8.1076346286152415e-02 -2.7717640503445973e-01
      2.4876420761708534e-01 5.1225216639932980e-01
      3.5328313210733947e-01 -1.8141267253032992e-01
      -2.4151343404932010e-01 4.5030380871606185e-01
      5.1522765227627861e-03 4.7547615095540607e-01
      -1.4795297641041393e-02 5.0789297196208139e-01
      1.6074641161247857e+01 1.4377750917600914e-02
      3.2184256650851523e-01 -3.1391145961000422e-01
      5.0507022228405429e-01 1.6340839673808661e-02
      6.7744011018574835e-01 4.0245887399898478e-01
      2.7767692688317386e-01 -4.6766474919543236e-03
      -3.5093001329191520e-01 5.5042237561151774e-01
      4.4042880928863865e-01 7.0865343989113683e-01
      -1.5091549638241405e-01 5.4234200888993889e-01
      1.3033682557364454e+01 1.7677312699421618e-01
      2.0327921201247853e-01 -7.7492074153541246e-01
      2.5211094069836998e-01 4.7514325253357725e-01
      2.7369790142498318e-01 2.1874607529828388e-01
      1.3665306229909319e-01 -1.5595189674677440e-01
      -9.9297493671410136e-02 9.8905151828189097e-02
      1.5152014006578182e-01 7.5922711813041599e-01
      2.4957823484015768e-01 6.2106604118515074e-01
      -3.6307978075244179e+01 6.3593411555801449e-01
      -8.3317182133395604e-02 -5.9918046906535460e-01
      -3.6993712334098683e-01 -1.2041629450203969e-01
      2.9684929084353529e-01 6.8807956267754700e-01
      3.5430062100611268e-02 -2.3186260602492922e-01
      3.7887250027445757e-01 -8.8701941852878308e-01
      -1.7583407105359775e-01 3.2009382860015401e-01
      3.8201214239137107e-03 5.1017910649975229e-01
      -3.4758288282955775e+01 5.7339777130725844e-01
      9.2031375654682886e-03 -5.3600787731585796e-02
      -3.6177284044568186e-01 2.6681878491198359e-02
      2.5462036954801687e-01 7.7117991792415796e-01
      5.8822813475754610e-01 -1.1183548700893507e-01
      9.3600479632473185e-02 -8.0373844834312158e-01
      2.0213334298581935e-03 1.9929027447383874e-01
      4.9860963992482704e-01 4.7578087331182900e-01
      -2.0411882718621072e+01 2.2175268170047929e-01
      1.3104650097529041e-01 -3.0871480187366190e-01
      -6.7737146713805441e-01 1.1936679484515282e-01
      -2.2983831501199040e-01 5.5660482524944832e-01
      8.2386267104356856e-02 5.0669278254995798e-01
      -1.6835521256156039e-01 -1.3209777258844912e-01
      5.9191529132762724e-02 -4.3177304798875477e-01
      2.0128488778860645e-01 1.5656864102313983e-01
      -1.9642241237784244e+01 1.8317012782156364e-01
      5.5934185137812098e-01 -5.2527492913249907e-01
      -3.5051544600654122e-01 -9.0471120383093587e-02
      -3.1518668612102868e-02 2.8583112468967320e-01
      -8.5195189063216201e-02 2.3353128624327932e-01
      -4.4447307692770999e-01 -5.5622737690589674e-01
      2.4031292367101567e-01 -1.4522392589656627e-01
      5.8999104232899512e-03 1.6427882605462665e-01
      -2.1391528141004063e+01 8.2763022234080899e-02
      2.0171974305565052e-01 1.0376658358555052e-01
      3.9589555216253147e-01 -4.3231728096207817e-01
      -3.4468026771226207e-01 8.1052926934363090e-01
      -6.0141866311737369e-01 5.6726408347580048e-01
      -4.6504979823048609e-01 3.4844886081288540e-01
      8.5317595340248886e-01 2.9079087085476818e-01
      -1.9733928442606369e-01 -3.1077948706571840e-01
      -2.1771273760094122e+01 5.4046988647239680e-01
      -4.0008222380924385e-01 -1.2162418363504750e-02
      1.6298144445865889e-01 9.3889423342571970e-02
      -4.4993506440968506e-01 5.0782643783316550e-01
      -3.3749303164939226e-01 1.9372610122818329e-01
      -1.3727421990746226e-02 6.7575492134714621e-01
      2.7118054752479598e-01 -1.3492885958342868e-01
      -6.5795872979489567e-01 -1.6096197591309033e-01
      -1.9693979697549217e+01 3.5622462926741311e-01
      -4.3512923995457903e-01 5.7158669993237554e-01
      5.5438766240332571e-01 -2.9904796353435292e-01
      2.4565040988500422e-01 -1.2351026489875123e-01
      -4.9252559360126053e-01 -9.7984150516621557e-02
      1.4250313611063106e-01 4.6415615687831080e-01
      4.0520811481888097e-01 -2.9267494905575392e-01
      -2.5536344956123663e-01 -2.2759086869145814e-01
      -1.2644709304987655e+01 3.3048355600323454e-01
      -2.2520219374916553e-01 2.4103844354202677e-02
      3.0291531856900239e-01 -1.6493544847340208e-01
      3.6443575804892513e-02 1.5928017085139096e-01
      -7.9269850140760989e-02 -5.1110213219569012e-01
      2.0836408715830318e-01 1.6311518357089294e-01
      -1.2695545632906510e-01 -8.8055148587963747e-02
      1.6734070396344888e-01 -3.3933917841046018e-01
      -1.9023803522674925e+01 -4.1683605845223959e-01
      1.0116731509169145e-01 7.3923028976544111e-02
      3.1420920637141253e-01 -2.3765721716044411e-01
      -1.2621473925178320e-01 5.7834951400353563e-01
      -1.1532611643616533e-01 -1.5973613602402018e-01
      4.8856023245760404e-02 -1.2430946587879525e-01
      -3.3792710573502416e-01 -2.0563088368078616e-01
      9.1892134496756636e-02 -2.0403050586517277e-01
      -3.3687266772957940e+01 -1.7817105266215674e-01
      -2.9362669361931754e-01 -2.7434585954092933e-01
      3.2571967799567997e-01 -1.3452645447017750e-01
      5.9828068375325516e-01 2.1366920249817845e-02
      -5.0716444231953828e-01 -5.2196819492225810e-01
      2.6752251407871297e-01 -2.8753502575822898e-01
      -1.9445734901213582e-01 4.2448508072037461e-01
      2.1908439479656638e-01 -7.2521365676640609e-02
      5.7071114535541447e-03 -2.3097073014755679e-03
      -2.6246717097854243e-03 4.5347786241575760e-03
      -5.1033399488537284e-03 -3.2342834175630988e-03
      -3.4645685565416594e-03 1.2581596523835287e-03
      -1.3329577073655995e-03 8.7991938585422352e-04
      -4.1092149564978054e-03 -5.1436690012082315e-03
      4.5041564029572627e-03 -6.7752843769558211e-03
      5.6510548934688449e-03 5.1541314410828221e-04
      -1.8374759352524535e+01 -8.6417044090033548e-02
      -8.3449100366580597e-02 -2.4270416822456070e-01
      -5.6496778115889101e-01 1.6226353849576503e-01
      1.0463960305297395e-02 -2.9011609918579567e-01
      3.0192112834267593e-01 2.5974783572544957e-01
      -5.0621018260188810e-01 -8.3522811131408175e-03
      -2.1208615159044844e-01 -1.5183807256570242e-01
      3.0113150617131301e-01 2.3632882500560795e-01
      2.4834833481328999e+01 3.9145978502386125e-01
      4.0795495094803119e-01 -1.1966009407716052e-02
      5.2463549746865146e-01 -1.4524422382244070e-01
      3.2468288676470358e-01 1.3645182822829760e-01
      8.2319601967780237e-02 8.4013271009424184e-02
      2.4848723985539908e-01 1.8587059765673125e-01
      5.5224316945022243e-02 -1.7061360571565994e-02
      -2.9791127131268630e-01 3.9127943698734097e-01
      3.1683705435764431e+01 -5.0378079758727372e-02
      1.5131934745459888e-01 1.6668874808586506e-01
      3.9061728854132582e-01 -4.6406331853884475e-01
      -1.5064934258483131e-01 6.0679722392597957e-01
      1.8141828101220112e-01 -4.4842200632466722e-01
      -4.0872154511233727e-01 7.9136854728538575e-01
      1.6245239853511220e-01 5.4190526253605886e-01
      6.6493643270085535e-03 -5.9520460351555206e-02
      1.6206450291151551e+01 -1.7999322593749534e-01
      1.4412917175893991e-01 -7.6308341920202305e-01
      2.9523971178788805e-01 7.3528532797983132e-02
      5.8921984255454218e-01 1.6925533456816796e-01
      2.1779864807589389e-01 -3.3135927232445306e-01
      -7.8908210406399737e-01 -1.6238346595741388e-03
      4.0186210690086216e-01 6.3349081297703747e-01
      -2.0418469346536622e-01 -1.9031992315822196e-02
      -1.6006438210598834e+01 9.9436136432759017e-02
      4.5597902642617238e-01 -2.8741587213280040e-01
      -6.3384419843932158e-02 -4.2827844146752302e-02
      5.2790810580475300e-01 -1.5393802682687393e-02
      8.1972010084154598e-02 -2.0531738285502327e-01
      -4.1276791190844442e-01 4.5274861640157110e-01
      -2.9457051362415060e-01 3.6775381960964876e-01
      -1.6118860175741820e-01 1.7014684578532665e-02
      -2.5902304252413078e+01 1.3500376636615091e-01
      1.7492484073356747e-02 -2.1917172252915446e-01
      -3.3516251221474497e-01 8.4905498353721048e-02
      1.9339231621306771e-01 2.5392218463344909e-02
      1.8062958412414482e-01 -1.0927432326769754e-01
      7.0252462616142528e-02 2.5277823120375298e-01
      -6.3554562959073330e-02 1.6381419696043253e-01
      -3.7374990651628953e-01 6.3969769299270840e-01
      -2.9078497495600026e+01 -1.2578622618505977e-01
      -3.8073882743272919e-02 2.2666450889164153e-01
      3.6015560601652667e-02 -6.3018475989026060e-02
      4.0874791131925609e-01 4.8371148887981197e-01
      -1.9452820308224976e-02 3.0222086186885194e-01
      1.1252159225770371e-01 -3.7680781607386515e-01
      -1.6920577202732745e-01 -7.7959763894223572e-02
      -1.5894410316719779e-01 6.7599587647577741e-01
      -7.8082899362085687e+00 3.6521018619125062e-01
      2.5868566481122751e-01 7.0736515281719273e-02
      -2.1530461295868672e-01 6.5680744404381597e-02
      -1.3263369969029348e-01 6.2832406509093186e-01
      1.2603549396077629e-01 8.8489636073704625e-01
      -7.4963222797640727e-02 -9.0963213096831891e-02
      6.2598341323154805e-01 -2.0435125020415681e-01
      2.2348406525179326e-01 8.3980584751097065e-01
      -6.6829248593372581e+00 7.7670703445008571e-01
      4.0006147884527282e-01 -1.3456326175284883e-01
      -3.1604345936438888e-01 1.1354569830188410e-01
      -1.2926520488700557e-01 5.2964186367721988e-01
      1.7784309398614051e-01 7.7864186949537362e-01
      1.2223284174906264e-01 2.6383092679216440e-02
      6.2338400526104287e-01 2.1739733330740588e-02
      2.2811803142196851e-01 7.3784914921716782e-01
      -8.0302524643325448e+00 5.4221078676968315e-01
      -1.1768687964285887e-01 7.1297941628376368e-02
      1.8231926671289839e-01 -5.6022032273890676e-01
      -4.5753204377531242e-01 8.5758791843913451e-01
      -2.5332685727044574e-01 4.7595569061503423e-01
      -1.0525703739632294e-01 2.7534433671089242e-01
      -1.0319295180592127e-01 -1.8172951953919819e-01
      -1.0236815919837551e-01 4.2905999456144629e-02
      -1.1965112114756948e+01 -7.2201733236233911e-02
      -5.3046682838222059e-01 1.4925901476804262e-01
      5.1628538813779057e-01 -1.7519735914062987e-01
      -5.6121562658749569e-01 9.7138112839355539e-01
      -4.9733415165507618e-02 -3.7982087414045723e-01
      -4.4042974061402890e-01 7.1842473411363639e-01
      -4.5729599713308013e-02 -1.2809514107278769e-01
      -2.3709201614485292e-02 -1.9685099435408243e-01
      -1.7698432246261646e+01 2.2199654591738238e-01
      -2.2794679427308495e-01 6.0859057752689372e-01
      1.7214059909883814e-01 3.6388482288496704e-01
      -3.9892534981189881e-01 -1.3914982902330725e-01
      -2.4939503331688029e-01 -9.9220226060988986e-02
      1.4247488515867165e-01 5.4950931954244753e-01
      -3.1751926594819568e-02 -6.4865108743543801e-02
      4.5310505720748973e-01 -4.6154154644373689e-02
      3.6871723024546852e+00 2.3845524660014475e-01
      -7.5236677333151591e-02 3.4980886241618436e-01
      1.2865981210910257e-01 5.5853255034448068e-01
      -2.0204801760029004e-01 -1.5037725939220592e-02
      -9.5451890099744613e-02 5.5223990687219271e-01
      6.0511734111650961e-01 2.0239931046250031e-01
      1.1154109982046538e-02 1.9222367957555597e-01
      6.9813519840035354e-01 -1.8709760504610151e-01
      -2.5114640834521218e+01 2.6700851308601441e-02
      2.5640664811485925e-01 7.6474801770656431e-01
      -5.6216985018954890e-02 5.1043416771646710e-01
      -1.1955507068203891e-01 -1.9180279047056764e-01
      -4.3034553263704853e-02 4.4071267776235684e-01
      5.4115166965622041e-01 -7.5017835990720838e-01
      3.1683590679805179e-01 4.4951940593674600e-01
      1.0665439592736742e-01 -3.6905534080630714e-01
      -3.0735108579895353e+01 1.8558569300832148e-01
      5.1799119563306517e-01 4.2843979427575835e-01
      -1.4454112239258829e-01 3.7535132719052566e-01
      3.3568660108627979e-01 -7.6984675692471749e-02
      2.4154251374865215e-01 -3.9305345889059547e-02
      4.3130637425055746e-01 -2.6257030397660258e-01
      -1.6215862394637245e-01 -2.2262868231534552e-01
      5.5778359495678678e-02 -6.3999754315077387e-02
      3.6682173312907354e-03 6.8425236065226443e-03
      4.3403617121914413e-03 -4.7743366168638670e-03
      -2.8111920652043611e-03 -6.4167185136259257e-03
      -4.0226619034734335e-03 -4.1940693652948013e-03
      -4.5024837471645072e-03 2.1734289296887763e-03
      -2.7870375353559025e-04 -8.7559267423986925e-04
      6.8430019868705120e-03 -3.1331285368638687e-03
      3.8946595055773339e-03 1.6088952167295932e-03
      -1.1974841827808849e+01 -1.0211778038976561e-01
      6.4861211143131287e-02 -1.9490406990454617e-01
      -3.9744219637065037e-01 2.5086069555607299e-01
      1.0409453423115288e-01 -1.2481632149620102e-01
      2.3739737548808235e-01 3.6986608211875965e-01
      -4.3482802415599131e-01 3.0264688114636817e-01
      -2.2516475647872405e-01 -7.7893953143886377e-02
      -2.3224426538830062e-01 1.0385457396631868e-01
      1.6487768184766594e+01 1.0144872463704191e-01
      -5.0520379636580171e-01 -2.3784629809597688e-01
      1.9267318336354980e-01 4.0991797391112889e-01
      1.7330832933518348e-01 3.6608972034094418e-02
      -4.5462077558490292e-02 -1.7587084576050976e-01
      -1.2927822039509043e-03 4.0645407436246582e-02
      -4.5280939690154953e-02 1.2311939997418600e-02
      -3.3054282692852910e-01 4.4194945531484528e-03
      3.0831147922104687e+01 -2.7862133787142374e-01
      -7.3496419530701895e-01 -1.8798104201000074e-01
      1.8892354751149054e-01 4.2030807560385947e-01
      -1.9599347910395862e-01 1.5846728648511685e-01
      2.0943532374528462e-01 -6.5135951096411804e-01
      -6.6097836526537990e-01 2.5058497652930956e-01
      -8.1994732365162484e-02 4.6073708526020329e-01
      2.2058201738743191e-01 -2.4192953275279380e-01
      -1.1090890643040842e+01 -3.3491154717993882e-01
      5.9698052807686419e-01 -2.2826795717133938e-01
      1.7547211049359471e-01 9.1534245978222639e-01
      -1.5108447811188969e-03 2.9582402568139837e-01
      1.5111338962992821e-01 7.5503005481180663e-01
      -9.9410110296404086e-01 2.8099313868892078e-01
      3.8310081735644524e-01 6.3649663957735469e-01
      1.0698703175357582e-01 -1.2794951483705250e-01
      -4.2281868160839778e+01 -1.8892893432864713e-01
      4.8216986805620582e-01 -4.7982082438025236e-01
      -4.4978313716604862e-01 1.6819694812213740e-01
      6.0563143939799932e-02 3.8731272334847727e-01
      -3.3556402119053486e-01 1.9642182492968335e-01
      -6.5748176070455278e-01 2.6656200700689259e-01
      -3.7549315445591863e-01 3.4735514239823984e-01
      -1.1170120300419360e-01 -2.5554957616208934e-01
      -2.6991344087235799e+01 -4.0733340488804898e-01
      3.5299262022247041e-01 -6.3215259957292924e-01
      -3.6690096463155925e-01 3.5566852854507441e-01
      3.4805797583306708e-01 1.3604398071715060e-01
      -1.5491518348483896e-01 -3.3849977059211181e-02
      -4.9927716334297717e-01 9.9837868092109719e-02
      -2.3410077605197230e-01 1.8048279984727845e-02
      -5.6595064534535697e-03 4.2235886484087909e-01
      -2.6892210300548360e+01 -1.2995089320512426e-01
      2.9557539093431597e-02 -1.3399038810109428e-02
      5.0098803894930266e-01 -1.7548661515112543e-01
      7.0944696974083099e-01 3.9771607582475881e-02
      -2.0069911431557391e-01 1.6572954321877556e-01
      -4.8981233117260387e-01 8.4727993849860513e-03
      -2.5647105237584744e-01 1.8163930188750038e-01
      1.5102740896569863e-01 3.9736607160778048e-01
      -6.1071324372142826e+00 6.4518600535588899e-01
      8.6467762707926291e-02 3.9738071937023206e-01
      1.8403868045947561e-01 -6.3531669409906913e-02
      -1.4326396748801673e-01 1.2434468638921557e-01
      -2.5481935395618500e-02 6.7173896964420121e-01
      -2.1887094918111805e-01 1.4377416266642620e-01
      1.6067809707012562e-01 5.9685269612227206e-04
      3.2166170784129561e-01 6.4372464144996677e-01
      -2.5422378998728981e+01 4.9748875387464725e-01
      2.8290261960808610e-01 -2.9958752347991852e-01
      -2.4338415000022612e-01 -3.0867582693920964e-01
      3.2228948544995984e-05 -1.2327216753025076e-01
      1.6103394828598200e-01 3.3370562025346551e-01
      -1.5214179092754271e-01 1.0335245142421522e-01
      3.9106151395672067e-01 2.0481022357205922e-01
      2.0872626469512533e-03 5.6403390499935391e-01
      -3.9479854197399327e+01 4.6458683403392687e-01
      -2.4234790949708454e-01 -2.2130790464410352e-01
      -6.2572185078969889e-02 1.1492819425571522e-01
      -2.5279159095461151e-01 -2.7530490722825102e-01
      2.3576013414272989e-01 -2.9040229941428031e-01
      -1.2735451379086871e-01 1.1696106426550539e-01
      1.0215293867398116e-01 -1.7023261526107558e-01
      1.6659953358777246e-01 -2.1503777246953415e-01
      -9.2477506032108643e+00 1.9457508155451300e-01
      -6.8760383475301501e-01 2.7146873983818276e-01
      2.0509419136231422e-01 4.2670963884014362e-01
      -2.2521259287610196e-01 9.2191190505588749e-01
      1.1086128002934748e-01 -4.9400958603796341e-01
      -5.1556360935565565e-02 3.9763736696166457e-01
      4.7503712911655610e-03 -7.0341830993863552e-01
      -1.9653265218559471e-01 -4.7189750973465949e-01
      4.2736949450536068e+00 3.1677193243596008e-01
      -4.9794213491287119e-02 -3.6015091861167123e-02
      -2.8060696430364901e-01 1.1076665162269717e-01
      -7.5531193774781652e-02 -5.8048903521040536e-02
      -1.0571115736288690e-01 -1.5574571163901133e-02
      6.8818867669729733e-01 6.1084828923683487e-01
      -5.1367439361755647e-02 -2.5200876222004098e-01
      -9.0488728185360440e-03 -5.8636815736746548e-02
      -2.3703812800195552e+00 1.9837371467722870e-01
      4.4939020556266934e-01 -1.8971123933068426e-01
      -4.5066787453897394e-01 1.5359504099555449e-01
      -2.0722128440381968e-01 -2.9201776603180940e-01
      5.2721792892092820e-02 4.2531568907052436e-01
      8.5151494426538865e-01 1.4401619521951511e-01
      -3.2767760191784151e-01 -3.7667847780537422e-01
      3.7619611045936074e-01 -6.1790547466651524e-02
      1.6421816662951718e+00 -1.4303213908584749e-02
      1.2924783139310825e-01 2.0227835214763956e-01
      -1.3752995821721406e-01 4.3408678399109052e-01
      -7.3585441715356636e-02 -2.8272438779442555e-01
      1.8833394634639067e-01 2.1497709609599774e-01
      2.4551498780591618e-01 -2.1084626751057170e-01
      -5.0932663834359911e-02 -3.3516417845904767e-01
      1.9531869701160634e-01 -4.6322302587903696e-01
      -3.5665834105864235e+01 1.0851159804962748e-01
      1.0085838523318243e-01 3.6862650568593497e-01
      -2.2861024951074149e-01 1.9460580930814839e-01
      -4.8938004148608473e-02 -7.5298108110939244e-01
      2.2804803772998757e-02 3.8804824715420907e-03
      4.3479400852711847e-01 1.0414812739589976e-01
      -1.9892217467604903e-01 -6.9278095335657663e-01
      4.3130906710621295e-02 8.0182496019192792e-02
      -2.2146321278549226e-03 5.1311048870722759e-03
      -7.7036126261221978e-03 -6.3188359547150900e-03
      -7.5656094794426393e-03 -7.0240854579738552e-03
      -2.5234452804693721e-03 3.1441805816935448e-03
      2.9383862237227659e-03 -2.0960878605852011e-03
      -7.2781395590501416e-03 -5.6078524654554641e-03
      -5.8790637118824119e-04 -3.4715811344979445e-03
      -1.5852653614990540e-03 6.8729019870445180e-03
      -2.2615666708073068e+00 1.5090553058883674e-01
      -1.0754946193721986e-01 -3.4738041994762719e-01
      -2.4691085224570830e-01 1.3117035083124365e-01
      -2.6494942200555545e-02 7.4654541215601181e-02
      -3.4717530534851965e-02 4.8862868627317113e-01
      -1.3602945232224764e-01 2.7223395704060066e-01
      2.0760803281001197e-03 -2.0990102088588583e-01
      -2.1662645645916648e-01 2.3602428817201518e-01
      1.4141058870204843e+01 2.7552446496452193e-01
      -4.2287902566619312e-01 -3.7353001361251342e-01
      1.3619824647111518e-02 7.1474308027579658e-01
      2.7273348853346741e-01 1.7054113054192568e-01
      -3.2885501495363045e-01 7.5271623477113692e-02
      2.3072795749376990e-01 -2.9584160754773273e-02
      2.4611831477274515e-01 -1.0564897674710126e-01
      -3.3435602921732382e-01 1.5592864022325822e-01
      2.8459469862898356e+01 -1.3217570500530010e-01
      -1.4701080379918319e-01 -8.2063086231930815e-02
      2.4722917656396567e-01 3.3632172199600846e-01
      -1.2831731201322130e-01 5.9696597291012532e-01
      -2.8776628400714255e-01 1.7308982475531212e-01
      -4.6206385964743663e-01 7.2135087707157519e-01
      -1.9300244572427530e-01 3.9571795040898744e-01
      2.0599091589906904e-01 -2.3343108023260264e-01
      -8.2013103192246906e+00 5.1209220521282517e-01
      1.6554451714173138e-01 6.6275417548454718e-01
      7.9531025870610716e-01 9.0177867905916742e-01
      -4.6341556364533770e-01 3.3040889649441496e-01
      2.9405231026263562e-01 9.0044872322471037e-01
      -5.9569064716248887e-01 -2.5129655398212457e-02
      3.9502182193758389e-01 2.9401435850064933e-01
      5.2888850189279113e-01 -1.5937551676276206e-02
      -1.0459943907218372e+01 4.4090032611808300e-01
      2.2254405910512501e-01 -6.7050430404829886e-02
      -9.2633335853731680e-02 4.5305991729364220e-01
      7.6103872110351703e-02 2.3707762400065932e-01
      -1.8943565712603189e-01 1.7993899750186940e-01
      -4.6956822980204471e-01 -5.9953049974818630e-02
      -1.7129583339376195e-01 -1.7519844155292380e-01
      -4.4275516251893784e-02 -1.4078167891626656e-01
      -2.8924741993907105e+01 -7.2100507433093194e-02
      2.3428135633749964e-01 -6.8048964121523350e-02
      -1.8368278929986218e-01 -8.7842207279590856e-02
      1.5625909688924766e-01 2.9446983928199000e-02
      -7.0803035806936476e-02 -1.2123578617699853e-01
      -6.4612583789134537e-01 1.0229771763535127e-01
      -2.3589637091989935e-01 -2.3067782011011698e-01
      -2.2179364848221628e-01 2.6682868626853767e-01
      -1.3065611015361341e+01 3.2679857386615330e-01
      1.5036249938761384e-01 5.9332170396845622e-02
      1.8651157988133898e-01 2.2613446345945105e-02
      8.5855459175853424e-02 2.6014323920127175e-01
      -1.6621979391368630e-01 8.6481167362522690e-02
      -4.3258340395749251e-01 1.1272655337367743e-01
      -2.9376652478317922e-01 -1.8297123154869180e-01
      -2.1717470368165098e-01 2.1707134004422526e-01
      2.3892131241712436e-01 7.3343028905538765e-01
      4.9682588553819623e-01 4.9806739305678410e-01
      7.7734267787455680e-01 -1.2811565840268516e-01
      -3.2172887374381282e-01 4.3855218948443314e-01
      3.1887331056659757e-01 -1.2139435612603640e-01
      1.6069448786439101e-02 8.9045246237438452e-02
      1.3243927484454643e-01 -3.4993792930681544e-01
      8.9746902737488643e-02 6.9766600822575764e-01
      -1.7652063445430901e+01 4.1017818131116723e-01
      1.9027744893632237e-02 -9.0887074629257422e-02
      5.3085637276129161e-01 -7.5338295979529998e-02
      -5.7590359410057336e-02 -1.5687088329687426e-01
      1.5020410698690770e-02 -7.0408029596970134e-01
      -1.7800163153047993e-01 -3.2441245833076410e-01
      3.7264592388951784e-01 1.7912238655142981e-01
      -2.4231432624088799e-02 5.0957844398529129e-01
      -2.1148498281284350e+01 2.6221557666714290e-01
      5.5555214060660621e-02 -2.9208542272559845e-01
      3.8248609719678017e-01 -4.2401285432276997e-01
      1.8025959343595571e-01 2.1962113110315737e-01
      2.7307523962519997e-01 -1.0222479169314005e+00
      -2.7050001486585314e-02 2.3987126877359866e-02
      3.4007158990207298e-01 -7.4642828679374718e-02
      -5.0162712369513085e-01 2.2030619799922688e-01
      2.0511503065982819e+01 4.8571045634611759e-01
      -2.9172233721888957e-01 -2.3245554443091503e-02
      8.3775113517587685e-01 -9.0641188110510168e-02
      2.1503020405477893e-01 4.3880460728122955e-01
      3.3893029328108670e-02 -6.5267499890663006e-01
      1.3265549807167229e-01 2.8014569304327513e-01
      1.5895202251071686e-01 -3.1157838997681330e-02
      -2.9854654145618964e-01 -3.5883913931921162e-02
      1.2443778953669787e+01 6.2532104937630661e-01
      2.4002332768852416e-01 -2.1572428204613670e-01
      -4.9253764733142053e-01 -1.6555656304170158e-01
      2.0243657322851094e-01 7.0870382941430521e-01
      -2.8329926839372599e-01 1.2910433119452375e-01
      8.7564981623322924e-01 -3.0411421120002941e-01
      -3.9224444800148267e-01 -8.4019411808847926e-04
      -2.1542577454405384e-01 2.9036472113586254e-01
      1.6385879187180407e+01 1.8922561424197287e-01
      3.6462413635413804e-01 -2.5499610209833107e-01
      -1.7381997221682988e-01 6.8225077809393053e-01
      2.1848027488490573e-01 1.8378853944779419e-03
      3.5445558932314114e-01 2.0884918758305221e-01
      9.1526921651038640e-01 -3.3004573176184371e-01
      -9.5513922845815155e-02 1.0194446040838355e-01
      2.5591805057230060e-01 -2.6846930518836326e-02
      -1.4284282867246652e+01 2.0968978331190594e-01
      6.0142953823528100e-01 4.1594941658756146e-01
      -1.0007734989714925e-01 2.8220871250276569e-01
      4.6616675307226108e-01 -4.9261642961031830e-03
      1.1989910998574245e-01 3.2385142869086843e-02
      6.6037551460429511e-01 9.8753114973947689e-02
      -2.1792051677990057e-01 3.5740453632795860e-01
      1.3461774438993801e-01 9.3493209468774832e-02
      -2.3326390562396025e+01 2.1506279453446955e-01
      1.8711888536155771e-01 2.3475784452891316e-01
      1.3740451302168780e-01 4.6052016687900862e-02
      3.4191906264618199e-01 -2.6363900189806427e-01
      -2.7424039078305085e-01 8.1050103960684530e-02
      2.1379674720026859e-01 1.4919042574237167e-02
      -5.4700963697195082e-01 -3.4187839987914354e-01
      1.5321478823844287e-02 2.2637580048909431e-01
      7.5058572248429449e-03 6.1609820909574661e-03
      -7.0024035908816023e-03 -8.2082968324400981e-03
      -8.1347611175131723e-04 -7.2571553023360073e-03
      -7.0332030220571513e-03 5.1839022037240244e-03
      -2.1879648407188205e-04 1.5351947046952320e-03
      -4.3998823039622711e-03 -2.4744936431510297e-03
      -4.0776551904879088e-03 -6.8795995327336429e-03
      2.6313228408182299e-03 6.6553167409517276e-03
      -9.0726094462574611e+00 6.2017034500192990e-02
      7.6180592709824690e-02 -2.7113414185356133e-01
      5.7514619936468822e-02 -1.1791114168577123e-01
      1.6913735222974682e-01 7.3815047221291369e-02
      -6.4578492572235718e-02 2.8349564572974090e-01
      -1.2159072611086881e-01 2.8447811852650029e-01
      -1.5908838844824927e-02 -1.2571487322395661e-01
      -1.4214620106135709e-01 2.0195424985690763e-01
      2.0670908325076830e+01 3.2328487399777567e-01
      -5.6629469064235738e-01 -9.0583237670381719e-02
      2.7661903940999183e-01 2.6002724877195987e-01
      7.5933652633182214e-01 6.0974601035388938e-02
      -2.9528501680973585e-01 -1.9046630529113087e-01
      3.1904271170503917e-01 -3.5406460383234202e-02
      2.8131669802056086e-01 -2.1300591021962054e-01
      1.5921093518298363e-02 1.1338590732914908e-01
      1.3434613074136747e+01 1.1077027467035090e-01
      1.8157697510263957e-01 8.5734904727856742e-01
      4.3333516290573121e-01 4.0399277202200046e-02
      2.9832441201066279e-01 1.1459652876113199e-01
      -9.8669864140112681e-02 1.8567679332714368e-01
      -1.2271577279819479e-01 2.1751212462264138e-01
      1.2756488582236455e-01 1.9021235495452055e-01
      -1.5159463317496844e-01 -1.5567138989515339e-01
      -6.4784261825078246e+00 8.3438876754044922e-01
      -2.2647804772818225e-01 3.1799989673259660e-01
      4.4152786158184015e-01 1.7561008309346562e-01
      3.5285383713351320e-01 -5.4921418347226858e-01
      -3.1551798016072941e-01 9.7637985694353877e-02
      -4.2712211729654237e-01 -5.6614465833329364e-01
      3.9448987406230429e-01 7.3715854518157847e-02
      -1.9729910656886662e-01 3.6272193621036959e-02
      -3.9825708931728081e+00 4.8890477067078292e-01
      -4.3843988317901583e-01 2.2852833233230302e-01
      2.6079537336691089e-01 8.6167832073293552e-02
      6.3856222541183627e-01 -6.4695092118369069e-01
      -9.9676084819443917e-03 8.0535567187384693e-02
      -2.8665495820758069e-01 -8.2359583576391129e-02
      4.5576263490441093e-01 -4.5281451624813901e-01
      -2.6395795080405027e-01 5.8079851817711935e-02
      -1.7501132764263414e+01 2.9426722715076437e-01
      -3.4972521878271379e-01 2.2348968300617450e-01
      -1.0180979019346999e-02 5.1592296434869622e-02
      1.0834455664019838e-01 -2.6425214600754526e-01
      1.5894808797311916e-01 5.7655306493368790e-03
      -3.6989045232239609e-01 7.8164301011806429e-03
      3.9987748590985633e-01 -3.9599384249298158e-01
      -1.5760467747899451e-01 1.8460113323265190e-01
      -1.1150506817121082e+01 3.1324810431353911e-01
      -5.5844747328047850e-01 1.0821975613797831e-01
      3.6934783007105665e-01 3.0655395231127192e-02
      3.4233581454294323e-02 -3.3436644368128005e-01
      1.1492412216844018e-03 -3.9794064898558673e-01
      5.2264180587527749e-02 -5.4599488435249799e-01
      1.0470048690979405e-02 -3.7199724409662016e-01
      -2.9761813209599214e-01 1.2190205090141780e-01
      -2.4370882756092556e+00 1.6388113255508771e-01
      -1.7119800526165310e-01 7.3110888599150625e-01
      5.5470625067832469e-01 3.6784140049355979e-01
      -6.5930249315915929e-02 -1.6871831428694328e-01
      2.5056714168548033e-01 2.8698758838731703e-01
      3.5448582628255820e-01 -1.1723865397329694e+00
      4.0862812254778608e-01 -1.4590529090708523e-01
      -4.8697366199791919e-01 5.7082174533352337e-01
      -1.1677197138626655e+01 1.8485312030461104e-01
      -1.2624764398672614e-02 6.1638498693118993e-01
      4.0349842235831473e-01 1.3439354504704801e-01
      -1.3240200436506994e-02 -5.0349545261291456e-02
      2.9789537926649673e-01 -2.8357008007055529e-01
      3.5105365331346083e-01 -6.8416967497294090e-01
      3.8936546512663595e-01 -9.9873872496747007e-02
      -5.9814154767966254e-01 6.5266728308342237e-01
      -2.1846172344832436e+01 -3.3906931338390572e-01
      -1.5095722788078450e-01 9.0103800286490987e-01
      2.1475414925832872e-01 1.4035426213219002e-01
      7.4021140601447225e-02 3.7539960298165742e-01
      1.2215313909297061e-01 -2.0253914804600531e-01
      3.7711667889802852e-01 -7.5203967609936029e-02
      5.3163417942758273e-01 1.2188229040238419e-01
      -6.2836722507935161e-01 -6.2868109253684995e-02
      2.7656825475521632e+01 -1.3915222933733284e-01
      -2.1020632276343093e-01 5.7162231469321523e-01
      1.3146357662624154e-02 -1.3128034376180805e-01
      1.2630891526064192e-01 1.0962277597464061e+00
      1.3684312477868749e-01 -3.2512976839749907e-01
      5.0340482186655666e-01 -1.6392657257735313e-01
      3.2771029120386669e-01 -1.6249745491325410e-01
      -2.4076960147591042e-01 9.2404079998622296e-02
      3.4129808005095619e+01 2.4487271292416041e-01
      9.3252569089371067e-03 -1.0295359734406882e-01
      -4.2912302559243504e-01 -5.4908918819596801e-02
      3.1014342507000769e-01 6.1158823016933417e-01
      3.4457639403896700e-01 9.5830706671590243e-02
      7.9901859792236707e-01 -7.8267660423758323e-01
      8.6447189991861045e-03 -1.8610847434367783e-01
      -7.2161426223408681e-02 3.0044241016668971e-01
      9.5297534434394056e+00 5.9267580203627913e-02
      6.3673726482432691e-01 4.8017971295586895e-02
      5.3222289538064523e-02 1.3400239977393547e-01
      2.6484517229667986e-01 7.5908826263858201e-03
      3.9730015144501729e-01 3.6469164470706683e-01
      5.9931665283044144e-01 -1.0565762070246353e-01
      -4.9898353850111113e-02 -1.0297585277585788e-01
      2.4928733379481907e-01 3.1453379323158442e-01
      -2.0684895682086083e+01 -2.2947093793359774e-01
      1.0182056043300494e+00 3.5868574691715693e-01
      1.9927512612947743e-01 -1.3783992175489290e-01
      1.4882349986750454e-01 -2.1278334850832362e-01
      1.8991277383440341e-01 4.8330865924262500e-02
      3.7448566737350270e-01 3.9010564775713180e-01
      -1.7594500158152750e-02 1.3628303426732003e-02
      -1.5092720946899169e-01 4.1512356549292961e-01
      -1.3542077281936667e+01 8.8882206339475162e-02
      3.6039765192054518e-01 3.7360891199833546e-01
      -1.1145156649761881e-01 2.6647264435402659e-02
      3.3524795996888068e-01 -3.8157952875747070e-01
      3.8065502483088332e-01 -4.2156765016266043e-02
      3.2168174238116964e-01 6.8127432254535070e-01
      -8.9486324828210381e-02 -4.0774230149314938e-01
      -3.2879811124392602e-02 3.4961403874141744e-01
      1.4310132336494946e-03 7.3849311792952227e-03
      -5.3618245286801980e-03 -4.0297971372703460e-03
      -7.2939069648114323e-03 7.2041168300215532e-03
      -4.0512114879711096e-03 -1.8187052896064986e-03
      -1.3427804296422025e-03 2.9650396267027110e-03
      3.1593110178595651e-03 8.0617221376800136e-03
      -1.6647965709024695e-03 5.4535308088918839e-03
      6.0539141570308029e-03 -1.1395981751910354e-03
      -1.8138418062040923e+01 4.4562252575648199e-02
      5.1571563298513236e-02 3.5376479797850302e-02
      -1.2094258235900572e-01 -2.1058372955172308e-01
      1.8778908853297205e-01 -3.1928038436515011e-01
      -4.0913957782957161e-01 4.1795288704554928e-01
      2.1671358723373814e-02 1.0988323427884641e-01
      3.8391439700002383e-01 -1.4622082336609063e-01
      -3.3429890856075972e-01 5.4483966902229536e-02
      -1.2976860226541332e+01 2.9370909470240525e-01
      1.7230700972209839e-01 1.1423286232353093e-02
      -4.7793594388045840e-01 -1.7205382689987622e-01
      8.3019934686867380e-01 -6.8780109642561787e-02
      -6.5797940468482414e-03 -2.4923118390353022e-02
      1.3938572854355341e-01 -1.6545663199216776e-01
      4.2050907676069366e-01 -2.0767887871984031e-01
      -2.3931401670082156e-01 1.4491788490444227e-01
      -6.7399403452593285e+00 1.0036287818590915e-01
      1.0223902684545387e-01 2.3729461834418850e-02
      -8.7125706483672127e-02 -3.4003720086640593e-01
      2.5743033061734077e-01 -4.7282934315558819e-03
      -3.1735818797751364e-02 5.6554467685265911e-02
      -1.9376292308426724e-01 9.5208754790585784e-02
      7.9863438614674334e-02 -4.1956790419491297e-02
      -1.2870345470968217e-01 -1.6485249545015682e-01
      7.2294550205539716e+00 4.7490866045920527e-01
      -2.5826575402565882e-01 2.4264622337021413e-01
      -8.4418467500407379e-02 -4.3819178470092202e-01
      2.6652995753042813e-01 -1.6858202161638425e-01
      -2.1673536425840276e-01 -1.2571447020741855e-01
      -3.5811133846901949e-01 2.8568957731413967e-02
      4.0264086360753204e-01 -1.9888628753759338e-01
      -6.5005227818615112e-03 1.7975854858380866e-01
      5.1732220185715994e+00 5.5895859750840715e-01
      -2.3277923144933188e-01 4.0800818297471980e-02
      1.3322896769591969e-01 1.0617196311393785e-01
      -1.0757966009906278e-01 -9.6167201003264158e-01
      -1.5687757167714500e-01 4.4578165570311390e-01
      -1.1427404989531280e-01 2.0150426539978653e-01
      2.9228537151913714e-01 -2.1163844771407844e-01
      -2.7035208327737587e-01 2.0193960232534811e-01
      -3.5238005267967361e+00 5.3168435254452785e-02
      -3.8510927458066740e-01 -2.5518103520081947e-01
      -1.8069885005510408e-01 4.3327785185648940e-03
      9.5768902473850420e-02 -2.5168535581190149e-01
      4.6325890546443155e-01 -1.3814456068337932e-01
      -3.3428193684517515e-01 1.7101176226863696e-01
      3.5172754864758610e-01 -3.6872810362422759e-01
      -1.7878984622175811e-01 7.4351284974611506e-02
      -3.4475800907879730e+00 5.7716405412190211e-02
      -1.8661928001698946e-01 1.5299734711199550e-01
      3.3091027020555808e-01 1.8517897854255616e-01
      6.8061700841532208e-02 -1.1938058297699880e-01
      3.4567339338837551e-02 1.6523515358291863e-01
      1.8440651606897526e-01 -2.5679086907567866e-01
      5.8384680143473942e-02 -3.8721597084978066e-01
      4.3084777105164259e-03 1.9344131201278547e-01
      1.1678691091090341e+01 2.4853968387733574e-01
      -2.9298402655288208e-01 -2.0948367500779133e-01
      -5.3378632723829400e-01 3.1082647320957241e-01
      -5.0302852649093857e-02 3.1827532021197458e-01
      1.9268307175825655e-01 -1.4693908527706212e-01
      2.6856849030641733e-01 -4.9945346606425595e-01
      -3.2154720973936729e-01 -9.6186336954884460e-02
      -7.6290963742942156e-02 7.4342184040429415e-01
      -2.1867504077998554e+01 -1.3259158418874319e-02
      3.5556927568890762e-01 4.3561866590238063e-01
      -1.8104007629948532e-01 -1.2790878839167655e-01
      7.6607130788204480e-03 2.0740408693593257e-01
      -5.3829758832067871e-02 2.5904805451213059e-02
      -8.9015270511381958e-02 2.4286017157609952e-01
      -1.2566383487497085e-01 1.9330074034649997e-01
      -2.8462674214177280e-01 6.2393486537796095e-01
      -1.4787595845481464e+01 -1.9142872785914360e-02
      1.9516519578030819e-01 -1.1124994464150445e-01
      -4.3390745115999013e-01 8.8774567649798075e-03
      4.6297104849696409e-02 5.3961236121979084e-01
      -9.6041939099788504e-02 8.5737318537112597e-02
      5.8708520472177683e-01 -9.8507274543949822e-02
      2.7814111005125736e-01 7.3994316146963723e-02
      -6.3780079762498132e-01 2.2839917139925489e-01
      1.5627121417126240e+01 1.5669883562290474e-01
      -7.4709206942775580e-02 5.8529443956650429e-01
      1.5129280121654951e-01 -1.9847903752154161e-01
      -2.9933078410916863e-01 1.9842323296538000e-01
      2.2904989005111884e-03 3.3627016808778970e-02
      2.9024290130793240e-01 -4.7877305175905639e-02
      -7.3195883592382951e-02 -4.2781273517712343e-01
      -5.4705068618246894e-02 -2.2214476573349595e-01
      2.8502602067593088e+01 5.7053543225841497e-01
      1.2332904494322369e-01 -5.6162053128820344e-01
      -5.9790461934924488e-01 -6.9571514374265564e-01
      -7.9343966008727299e-02 3.2075733956579128e-01
      3.7877395748788324e-02 9.5938868037477740e-02
      2.4626200994731624e-02 -3.2905995932379245e-01
      -2.6273813043291799e-01 -3.9111269928554548e-01
      -1.7943122153335914e-01 -8.0747294382932933e-02
      1.2764283001905396e+01 4.1595109542145781e-01
      9.6870655518142390e-02 -2.2837413952780466e-01
      -3.1367210817083553e-02 -1.3651374749499343e-01
      -2.0812415816856497e-01 3.1558094529737409e-02
      4.1189102812100886e-01 -8.1399087199033378e-03
      -1.8667464824363997e-01 -2.4376860657761926e-01
      -1.3927384381807656e-01 -2.5058087142761043e-01
      1.7075542284808001e-01 2.7729554302012203e-02
      -7.9769719883619148e+00 2.2131060690495677e-01
      3.5630782737400774e-01 1.0345813711521165e-02
      9.0938972475264349e-02 -1.7843060677489631e-01
      2.4081686027257632e-01 -3.4409743109672841e-01
      -1.2680766158038584e-01 -1.2774955758448328e-01
      3.7267618657835379e-02 1.2541665563296503e-01
      1.4717185791212201e-01 5.7132544031051502e-02
      7.0196277670240781e-02 4.7780125907732990e-01
      8.2506480946251148e+00 4.5526863632723757e-01
      -3.2881471304358145e-01 2.5405112309200001e-01
      9.3453297647556638e-02 5.1860802259298044e-01
      2.7649869792012799e-01 -3.7507361262434707e-01
      -1.1972765924600628e-01 -1.0427590369131377e-02
      -1.0167203528113754e-02 2.8374501519972301e-01
      6.7092276999407396e-01 7.6431434859053557e-02
      3.0493786441330711e-01 4.5268622051532270e-01
      2.8925117331426413e-05 2.5180011177758986e-03
      -6.1666465927380076e-03 -4.7201666989998455e-03
      -1.2709465510827760e-03 5.2373455737269679e-03
      -6.1481621363207945e-03 2.8227435388327154e-03
      -4.5037637453648532e-03 2.1349955775925239e-03
      3.2559796146671861e-03 -5.5495882101539050e-03
      -1.6575190888429088e-03 2.1765155723874213e-03
      7.7674913225769526e-03 2.1301081453009752e-03
      -1.8613358693760954e+01 1.5153820353057201e-01
      -7.7871702953675849e-03 1.1345653869405607e-01
      -4.4691953675604565e-03 -1.5934021009986235e-01
      2.5359583846052018e-02 -2.0323566301805690e-01
      -3.5318254627281331e-01 4.8140107372217483e-01
      4.7454356979137587e-02 1.6732627542846407e-01
      4.0815768085325513e-02 -2.0662677229455981e-01
      -3.2167859144429778e-01 2.4260600114584696e-02
      -5.7811165955332928e+00 6.0128590517382674e-01
      -1.0547461759002286e-01 -2.3120979653899779e-01
      -5.4282359131397262e-01 9.7665769461490345e-02
      4.0682558887258946e-01 -6.8523036588125405e-02
      2.4449444621278185e-01 1.2539430168015436e-01
      1.0348780256707769e-01 -5.8437088902957435e-01
      2.0900353420636933e-01 -4.1048180408813056e-01
      -6.7661200190873893e-03 2.0547477280977641e-01
      4.9640381077486517e-01 1.9008241817779728e-01
      3.0037182467142132e-01 -5.8917699524608194e-02
      -1.5592286563220445e-01 -5.6009172703380916e-01
      -9.6974182487558430e-02 4.7970667880424805e-01
      1.6162157109966463e-01 3.1584743504557089e-02
      -1.9797365645586404e-01 1.6076125507327028e-02
      -2.4779062345410313e-01 -1.6990033496197524e-01
      1.0980120057140040e-01 -8.9254554841304096e-02
      -3.0964159421756459e+00 4.2667398219170927e-01
      1.5629756335724700e-02 2.6055727673914836e-01
      -1.1171773832543835e-01 -5.7719887696364669e-01
      -7.0448651155999215e-02 -4.9681219303307912e-02
      -5.2601049962716882e-02 -1.4561487861036592e-02
      -2.5035445587865912e-01 4.2266078644602595e-01
      1.2727502408875757e-01 -3.3966517869991775e-02
      1.0274629338616219e-01 2.2716462773652585e-01
      4.5801292640203481e+00 7.3422803901495928e-02
      1.5567958843876337e-01 -6.4847077228863292e-02
      6.0468255794337608e-02 -2.2490952392661359e-01
      -2.5000195402508463e-01 -1.4773206497358592e-02
      2.0997202541009188e-01 2.0412433963367382e-01
      9.7049945592454195e-02 3.7215253151929251e-01
      -1.7561387249108634e-01 -5.9989735371432806e-01
      -6.6360831205365234e-02 2.1354439894661550e-01
      -1.1075744401299753e+01 -1.4895062499577202e-01
      -2.1485187265862229e-01 1.4438141324822898e-01
      4.3257092567926997e-01 -2.7572369153313347e-01
      4.2086237164343182e-01 2.0529220789677372e-01
      1.1943221261202981e-01 -3.3221792646194892e-01
      -3.3269079396027346e-01 -6.6718400860420990e-01
      1.7039298446936829e-01 -1.5047140067325651e-01
      5.5146096224127394e-01 1.6569253363016284e-01
      -5.2993577163978047e+00 -2.0165421153881680e-01
      -2.3728591869479296e-01 3.5549081148930117e-01
      1.8145429945269989e-01 -1.1648079860371092e-01
      1.7919634468811108e-01 1.7584160019587530e-01
      2.7399038173426743e-01 5.1714049780640689e-02
      -1.9444015497342373e-01 -1.1906429859642527e-01
      4.9514060675500148e-02 -1.8682848993593265e-01
      4.2396329377560638e-01 2.1377323702784304e-01
      -1.0858562522373610e+01 -5.9596283947826227e-02
      2.5030585790223908e-02 -8.7541527511990028e-02
      -3.3130812082289740e-02 -1.9818270942909971e-01
      4.7154555914418367e-01 -2.1771855681050603e-01
      -1.5051203770771771e-01 -1.7240967757471640e-01
      -5.7827082679289710e-01 -1.4109617586257120e-01
      -4.2924168892184755e-01 3.5372787121509414e-01
      5.4862160370716928e-01 2.1964213947091804e-01
      -3.5723474375289342e+01 -2.3780810335331845e-01
      7.7578715966386380e-01 -2.3726043411851605e-01
      2.2519252721965522e-02 -3.9510089107484558e-01
      4.6907888157101962e-01 3.2925398213525772e-03
      -2.3585763565451415e-01 -9.2762697384968215e-02
      -5.5273806692228933e-01 1.9768071650171123e-01
      5.8279865860350562e-02 3.6855031761827521e-02
      1.6548307760055039e-01 4.5634793059969170e-01
      -3.3474795931712748e+01 -7.4527388694904800e-02
      9.6742509539099977e-02 -2.8587093160838578e-01
      8.7214011864854252e-02 3.7710044579334462e-01
      5.2672187411236526e-02 3.6110942411944258e-01
      -4.8655961853550901e-02 -8.6436587657091668e-02
      -1.7303787792836289e-01 5.5493167934511783e-02
      -7.9768391898991486e-02 -3.1946907161736211e-02
      1.9177151176053056e-01 1.2225983031049835e-01
      -6.4075897438581295e+00 1.6855745612078626e-01
      8.1163318574942730e-02 -1.2714164844855363e-01
      3.9212491693175078e-01 3.7746758591421842e-01
      -6.2570920954224740e-01 1.3398546899718969e-01
      -1.5589512058840352e-01 3.4297012826076118e-01
      -2.0165085423277437e-01 5.7323605893835214e-02
      -4.4527345660909945e-01 -2.8469261973086823e-01
      2.2481629739091480e-01 -3.5245297566677519e-01
      1.6860210886279031e+01 5.1080995883992519e-01
      2.2003124116622785e-01 -7.8550241722650316e-01
      -5.2427462962739695e-02 -4.8483242631360596e-01
      -1.4502733817252209e-01 5.6731176816297635e-01
      3.4912470165533338e-02 -1.7311970077001301e-01
      -1.6018438294667064e-02 -1.2627394757824345e-01
      -4.6890308501181416e-01 -2.2379566186454058e-01
      3.8426562655259522e-01 1.4448516046823615e-03
      5.9023032725030200e+00 6.3408223705367450e-01
      -5.4743630624963194e-02 -1.1678554509289657e-01
      3.2307047082365503e-01 -4.0156987818336731e-01
      -1.1381936408056191e-01 4.2413308155858198e-01
      2.8542247620035011e-01 6.7491164435859979e-02
      -1.3406703328057165e-01 -3.8937117762533707e-01
      2.1949185225956946e-01 -2.5094903583878730e-01
      4.1189848990918876e-01 2.9606596298963483e-01
      8.7591906552481387e+00 7.8360451194177383e-01
      -3.0413334237633277e-01 4.1471968656534502e-01
      2.8560322416753481e-01 2.3622724270316686e-01
      -6.2072379009826290e-02 -1.2402516699867666e-01
      1.6218669900253568e-01 6.0345894070249449e-02
      3.5359235969633351e-01 4.1535368254972871e-01
      1.7436683003764145e-01 9.3003015223713473e-02
      2.7230839754230896e-01 1.5836896850470883e-01
      1.1843821529039568e+01 6.4187599698383846e-01
      2.2901690017872989e-01 6.9152886421350401e-01
      -1.8240908046650689e-01 1.7934042814286300e-01
      -1.5602225258603655e-01 2.9449552173031257e-01
      2.3574008974754956e-01 -1.0811530469591614e-02
      3.5933056344950509e-01 8.2392482035326287e-01
      3.2421376894032300e-01 1.7668362008002503e-01
      4.3505687115863606e-01 3.8960669138952531e-01
      4.5263234119182379e-03 -4.4360076233922567e-03
      -1.5946440801850043e-03 -3.2058933878490086e-03
      -1.6321350941793634e-03 2.5138858505004621e-03
      -4.3426038018619627e-03 6.5555512722810941e-03
      3.0715425912392104e-03 -5.8565888414883480e-03
      -1.5072877173289427e-03 2.9872808773095628e-03
      -7.8177141052294622e-03 -8.1850399763654675e-03
      -3.8212935231190922e-03 5.8465146634098747e-04
      -1.6496238389183414e+01 1.3702581242348116e-01
      -2.9804872119814335e-01 1.8122057089549920e-02
      4.9770589959394991e-02 -2.0242056426992883e-01
      -1.3644375868013073e-01 1.2044981739504181e-01
      -2.3645709193259606e-01 2.5343487208062532e-01
      -2.2689764354027189e-01 2.9104095388861473e-01
      2.3245214552508947e-01 -2.8555376108921821e-01
      -8.9009264133955310e-02 -1.6272419693862420e-03
      -1.4319774216486172e+01 6.6296845215651867e-01
      -5.1272024185742504e-01 -3.4699800108646900e-02
      -4.5299065087065804e-01 2.3152116713396731e-01
      2.3932978300040253e-01 -7.8116835221121159e-02
      2.7445581429866256e-01 -2.7203910816873467e-01
      -1.2784157000387658e-01 -1.8457405760915249e-01
      4.5773929708043670e-01 -1.2461953367742634e-01
      1.0446633452293068e-01 1.3177011515913642e-01
      -1.0356435494453390e+01 3.6219655627851249e-01
      1.6274053088767640e-01 -9.3892008636670674e-02
      -1.2812668000314331e-01 2.1004029839877747e-01
      -8.2513438251022553e-01 3.7814493780078257e-01
      2.0914563952672249e-01 4.7498137520305583e-01
      -1.3778215697923213e-01 2.3045197542756415e-01
      6.1164320392066825e-02 1.4482803828944257e-01
      3.2538243414897727e-01 -1.6073842363836646e-01
      -1.9250714539734467e+01 7.3065313069985804e-01
      2.4186565019037687e-01 7.9809225489571603e-02
      -9.1686802874191453e-02 -3.9349446987146314e-01
      2.6827259775428783e-02 -4.3437340960066968e-02
      -2.0675522775360225e-01 -1.0609303549945015e-01
      2.1754626296958526e-01 4.8382429882897676e-02
      -5.9470430212856373e-01 -4.5860732140350363e-01
      3.0454419953714307e-01 6.0553620338789460e-01
      3.9322279660877257e-01 4.5721865855889177e-01
      -9.7717725267366398e-02 -2.7370358771788261e-01
      2.7668757760062707e-01 -2.0493987642990133e-01
      -3.0890480573440166e-01 1.6576645220056055e-01
      2.2665223242539309e-01 2.4825116702442315e-01
      2.3215387144200789e-01 3.7276571180105450e-01
      -3.8961550088112118e-01 -5.7340712699448515e-01
      4.4828406374988639e-01 4.8471418122002635e-01
      -5.0694020388564160e+00 8.0014251329807398e-02
      -4.0039812797461788e-01 -4.8158231240050442e-01
      -6.5882494425765409e-02 6.7769640912763340e-01
      -2.8865845959403769e-01 9.9089416280515777e-02
      1.6828644504757607e-02 -4.0529926263470989e-02
      3.5613890651457913e-01 -9.8981663238109599e-02
      1.3568216526713936e-01 -1.4440012652617906e-01
      5.7119997002804868e-01 3.9832720846215491e-01
      -7.1600695066625599e+00 -1.2937568459026144e-01
      -1.9597657272944094e-01 -6.2419260398343013e-01
      4.0023914121948784e-01 3.8643230525778277e-01
      -3.3458906390051377e-02 3.3444105927674367e-01
      -1.0102658765736847e-01 5.2529465881743211e-02
      -2.8569343916087363e-02 -3.9539886761942722e-01
      -6.3660300074075138e-02 3.9611414707341674e-01
      6.6827285920397506e-01 4.7443549705745042e-01
      -2.3203390207277661e+01 -2.6019402522848439e-01
      3.8101851328159192e-01 -7.6980018146301155e-01
      -2.3858698408805171e-01 -1.0874984158534363e-01
      7.3939366243491578e-01 2.9250313466823580e-01
      -2.7752677944293724e-01 -2.9022810083408529e-01
      -5.3450376149783685e-01 5.8527397111659440e-01
      -5.4449414572517996e-01 2.6864264522996012e-01
      6.0617692773313192e-01 3.6503878195667999e-01
      -2.0237564167856974e+01 4.2497511435863111e-02
      2.7191241232011620e-01 -5.2937021869107530e-02
      5.9613414340470749e-01 3.0939965421590809e-01
      1.2718974370644462e-01 3.4217923486841345e-01
      5.0181696701825074e-01 2.7328522570751562e-01
      -5.8277050097028527e-01 6.2357932282731421e-01
      2.9565516192652114e-01 -6.2209868836779807e-02
      4.5675781750697442e-01 5.4631789929480357e-01
      -3.6729001430177270e+01 7.1636765498737320e-02
      2.8057104875661726e-01 -2.7631197714659339e-01
      2.0933985039128161e-01 5.4275759445955962e-01
      5.3565180149588484e-02 3.0210075248518015e-01
      2.2518845970277052e-01 4.4794115597149919e-01
      -2.2470299595300228e-01 7.0780190777255347e-01
      -1.3540681656166431e-01 -9.2695611147707802e-02
      1.7261472176539852e-01 2.9731156884378568e-01
      -2.6143988565024451e+01 6.8519770271655109e-02
      3.8572251695710053e-01 5.3922043629696992e-02
      6.1159891363886931e-01 5.2524724043237847e-01
      -1.1899375912506688e-01 1.7438692900814831e-01
      3.0100282874449263e-01 6.8986171111505423e-01
      6.2741014145575133e-02 4.3536405007469081e-01
      -1.8475876732035448e-01 -3.0334176811498592e-01
      5.7394285634336323e-02 -5.6327675758041955e-03
      -7.1687597387902748e+00 5.4769680465984638e-01
      1.0920203198760492e-02 -1.5667719522867951e-01
      8.2540891655162563e-01 -1.3360076131188189e-01
      5.4681558351619619e-01 2.6725427896285237e-01
      1.5046793762230953e-01 6.2990603362921160e-01
      3.0273810295317927e-01 1.6492390065279857e-02
      9.2833922061998489e-02 -5.0316365411335240e-01
      2.5822843419736435e-01 5.5719032046125036e-02
      -1.1629668775648934e+00 6.9824819132936577e-01
      5.2424988676510631e-02 -2.4354463618608260e-01
      6.0130086588293341e-01 2.4804888066896813e-01
      1.0378933613567023e-02 1.8309328184524956e-01
      1.6518560890213665e-01 5.1260779829017611e-01
      6.3635296939071578e-02 -5.3858072375487476e-01
      1.0318932901474089e-01 -4.3390042316276184e-01
      5.0812066792658406e-01 1.1708418836569962e-01
      2.3052275558412942e+00 3.4845550485194793e-01
      2.5539315592175227e-01 3.8788314452917322e-01
      1.5032616736302382e-01 -1.5861434957909214e-02
      -1.8746896465823691e-02 -4.8142171896755966e-02
      4.9041425293752366e-01 1.6120254077203386e-01
      -1.4805364388771683e-01 4.3185561120458010e-01
      2.6326471290851461e-01 3.8282443563650313e-02
      4.5601166792341402e-01 2.0139650829365899e-01
      1.2555531164243771e+01 3.0995221663937733e-01
      2.4781310283393856e-01 3.5488000349440163e-01
      -2.8190139006384968e-01 1.5613233703238577e-01
      3.9466822588910672e-01 -2.6768822058509101e-01
      1.7402199332969379e-01 -1.9928641700122493e-01
      1.0847380644441250e-01 8.5900726409934580e-01
      8.1438608129489193e-02 4.1451792227341427e-01
      1.5673592014630325e-01 7.4129842592207784e-02
      1.8503915096363581e-04 -1.1614362963151144e-03
      4.0697382006076891e-03 1.9973803800330935e-03
      -4.9888625501266892e-03 4.7179321717212225e-03
      5.2062557405408265e-03 -3.0383230536035555e-03
      -1.7106154200971057e-03 -4.7291692983842193e-03
      3.6619745691653573e-03 4.7222999851136141e-03
      7.0598896480272852e-03 -7.8191994660074685e-04
      -3.3525418921112795e-03 2.8983471397415516e-03
      -1.3201340852750382e+01 1.7388532178310712e-01
      -2.1654352870629359e-01 -1.8457535502255312e-01
      2.4665815810909195e-01 1.1528729822558706e-01
      -1.0970807183000567e-01 2.1494707428039755e-01
      -1.4635278671249491e-01 2.8147350007402611e-01
      -6.6577771589350618e-02 3.2973934433708518e-01
      1.4450382600649070e-01 -3.4359746256143192e-01
      6.3635720256943487e-02 1.0077573681680881e-01
      -1.8133461947500134e+01 4.5507871691700891e-01
      -5.8685235072383664e-02 1.0826927389478252e-02
      1.4968965843646789e-01 5.0889546473390412e-01
      5.7139861995589869e-01 -1.8299277940742859e-01
      3.9285187352832646e-01 -2.5590113663496117e-01
      1.8667788462827556e-01 -4.7474944113339586e-02
      5.2748919004494543e-01 -1.1151328581695290e-01
      1.2340594250771793e-01 1.5828646248994804e-01
      -2.2938443112177410e+01 5.6436105757513511e-01
      3.5197248892342220e-01 3.6547835502697551e-02
      3.5661176239728215e-01 8.9240956825289292e-02
      -5.0827140716253305e-01 -2.0590614240977884e-01
      1.2249529135493988e-02 2.9483964212638220e-01
      2.1714268557994373e-01 1.5274702872846521e-01
      -5.2228797690217954e-01 -1.1684084827618352e-01
      8.1818333147431074e-02 1.4367722282828004e-02
      -1.5535340453905732e+01 7.7655781444343541e-01
      1.9501686405483432e-01 -2.1941725037841253e-01
      -1.8552154320417705e-01 3.5825311113492887e-02
      6.2943212139381949e-02 -6.3137393379231271e-02
      -1.6201145124569458e-01 -2.4822256037926888e-01
      5.5688502594294409e-01 9.6190026516048119e-02
      -4.8208069623847860e-01 -2.5224299429785996e-01
      3.4398576722943205e-02 4.2742546338503473e-01
      -9.9998567631085606e+00 2.9849066695217530e-01
      -5.0480241407818072e-01 -3.1919126560950101e-01
      3.2648486385412540e-01 -5.9756676932149333e-01
      -2.3615842564016970e-01 -5.3144946344980848e-01
      -4.0504653449359412e-01 -5.1336451862463273e-01
      7.3107810106178783e-02 2.2268375503625029e-01
      -2.8264344404297859e-01 -5.4466488246806877e-01
      -2.6199302113412981e-01 -3.5647440418567621e-02
      -7.3132773586981772e+00 4.5918577079545581e-01
      -3.4099363669103772e-01 -6.2766933840912853e-01
      7.9838408944700179e-02 1.0572393505666998e-01
      -4.2421122455643911e-01 -3.6802492944099853e-02
      -1.3138490473643191e-01 -5.2464261459305495e-01
      1.6874108541112465e-01 2.5335069549583444e-01
      3.4912331072297748e-01 -1.3264005410053803e-01
      2.0167292053907698e-01 3.1704167314008519e-01
      -1.1272751487387877e+01 3.9143067961627970e-01
      -2.8991265797739757e-01 -5.4126417638200286e-01
      -3.0310005531210663e-02 4.6476888644389192e-01
      -2.0454477463423870e-01 2.2270545593307345e-01
      -2.9974326780593984e-02 -1.1847081519349408e-02
      4.3692004512444482e-01 -1.8256347930313305e-01
      3.7637367722162074e-01 3.8155298264146281e-01
      4.9914543222455261e-02 5.7638238661056140e-01
