%YAML:1.0
DigitOCR: !!opencv-ml-ann-mlp
   layer_sizes: !!opencv-matrix
      rows: 1
      cols: 3
      dt: i
      data: [ 256, 16, 95 ]
   activation_function: SIGMOID_SYM
   f_param1: 5.9999999999999998e-01
   f_param2: 1.
   min_val: -9.4999999999999996e-01
   max_val: 9.4999999999999996e-01
   min_val1: -9.7999999999999998e-01
   max_val1: 9.7999999999999998e-01
   training_params:
      train_method: BACKPROP
      dw_scale: 1.0000000000000001e-01
      moment_scale: 1.0000000000000001e-01
      term_criteria: { epsilon:9.9999999747524271e-07, iterations:1000 }
   input_scale: [ 1., 0., 1., 0., 1., 0., 1., 0., 1., 0., 1., 0., 1., 0.,
       1., 0., 1., 0., 1., 0., 1., 0., 1., 0., 1., 0., 1., 0., 1., 0.,
       1., 0., 1., 0., 2.3013825197796685e+00, -1.7199806200458574e+00,
       2.1513263648747318e+00, -1.4719601443879744e+00,
       2.1513263648747318e+00, -1.4719601443879744e+00,
       2.1002490193555641e+00, -1.3706888336846841e+00,
       2.0412414523193152e+00, -1.2247448713915892e+00,
       2.0027758514399734e+00, -1.0540925533894596e+00,
       2.0001108125329825e+00, -9.8952850725315977e-01,
       2.0009979763878896e+00, -1.0320936930842799e+00,
       2.0027758514399734e+00, -9.4868329805051366e-01,
       2.0027758514399734e+00, -1.0540925533894596e+00,
       2.0054515718735582e+00, -1.0766108438479103e+00,
       2.0860236566825292e+00, -1.3394467690277292e+00,
       2.3013825197796685e+00, -1.7199806200458574e+00,
       2.3344976391192045e+00, -1.7693034738587656e+00,
       2.1933462085631481e+00, -1.5468862734076938e+00, 1., 0.,
       2.1714640241918484e+00, -1.5085960589122316e+00,
       2.0860236566825292e+00, -1.3394467690277292e+00,
       2.1328129615679519e+00, -1.4368424162141991e+00,
       2.1328129615679519e+00, -1.4368424162141991e+00,
       2.2171101330443488e+00, -1.5869840952317444e+00,
       2.2429127820869565e+00, -1.6290629680421054e+00,
       2.4098948748012452e+00, -1.8771812708978119e+00,
       2.3344976391192045e+00, -1.7693034738587656e+00,
       2.4098948748012452e+00, -1.8771812708978119e+00,
       2.3013825197796685e+00, -1.7199806200458574e+00,
       2.1714640241918484e+00, -1.5085960589122316e+00,
       2.2429127820869565e+00, -1.6290629680421054e+00,
       2.5000000000000004e+00, -2.0000000000000004e+00,
       2.2709343577353480e+00, -1.6733200530681511e+00,
       2.1714640241918484e+00, -1.5085960589122316e+00, 1., 0.,
       2.0860236566825292e+00, -1.3394467690277292e+00,
       2.0730699572419278e+00, -1.3093073414159544e+00,
       2.0860236566825292e+00, -1.3394467690277292e+00,
       2.1513263648747318e+00, -1.4719601443879744e+00,
       2.2429127820869565e+00, -1.6290629680421054e+00,
       2.4528894525980309e+00, -1.9364916731037087e+00,
       2.6088664228101766e+00, -2.1420166418862503e+00,
       2.8210908868533688e+00, -2.4053511772118199e+00,
       2.8210908868533688e+00, -2.4053511772118199e+00,
       2.6720837646993068e+00, -2.2220486043288972e+00,
       2.6720837646993068e+00, -2.2220486043288972e+00,
       2.3705593604032602e+00, -1.8215877190467156e+00,
       2.2429127820869565e+00, -1.6290629680421054e+00,
       2.3344976391192045e+00, -1.7693034738587656e+00,
       2.3344976391192045e+00, -1.7693034738587656e+00, 1., 0.,
       2.0860236566825292e+00, -1.3394467690277292e+00,
       2.0412414523193152e+00, -1.2247448713915892e+00,
       2.1714640241918484e+00, -1.5085960589122316e+00,
       2.3344976391192045e+00, -1.7693034738587656e+00,
       2.6088664228101766e+00, -2.1420166418862503e+00,
       2.6720837646993068e+00, -2.2220486043288972e+00,
       2.6088664228101766e+00, -2.1420166418862503e+00,
       2.7424137786507217e+00, -2.3094010767585025e+00,
       2.5517727194137034e+00, -2.0682789409984754e+00,
       2.4098948748012452e+00, -1.8771812708978119e+00,
       2.6088664228101766e+00, -2.1420166418862503e+00,
       2.4098948748012452e+00, -1.8771812708978119e+00,
       2.4098948748012452e+00, -1.8771812708978119e+00,
       2.3705593604032602e+00, -1.8215877190467156e+00,
       2.3705593604032602e+00, -1.8215877190467156e+00, 1., 0.,
       2.0328123394268363e+00, -1.1982893790305560e+00,
       2.0254068053782990e+00, -1.1726039399558574e+00,
       2.2171101330443488e+00, -1.5869840952317444e+00,
       2.6720837646993068e+00, -2.2220486043288972e+00,
       2.7424137786507217e+00, -2.3094010767585025e+00,
       2.9096784862005229e+00, -2.5115119565099251e+00,
       2.7424137786507217e+00, -2.3094010767585025e+00,
       2.6720837646993068e+00, -2.2220486043288972e+00,
       2.5517727194137034e+00, -2.0682789409984754e+00,
       2.6088664228101766e+00, -2.1420166418862503e+00,
       2.4098948748012452e+00, -1.8771812708978119e+00,
       2.3013825197796685e+00, -1.7199806200458574e+00,
       2.4098948748012452e+00, -1.8771812708978119e+00,
       2.4528894525980309e+00, -1.9364916731037087e+00,
       2.3013825197796685e+00, -1.7199806200458574e+00, 1., 0.,
       2.0412414523193152e+00, -1.2247448713915892e+00,
       2.0054515718735582e+00, -1.0766108438479103e+00,
       2.2171101330443488e+00, -1.5869840952317444e+00,
       2.6088664228101766e+00, -2.1420166418862503e+00,
       2.7424137786507217e+00, -2.3094010767585025e+00,
       2.8210908868533688e+00, -2.4053511772118199e+00,
       2.4528894525980309e+00, -1.9364916731037087e+00,
       2.2709343577353480e+00, -1.6733200530681511e+00,
       2.3013825197796685e+00, -1.7199806200458574e+00,
       2.4098948748012452e+00, -1.8771812708978119e+00,
       2.3013825197796685e+00, -1.7199806200458574e+00,
       2.2709343577353480e+00, -1.6733200530681511e+00,
       2.4528894525980309e+00, -1.9364916731037087e+00,
       2.6720837646993068e+00, -2.2220486043288972e+00,
       2.2429127820869565e+00, -1.6290629680421054e+00, 1., 0.,
       2.0328123394268363e+00, -1.1982893790305560e+00,
       2.0613244238630446e+00, -1.2801909579781015e+00,
       2.2429127820869565e+00, -1.6290629680421054e+00,
       2.6088664228101766e+00, -2.1420166418862503e+00,
       2.5517727194137034e+00, -2.0682789409984754e+00,
       2.6720837646993068e+00, -2.2220486043288972e+00,
       2.4098948748012452e+00, -1.8771812708978119e+00,
       2.2171101330443488e+00, -1.5869840952317444e+00,
       2.3013825197796685e+00, -1.7199806200458574e+00,
       2.3344976391192045e+00, -1.7693034738587656e+00,
       2.3344976391192045e+00, -1.7693034738587656e+00,
       2.4098948748012452e+00, -1.8771812708978119e+00,
       2.5000000000000004e+00, -2.0000000000000004e+00,
       2.7424137786507217e+00, -2.3094010767585025e+00,
       2.2429127820869565e+00, -1.6290629680421054e+00, 1., 0.,
       2.0412414523193152e+00, -1.2247448713915892e+00,
       2.0412414523193152e+00, -1.2247448713915892e+00,
       2.1513263648747318e+00, -1.4719601443879744e+00,
       2.3013825197796685e+00, -1.7199806200458574e+00,
       2.3705593604032602e+00, -1.8215877190467156e+00,
       2.3344976391192045e+00, -1.7693034738587656e+00,
       2.2171101330443488e+00, -1.5869840952317444e+00,
       2.1158181651400261e+00, -1.4031215200402276e+00,
       2.1328129615679519e+00, -1.4368424162141991e+00,
       2.2429127820869565e+00, -1.6290629680421054e+00,
       2.3344976391192045e+00, -1.7693034738587656e+00,
       2.1714640241918484e+00, -1.5085960589122316e+00,
       2.3013825197796685e+00, -1.7199806200458574e+00,
       2.9096784862005229e+00, -2.5115119565099251e+00,
       2.2709343577353480e+00, -1.6733200530681511e+00, 1., 0.,
       2.0254068053782990e+00, -1.1726039399558574e+00,
       2.0328123394268363e+00, -1.1982893790305560e+00,
       2.2429127820869565e+00, -1.6290629680421054e+00,
       2.6088664228101766e+00, -2.1420166418862503e+00,
       2.4098948748012452e+00, -1.8771812708978119e+00,
       2.2709343577353480e+00, -1.6733200530681511e+00,
       2.2709343577353480e+00, -1.6733200530681511e+00,
       2.1328129615679519e+00, -1.4368424162141991e+00,
       2.3344976391192045e+00, -1.7693034738587656e+00,
       2.3013825197796685e+00, -1.7199806200458574e+00,
       2.3705593604032602e+00, -1.8215877190467156e+00,
       2.2429127820869565e+00, -1.6290629680421054e+00,
       2.3705593604032602e+00, -1.8215877190467156e+00,
       2.7424137786507217e+00, -2.3094010767585025e+00,
       2.1933462085631481e+00, -1.5468862734076938e+00, 1., 0.,
       2.0189929247005711e+00, -1.1476380835140088e+00,
       2.1328129615679519e+00, -1.4368424162141991e+00,
       2.3705593604032602e+00, -1.8215877190467156e+00,
       2.6088664228101766e+00, -2.1420166418862503e+00,
       2.6088664228101766e+00, -2.1420166418862503e+00,
       2.4098948748012452e+00, -1.8771812708978119e+00,
       2.3013825197796685e+00, -1.7199806200458574e+00,
       2.2171101330443488e+00, -1.5869840952317444e+00,
       2.1714640241918484e+00, -1.5085960589122316e+00,
       2.3013825197796685e+00, -1.7199806200458574e+00,
       2.4098948748012452e+00, -1.8771812708978119e+00,
       2.3013825197796685e+00, -1.7199806200458574e+00,
       2.3705593604032602e+00, -1.8215877190467156e+00,
       2.5000000000000004e+00, -2.0000000000000004e+00,
       2.2171101330443488e+00, -1.5869840952317444e+00, 1., 0.,
       2.0412414523193152e+00, -1.2247448713915892e+00,
       2.1002490193555641e+00, -1.3706888336846841e+00,
       2.2709343577353480e+00, -1.6733200530681511e+00,
       2.4098948748012452e+00, -1.8771812708978119e+00,
       2.5517727194137034e+00, -2.0682789409984754e+00,
       2.3705593604032602e+00, -1.8215877190467156e+00,
       2.3705593604032602e+00, -1.8215877190467156e+00,
       2.4098948748012452e+00, -1.8771812708978119e+00,
       2.2429127820869565e+00, -1.6290629680421054e+00,
       2.2429127820869565e+00, -1.6290629680421054e+00,
       2.4528894525980309e+00, -1.9364916731037087e+00,
       2.5000000000000004e+00, -2.0000000000000004e+00,
       2.3705593604032602e+00, -1.8215877190467156e+00,
       2.3344976391192045e+00, -1.7693034738587656e+00,
       2.2709343577353480e+00, -1.6733200530681511e+00, 1., 0.,
       2.0730699572419278e+00, -1.3093073414159544e+00,
       2.1513263648747318e+00, -1.4719601443879744e+00,
       2.3013825197796685e+00, -1.7199806200458574e+00,
       2.3344976391192045e+00, -1.7693034738587656e+00,
       2.4528894525980309e+00, -1.9364916731037087e+00,
       2.7424137786507217e+00, -2.3094010767585025e+00,
       2.7424137786507217e+00, -2.3094010767585025e+00,
       2.7424137786507217e+00, -2.3094010767585025e+00,
       2.6088664228101766e+00, -2.1420166418862503e+00,
       2.4098948748012452e+00, -1.8771812708978119e+00,
       2.5517727194137034e+00, -2.0682789409984754e+00,
       2.4098948748012452e+00, -1.8771812708978119e+00,
       2.5000000000000004e+00, -2.0000000000000004e+00,
       2.1933462085631481e+00, -1.5468862734076938e+00,
       2.2429127820869565e+00, -1.6290629680421054e+00, 1., 0.,
       2.1158181651400261e+00, -1.4031215200402276e+00,
       2.1513263648747318e+00, -1.4719601443879744e+00,
       2.2429127820869565e+00, -1.6290629680421054e+00,
       2.3344976391192045e+00, -1.7693034738587656e+00,
       2.6720837646993068e+00, -2.2220486043288972e+00,
       2.7424137786507217e+00, -2.3094010767585025e+00,
       3.0101901899912704e+00, -2.6299556396765840e+00,
       3.1252705510589025e+00, -2.7633971188310293e+00,
       3.1252705510589025e+00, -2.7633971188310293e+00,
       2.6088664228101766e+00, -2.1420166418862503e+00,
       2.3344976391192045e+00, -1.7693034738587656e+00,
       2.2429127820869565e+00, -1.6290629680421054e+00,
       2.1513263648747318e+00, -1.4719601443879744e+00,
       2.0412414523193152e+00, -1.2247448713915892e+00,
       2.1933462085631481e+00, -1.5468862734076938e+00, 1., 0.,
       2.2171101330443488e+00, -1.5869840952317444e+00,
       2.1158181651400261e+00, -1.4031215200402276e+00,
       2.1513263648747318e+00, -1.4719601443879744e+00,
       2.2171101330443488e+00, -1.5869840952317444e+00,
       2.4098948748012452e+00, -1.8771812708978119e+00,
       2.5517727194137034e+00, -2.0682789409984754e+00,
       3.0101901899912704e+00, -2.6299556396765840e+00,
       3.2584731177076685e+00, -2.9154759474226508e+00,
       2.9096784862005229e+00, -2.5115119565099251e+00,
       2.5517727194137034e+00, -2.0682789409984754e+00,
       2.3013825197796685e+00, -1.7199806200458574e+00,
       2.1714640241918484e+00, -1.5085960589122316e+00,
       2.0412414523193152e+00, -1.2247448713915892e+00,
       2.0254068053782990e+00, -1.1726039399558574e+00,
       2.1002490193555641e+00, -1.3706888336846841e+00, 1., 0.,
       2.2171101330443488e+00, -1.5869840952317444e+00,
       2.1328129615679519e+00, -1.4368424162141991e+00,
       2.1328129615679519e+00, -1.4368424162141991e+00,
       2.0254068053782990e+00, -1.1726039399558574e+00,
       2.0254068053782990e+00, -1.1726039399558574e+00,
       2.0328123394268363e+00, -1.1982893790305560e+00,
       2.1002490193555641e+00, -1.3706888336846841e+00,
       2.1002490193555641e+00, -1.3706888336846841e+00,
       2.0507312359376413e+00, -1.2520253861514021e+00,
       2.0328123394268363e+00, -1.1982893790305560e+00,
       2.0507312359376413e+00, -1.2520253861514021e+00,
       2.0613244238630446e+00, -1.2801909579781015e+00,
       2.1933462085631481e+00, -1.5468862734076938e+00,
       2.2171101330443488e+00, -1.5869840952317444e+00,
       2.1513263648747318e+00, -1.4719601443879744e+00 ]
   output_scale: [ 1., 0., 1., 0., 1., 0., 1., 0., 1., 0., 1., 0., 1.,
       0., 1., 0., 1., 0., 1., 0., 1., 0., 1., 0., 1., 0., 1., 0., 1.,
       0., 1., 0., 1., 0., 1., 0., 1., 0., 1., 0., 1., 0., 1., 0., 1.,
       0., 1., 0., 1., 0., 1., 0., 1., 0., 1., 0., 1., 0., 1., 0., 1.,
       0., 1., 0., 1., 0., 5.2631578947368418e-01,
       4.9999999999999994e-01, 5.2631578947368418e-01,
       4.9999999999999994e-01, 5.2631578947368418e-01,
       4.9999999999999994e-01, 5.2631578947368418e-01,
       4.9999999999999994e-01, 5.2631578947368418e-01,
       4.9999999999999994e-01, 5.2631578947368418e-01,
       4.9999999999999994e-01, 5.2631578947368418e-01,
       4.9999999999999994e-01, 5.2631578947368418e-01,
       4.9999999999999994e-01, 5.2631578947368418e-01,
       4.9999999999999994e-01, 5.2631578947368418e-01,
       4.9999999999999994e-01, 5.2631578947368418e-01,
       4.9999999999999994e-01, 5.2631578947368418e-01,
       4.9999999999999994e-01, 5.2631578947368418e-01,
       4.9999999999999994e-01, 5.2631578947368418e-01,
       4.9999999999999994e-01, 5.2631578947368418e-01,
       4.9999999999999994e-01, 5.2631578947368418e-01,
       4.9999999999999994e-01, 5.2631578947368418e-01,
       4.9999999999999994e-01, 5.2631578947368418e-01,
       4.9999999999999994e-01, 5.2631578947368418e-01,
       4.9999999999999994e-01, 5.2631578947368418e-01,
       4.9999999999999994e-01, 5.2631578947368418e-01,
       4.9999999999999994e-01, 5.2631578947368418e-01,
       4.9999999999999994e-01, 5.2631578947368418e-01,
       4.9999999999999994e-01, 5.2631578947368418e-01,
       4.9999999999999994e-01, 5.2631578947368418e-01,
       4.9999999999999994e-01, 5.2631578947368418e-01,
       4.9999999999999994e-01, 5.2631578947368418e-01,
       4.9999999999999994e-01, 5.2631578947368418e-01,
       4.9999999999999994e-01, 5.2631578947368418e-01,
       4.9999999999999994e-01, 5.2631578947368418e-01,
       4.9999999999999994e-01, 5.2631578947368418e-01,
       4.9999999999999994e-01, 5.2631578947368418e-01,
       4.9999999999999994e-01, 5.2631578947368418e-01,
       4.9999999999999994e-01, 5.2631578947368418e-01,
       4.9999999999999994e-01, 5.2631578947368418e-01,
       4.9999999999999994e-01, 5.2631578947368418e-01,
       4.9999999999999994e-01, 5.2631578947368418e-01,
       4.9999999999999994e-01, 5.2631578947368418e-01,
       4.9999999999999994e-01, 5.2631578947368418e-01,
       4.9999999999999994e-01, 5.2631578947368418e-01,
       4.9999999999999994e-01, 5.2631578947368418e-01,
       4.9999999999999994e-01, 5.2631578947368418e-01,
       4.9999999999999994e-01, 5.2631578947368418e-01,
       4.9999999999999994e-01, 5.2631578947368418e-01,
       4.9999999999999994e-01, 5.2631578947368418e-01,
       4.9999999999999994e-01, 5.2631578947368418e-01,
       4.9999999999999994e-01, 5.2631578947368418e-01,
       4.9999999999999994e-01, 5.2631578947368418e-01,
       4.9999999999999994e-01, 5.2631578947368418e-01,
       4.9999999999999994e-01, 5.2631578947368418e-01,
       4.9999999999999994e-01, 5.2631578947368418e-01,
       4.9999999999999994e-01, 5.2631578947368418e-01,
       4.9999999999999994e-01, 5.2631578947368418e-01,
       4.9999999999999994e-01, 5.2631578947368418e-01,
       4.9999999999999994e-01, 5.2631578947368418e-01,
       4.9999999999999994e-01, 5.2631578947368418e-01,
       4.9999999999999994e-01, 5.2631578947368418e-01,
       4.9999999999999994e-01, 5.2631578947368418e-01,
       4.9999999999999994e-01, 5.2631578947368418e-01,
       4.9999999999999994e-01, 5.2631578947368418e-01,
       4.9999999999999994e-01, 5.2631578947368418e-01,
       4.9999999999999994e-01, 5.2631578947368418e-01,
       4.9999999999999994e-01 ]
   inv_output_scale: [ 1., 0., 1., 0., 1., 0., 1., 0., 1., 0., 1., 0.,
       1., 0., 1., 0., 1., 0., 1., 0., 1., 0., 1., 0., 1., 0., 1., 0.,
       1., 0., 1., 0., 1., 0., 1., 0., 1., 0., 1., 0., 1., 0., 1., 0.,
       1., 0., 1., 0., 1., 0., 1., 0., 1., 0., 1., 0., 1., 0., 1., 0.,
       1., 0., 1., 0., 1., 0., 1.8999999999999999e+00,
       -9.4999999999999996e-01, 1.8999999999999999e+00,
       -9.4999999999999996e-01, 1.8999999999999999e+00,
       -9.4999999999999996e-01, 1.8999999999999999e+00,
       -9.4999999999999996e-01, 1.8999999999999999e+00,
       -9.4999999999999996e-01, 1.8999999999999999e+00,
       -9.4999999999999996e-01, 1.8999999999999999e+00,
       -9.4999999999999996e-01, 1.8999999999999999e+00,
       -9.4999999999999996e-01, 1.8999999999999999e+00,
       -9.4999999999999996e-01, 1.8999999999999999e+00,
       -9.4999999999999996e-01, 1.8999999999999999e+00,
       -9.4999999999999996e-01, 1.8999999999999999e+00,
       -9.4999999999999996e-01, 1.8999999999999999e+00,
       -9.4999999999999996e-01, 1.8999999999999999e+00,
       -9.4999999999999996e-01, 1.8999999999999999e+00,
       -9.4999999999999996e-01, 1.8999999999999999e+00,
       -9.4999999999999996e-01, 1.8999999999999999e+00,
       -9.4999999999999996e-01, 1.8999999999999999e+00,
       -9.4999999999999996e-01, 1.8999999999999999e+00,
       -9.4999999999999996e-01, 1.8999999999999999e+00,
       -9.4999999999999996e-01, 1.8999999999999999e+00,
       -9.4999999999999996e-01, 1.8999999999999999e+00,
       -9.4999999999999996e-01, 1.8999999999999999e+00,
       -9.4999999999999996e-01, 1.8999999999999999e+00,
       -9.4999999999999996e-01, 1.8999999999999999e+00,
       -9.4999999999999996e-01, 1.8999999999999999e+00,
       -9.4999999999999996e-01, 1.8999999999999999e+00,
       -9.4999999999999996e-01, 1.8999999999999999e+00,
       -9.4999999999999996e-01, 1.8999999999999999e+00,
       -9.4999999999999996e-01, 1.8999999999999999e+00,
       -9.4999999999999996e-01, 1.8999999999999999e+00,
       -9.4999999999999996e-01, 1.8999999999999999e+00,
       -9.4999999999999996e-01, 1.8999999999999999e+00,
       -9.4999999999999996e-01, 1.8999999999999999e+00,
       -9.4999999999999996e-01, 1.8999999999999999e+00,
       -9.4999999999999996e-01, 1.8999999999999999e+00,
       -9.4999999999999996e-01, 1.8999999999999999e+00,
       -9.4999999999999996e-01, 1.8999999999999999e+00,
       -9.4999999999999996e-01, 1.8999999999999999e+00,
       -9.4999999999999996e-01, 1.8999999999999999e+00,
       -9.4999999999999996e-01, 1.8999999999999999e+00,
       -9.4999999999999996e-01, 1.8999999999999999e+00,
       -9.4999999999999996e-01, 1.8999999999999999e+00,
       -9.4999999999999996e-01, 1.8999999999999999e+00,
       -9.4999999999999996e-01, 1.8999999999999999e+00,
       -9.4999999999999996e-01, 1.8999999999999999e+00,
       -9.4999999999999996e-01, 1.8999999999999999e+00,
       -9.4999999999999996e-01, 1.8999999999999999e+00,
       -9.4999999999999996e-01, 1.8999999999999999e+00,
       -9.4999999999999996e-01, 1.8999999999999999e+00,
       -9.4999999999999996e-01, 1.8999999999999999e+00,
       -9.4999999999999996e-01, 1.8999999999999999e+00,
       -9.4999999999999996e-01, 1.8999999999999999e+00,
       -9.4999999999999996e-01, 1.8999999999999999e+00,
       -9.4999999999999996e-01, 1.8999999999999999e+00,
       -9.4999999999999996e-01, 1.8999999999999999e+00,
       -9.4999999999999996e-01, 1.8999999999999999e+00,
       -9.4999999999999996e-01, 1.8999999999999999e+00,
       -9.4999999999999996e-01, 1.8999999999999999e+00,
       -9.4999999999999996e-01, 1.8999999999999999e+00,
       -9.4999999999999996e-01, 1.8999999999999999e+00,
       -9.4999999999999996e-01, 1.8999999999999999e+00,
       -9.4999999999999996e-01 ]
   weights:
      - [ -7.0663511885764698e-03, -3.1319616385449660e-03,
          -8.2230975538369637e-04, -6.5059386202973336e-03,
          -7.6566506050802204e-03, -2.5135917027173738e-03,
          7.3853611719644219e-03, 7.9154135231619127e-03,
          -6.6065326771522596e-03, 5.6815807848128097e-03,
          -2.8859582044450205e-03, -1.4997155772638029e-04,
          -3.8116735313184925e-03, 1.6491189986482799e-03,
          2.4628472888740698e-03, -7.0593483148477399e-03,
          6.0334746755879316e-03, -5.7407652723476363e-04,
          -2.2347291697526179e-04, 1.3823718927301846e-03,
          -1.3648459855269699e-03, -5.8032754119277516e-03,
          5.8545022955124922e-03, 8.3835706630365631e-03,
          5.0982784479872492e-03, 3.4279400634000794e-03,
          -2.4291674705546099e-03, -5.1657657548539182e-03,
          7.9366060063911399e-03, -7.8096636126078062e-03,
          7.6695606802876888e-03, 2.0798036161872414e-04,
          6.5761592357520869e-03, 3.6757756851955965e-03,
          1.9119944212550929e-03, -6.4081608281463503e-04,
          1.2250403993621840e-04, -1.6654981125980119e-03,
          -6.1148443659441686e-03, 6.8960908474606361e-03,
          -2.2653977211049255e-03, 7.7156064109148124e-04,
          -1.8683093333959810e-03, -3.6364007152303005e-03,
          -3.9721893392303496e-03, -4.7602745329191334e-03,
          -7.2724527103833862e-03, -3.1526555145707388e-03,
          -3.4133715570219443e-03, -3.5940501525300885e-03,
          -7.5906433590468508e-04, 7.9085484991208658e-04,
          -2.0789666146742770e-03, -7.1497073140653639e-03,
          1.1549039706394046e-04, 3.8643447492024896e-03,
          -7.3740426880745721e-03, -2.2764388234244931e-03,
          6.4188169205616199e-03, 6.4922773781486533e-03,
          4.5586038905325570e-03, 4.1551643999768687e-03,
          -6.0825806808190112e-03, -3.8154384463217838e-03,
          4.6304113684944009e-03, 5.2245084383409886e-03,
          6.9520611864595642e-04, -1.1749247869383686e-03,
          -4.1667928654633918e-03, 2.8556613457868018e-03,
          -3.8576507461284783e-05, -6.7054288557298735e-03,
          -6.3238538962317650e-03, 6.6980239044530281e-03,
          7.1855964787870394e-03, 4.6400732479922610e-03,
          3.7017509521545793e-03, -4.7458397991462283e-03,
          -1.8314513107522577e-03, 3.3768407503564513e-03,
          7.1976839157452729e-03, 3.9630923013030620e-03,
          5.4821963212349500e-03, 4.5682925188415355e-03,
          -7.0983421454512956e-03, 7.8220940405086276e-03,
          -4.4153955852730522e-03, 6.0759083072142695e-04,
          1.5264434768113178e-04, -1.3462991450072211e-03,
          -1.5081754747336964e-03, -5.3628847173237881e-03,
          4.3375985210977474e-05, 2.1838057855325080e-03,
          -3.7359448471307689e-03, -3.8767601640108521e-03,
          1.2914101705729509e-03, 5.0569653860899665e-03,
          4.5583308353638842e-03, -4.7300376068200103e-03,
          3.8307401341391759e-03, 9.6493059990812163e-05,
          -2.4088011259102400e-03, -3.2084264953350650e-03,
          5.6845368971683813e-04, 6.3362240264974124e-03,
          6.2697531126484462e-04, 4.6551249113117605e-03,
          -5.2554289070576533e-03, 5.5191164762478078e-03,
          2.5971352173348207e-03, -5.7410137196124925e-03,
          2.4585156130597762e-03, 2.7527830951445220e-03,
          -5.9089750013710477e-03, -6.3785893862011722e-03,
          -7.2747484030453126e-03, -5.4511013710105763e-03,
          -4.2514176556096017e-03, -1.6759874095471710e-03,
          -3.8100180541290221e-03, 8.0335507785109089e-03,
          4.4775607667893310e-03, -4.9652075045945295e-03,
          6.6441744338137558e-03, 3.8373968710878692e-03,
          -1.0230843994065712e-03, -5.8698092701555803e-03,
          -1.4193274756726609e-03, 2.2890070356473588e-03,
          -1.2661027447330255e-03, 6.7178368998838103e-03,
          4.7055059760036447e-03, -9.7100364135747756e-04,
          -5.8918481440939428e-04, 7.6093570394148878e-03,
          -6.9045486745644719e-03, -5.1390507896230796e-03,
          -6.6680513899340333e-03, 1.8160020812462735e-03,
          5.2114083899875525e-03, 4.7573131229552137e-03,
          -7.1671963101514486e-03, -5.7120579800816395e-03,
          2.2522510372015156e-03, 7.7490468049950132e-03,
          -2.7634025320132892e-03, 6.7945714913456663e-04,
          -6.9199219606441995e-03, 3.8961318634565464e-04,
          -5.3044165343767548e-03, 3.4716385560945098e-03,
          -3.3327156398291198e-03, -5.4701229994282780e-03,
          5.6815234906614168e-03, 2.7914587924716462e-03,
          -5.6773640904295266e-03, -5.5501202520746497e-03,
          -6.5386443029974402e-03, -2.7404267245458016e-03,
          1.8696698775298858e-03, 4.8955639675588988e-03,
          5.4397030759231763e-03, -1.5516529861300400e-03,
          3.1905527595689370e-03, 1.5050554423592889e-03,
          -3.8279735161005930e-03, -6.2687360903281543e-03,
          4.6179695187763001e-03, 5.7257871716729974e-03,
          7.0308260387036883e-03, -6.8895623032408588e-03,
          6.2118940859057841e-03, 5.3810088762167325e-03,
          -4.7241892752347033e-03, 1.5857247167428393e-03,
          -6.7469584794369467e-03, 5.7334724747696618e-03,
          -3.2707859668475920e-03, -2.2074299542697070e-03,
          3.6811385920037152e-03, -4.2018474138057335e-03,
          2.0163351657966413e-03, -1.7032160759407184e-03,
          -3.9444871613013716e-03, 4.8861732440380022e-03,
          -4.7473500074408344e-03, 2.5025379685277745e-03,
          6.9875899968952458e-04, 8.3519478126546176e-04,
          -4.7372103465174956e-03, 2.8807146763283596e-03,
          2.3918527541416288e-03, -5.4363865842363499e-03,
          -3.0035654448148088e-03, 1.5501265928924298e-03,
          1.1160323414520824e-03, -4.2392822904412228e-03,
          -7.4310452993310043e-03, -5.2245170606474555e-03,
          -5.7056115976433144e-03, -4.4818412295281052e-03,
          -1.3036430775199275e-03, 5.4394407101232998e-03,
          -1.8147328713489588e-03, 9.5472125516615801e-04,
          9.0883264828248503e-04, -6.7554372448223824e-03,
          5.7451431532205615e-04, -4.8198256564624502e-03,
          7.4257130328678677e-03, 6.1862260539440163e-03,
          7.3422157726406216e-03, 3.4339514428832043e-05,
          4.9694542186913436e-03, -7.5676889203338460e-03,
          -2.2193916727457669e-03, -1.5872760296088606e-03,
          -6.2988818743796591e-03, -5.9959983864545305e-03,
          -2.1476909646161313e-04, -7.1120191248292535e-03,
          -5.8309125742124776e-03, 7.1973707106733785e-03,
          -2.3148316747271486e-03, 2.6366774545244014e-05,
          -2.6344329869345210e-03, 2.4500796986380441e-03,
          -3.0329498743487042e-03, -3.2157842342024285e-03,
          8.3155495862699623e-04, 6.0959934044081815e-03,
          3.3604014176543216e-03, 7.7152566982886164e-03,
          -2.6923832041618589e-03, 6.3539837448357067e-03,
          1.1217189572627199e-03, 4.9071815334038637e-03,
          -1.5564285777422257e-03, 5.1740978133156543e-03,
          3.9822913004381186e-03, -9.3203112704490221e-04,
          -1.9798973212153716e-03, -3.5510147590843491e-03,
          3.9935831914774591e-03, -1.4184941144052908e-03,
          -4.8482320023704607e-03, 4.9843871857319080e-03,
          -7.4785644783740427e-03, 1.0463205532810348e-04,
          5.3070600947835453e-03, 5.8613401145660620e-03,
          2.5971048761594096e-03, -5.5117518039371552e-03,
          6.4068018314137644e-03, 2.2036867986016150e-04,
          -7.1207925751457012e-04, 5.5094327644836264e-03,
          -5.4058990587612524e-03, 7.3275113961233469e-03,
          -5.1578474074434714e-03, -7.7035505769233086e-03,
          1.3846086695131299e-03, -1.6584114797159875e-03,
          -2.9440576290539031e-03, -1.0098550047458025e-04,
          -4.0903245217602524e-03, 7.6178394817020172e-03,
          -2.1721718483859826e-03, 5.1998289599335000e-03,
          -2.6141611941939654e-03, 5.6292816904612158e-03,
          -2.0450443419293045e+01, -4.6835511768969240e-01,
          1.8565390524498665e-01, -3.5598113103362322e-01,
          -2.2116140846784527e-01, 1.3681373175016245e-01,
          5.3057466707213652e-01, -3.1559822933757486e-01,
          1.7698908460968148e-02, 1.4358088656289131e-01,
          5.5637485607232173e-01, 4.2478225871525294e-01,
          4.2171059655558724e-01, 1.9926100879312708e-01,
          2.6069245614918118e-01, 2.8251491413673435e-01,
          -2.6930858186815292e+00, -5.7486397206343776e-01,
          -1.7681814449919617e-01, 2.7140912468622429e-02,
          3.4412854930774721e-02, 2.5554355766262010e-02,
          1.5555819951714801e-02, -7.4683722611652639e-02,
          -2.4370823710935643e-01, 8.8534615007663173e-02,
          4.4748415966717797e-01, 2.3266619597870689e-01,
          1.9281549663849987e-01, -3.3561341623348978e-01,
          4.0921289432752100e-01, 3.5707254702269692e-01,
          3.9236481511413288e+00, -1.4217751568604881e-01,
          -7.0913146498551155e-02, -5.7995261560801051e-02,
          -3.5779498283772838e-02, -2.4925302379272033e-03,
          -6.9776317803236387e-01, -2.2745730884952040e-01,
          -3.8927215050190495e-01, 1.8638589311423137e-01,
          -1.0035060347186583e-01, -3.8878407939505460e-01,
          3.5691343206228110e-01, -2.3983906942499117e-01,
          4.9529310073004595e-01, 8.3206232988967357e-02,
          -6.5817475186512100e+00, -1.2511673378485211e-01,
          4.9625370831761523e-01, -5.0602176170819024e-01,
          -4.0858281658690931e-02, -1.7058932559634343e-01,
          -3.4486878034387219e-01, -2.2567009644543454e-01,
          -4.0745764766669468e-01, 4.6690526515398273e-01,
          -4.5845551933975437e-01, -5.7170375255786920e-01,
          2.2955033844326259e-03, -8.6019140381201153e-01,
          2.6077595570257384e-01, -4.3534776326363295e-01,
          -2.1834255692268356e+00, -4.8568091675372865e-01,
          1.5942673769833035e-01, -5.6825317721490987e-01,
          8.7532498034805103e-02, -4.5236296645012647e-01,
          4.4158097664201965e-02, 4.8911696863099173e-02,
          -8.4674885186740922e-01, 4.8412193565563588e-01,
          -5.2663599087525670e-01, -3.8025910892083924e-02,
          7.5204354475157581e-02, -5.2366137661945311e-01,
          -2.9676536027738117e-02, -3.7543377125896915e-01,
          -6.7563969216389443e+00, -2.5839173157935719e-01,
          1.2798881387468153e-01, -5.4373639973470556e-01,
          3.1914759448239943e-01, 1.1603059776384029e-02,
          7.8029527665431420e-02, 3.0831729242463390e-01,
          -4.1502883844749366e-01, 7.3451097787097228e-02,
          -2.2255750250486606e-01, 2.5595173217517436e-01,
          -1.4053044814797175e-01, -3.7058504115295143e-01,
          1.9262296367235182e-01, 5.1907638608550000e-01,
          -6.0053833449580862e+00, -1.5544319071833143e-01,
          -6.6628886643700730e-02, -5.0407991579196099e-01,
          4.6805931431044868e-02, -2.7006664516258241e-02,
          2.0831060585175301e-01, 2.3048014903808722e-01,
          -1.9567075137180087e-01, -1.7376185163115429e-01,
          6.1779533586764961e-02, -1.6727427860291383e-01,
          1.7361338532426784e-01, -9.6410421615689523e-02,
          1.3802209237991681e-01, 1.1139724346719407e-01,
          -3.4782175179131900e+00, -1.0565139618150086e-01,
          -2.8582939026460859e-02, -1.5912639986023333e-01,
          4.1646787139735207e-02, -2.8477121066053230e-02,
          8.2987447782019580e-02, 2.7558002615417054e-01,
          9.1458718370204556e-02, -2.5381450030574398e-01,
          1.0808408928657100e-01, -8.2086544361396938e-02,
          1.7933018528219852e-01, 6.4165387399472071e-03,
          3.7033163971008393e-01, 3.7455781151455086e-01,
          7.7568286283650725e+00, 1.5348451296965393e-01,
          1.3572602894144478e-01, 3.0713932148579037e-01,
          -8.1049769124824800e-03, -5.6847765884569815e-02,
          -7.7907952811873044e-02, 2.5408406057658584e-01,
          3.7376786311460164e-01, -2.6517900032284287e-02,
          1.6122419380802354e-02, 2.1898550378941467e-01,
          2.8585711172159339e-01, -4.7643546963308490e-02,
          2.7145370719357315e-01, 1.8777450497353612e-01,
          4.4146284086742291e+00, 1.4458679254831530e-01,
          1.7488886694934100e-01, 2.1361257035142692e-01,
          2.5057784489735481e-02, -4.9599258695582377e-02,
          2.2656410404861889e-02, 2.7235572047938783e-01,
          2.9945080807285562e-01, 6.0705744855369038e-02,
          6.5164216018186311e-02, 1.3225703405946018e-01,
          3.5206190446717212e-01, -3.7836541576239655e-02,
          3.7612936391832219e-01, 2.4846222331465853e-01,
          -5.8109067251202828e-01, 3.3713114113510928e-01,
          3.3079297345419936e-02, -1.2839519840395888e-01,
          2.5771035993339725e-01, -1.6126954080255735e-02,
          -2.6567028487392459e-02, 4.2267697774194257e-02,
          3.0434785769844186e-01, 7.7015207921046361e-03,
          1.6214552482925266e-02, -9.1553201726147851e-02,
          2.7837070707840328e-01, 2.5027692458333917e-01,
          3.6530994030540798e-01, 3.8481445458950836e-01,
          1.3489327645514154e-01, 2.9184842152706374e-02,
          3.6582509086759973e-01, -1.8957940140831087e-01,
          2.8648287226317115e-01, -1.9197781293805855e-01,
          -2.1468492243986556e-01, -3.1372411260398547e-01,
          2.9623632513210940e-01, 1.1508638673002383e-01,
          -1.5775097856230123e-02, -1.7125305098695245e-01,
          -9.2838643636847962e-02, -5.3274164986893399e-02,
          2.7148489750372284e-01, -1.4727526443858449e-01,
          6.5788975534922978e+00, -1.9622376609176972e-01,
          8.6665438400237560e-01, -3.3386922703520733e-01,
          2.4116197883969057e-01, -5.2606783077115256e-02,
          -1.6884018147139235e-01, -4.2967676520468295e-01,
          1.6134175073322560e-01, 3.1246123416401383e-01,
          1.3903461303049716e-01, 1.6582086541230795e-01,
          1.7282690759827821e-01, 1.1981114287816223e-01,
          -2.5556824245424514e-01, 4.2952589369634853e-01,
          4.0297444172632435e+00, -4.1311479001072515e-01,
          -2.1581485124808199e-02, 1.2514158136859208e-01,
          3.0330883797972642e-02, 1.0286767906764552e-01,
          4.2031148648683536e-01, 4.0405278027376396e-02,
          -1.9678600801567017e-01, -7.3852007329987146e-02,
          -3.8010958681065185e-03, -1.6480988451027348e-01,
          2.8931635463054112e-01, 2.1955246396593651e-02,
          -5.8928478788716532e-01, 3.8067691957638351e-02,
          4.0817106816908986e+00, -2.3323323464250087e-01,
          -1.0651765842872638e-01, 2.6337850297560034e-01,
          1.9829928412285907e-02, -2.5111761469352034e-01,
          -3.8135039619330139e-03, 2.1620308473542216e-01,
          -3.2730962223235760e-01, 1.3142200494669395e-01,
          -1.0969769138844412e-01, -1.8388974632302743e-01,
          1.9258836304666971e-01, -1.6137021962476752e-01,
          -5.9433606798626148e-01, -1.6480446371245705e-01,
          -3.7947561518664004e-03, -7.1117149963679984e-03,
          6.0096983203772195e-03, -3.0776459605025481e-03,
          -2.0451504599961622e-03, 5.3301272960771815e-03,
          -7.7206258751642536e-03, 1.9199545241896246e-03,
          6.5001278116193703e-03, -6.7104642712043907e-03,
          3.0458337283512820e-03, 6.0515092876426528e-03,
          -1.6630724002886848e-03, 6.9763608246975108e-03,
          -8.5100316917760283e-04, -9.7333759772730299e-04,
          -5.8818191822797283e+00, 8.4830076298214707e-02,
          9.0336173189816071e-02, 6.9074626866672140e-01,
          -5.7829225273658325e-01, 2.1722273581010199e-01,
          -4.8798890173333093e-01, -2.6403588611647194e-01,
          6.5383916620859839e-01, -3.6205403843921465e-02,
          -1.1527486321893339e-01, -8.9933558175053524e-02,
          5.3564673043335587e-01, 7.4169803993343442e-02,
          3.3506532960711544e-01, 6.4675028774382592e-01,
          -9.2621162681799802e+00, -1.1207096389359660e-01,
          -8.3825034244432695e-01, 3.1984915260074014e-02,
          3.6573898470222216e-01, -4.1668134328311429e-01,
          -2.0856536285497621e-02, -7.2007337204040470e-02,
          -8.0485251633953037e-01, 5.3146591668608256e-01,
          1.8954507217956301e-01, -2.7779168310000607e-01,
          -3.5137224089293900e-01, -4.2972607730747164e-01,
          6.1175412543208581e-02, 7.6572484797798698e-02,
          -1.7982265221233629e+01, -2.4862801457666195e-01,
          -3.0998365077648332e-01, -2.2481127288137434e-01,
          4.7347619518759276e-01, 5.0184041857340295e-02,
          -8.3763619015770618e-02, -6.8479112392596325e-02,
          -8.8654771759215656e-01, -1.2247662819196317e-01,
          1.9726639297341164e-01, -1.3101302655995092e-01,
          -1.0924798861746787e-01, -7.9677800386175646e-01,
          -3.6431654719755413e-01, -2.0928836627405237e-01,
          -2.9042240040829581e+00, -4.5738585471601290e-01,
          1.0355628545988628e-01, -3.1758499528040690e-02,
          5.2481889975576790e-01, 5.0466335352046277e-01,
          -2.5775319074308667e-01, 2.6475415443161765e-01,
          1.0759305066539009e-01, -3.9133617432424361e-01,
          -2.6443489791923436e-01, 5.5973358045901433e-01,
          2.2159467144522210e-01, 9.6766666097540463e-02,
          -9.0808755699482324e-01, -3.7926622996637882e-01,
          -5.8564456204126918e+00, -5.8168956590253972e-02,
          -7.4643044434040240e-02, 1.6580647687133021e-02,
          2.9301946988589839e-01, 1.1191826251746921e-01,
          1.7592703680943073e-01, 3.8401178120680779e-01,
          -4.3269476217500225e-01, 2.4721163635865179e-01,
          5.1685605485548659e-02, 4.5689694764538119e-01,
          1.6686061475613853e-01, 2.2413406179171066e-01,
          -5.6078594505861767e-01, -2.9450035984172906e-01,
          -4.6508197134484908e+00, 4.3621861959931107e-01,
          9.4440535084679117e-02, 8.9559699129757087e-01,
          1.9429169356841672e-01, 2.3629772101297114e-01,
          -7.8978521107973765e-02, 8.1312940757734348e-02,
          2.3230020933719553e-01, -3.5713874986445510e-01,
          2.1792833159019234e-01, -2.4332048435772438e-01,
          1.1181067121941388e-01, 5.9051889773916580e-02,
          2.6306655587209438e-01, 5.8287586031096583e-01,
          -6.2823372759980733e+00, 9.1626238602144111e-02,
          -2.8044850803412114e-01, -1.3285844445703585e-01,
          -1.4627198128383216e-02, -2.3588309678573807e-01,
          1.0580669888060726e-01, -6.1572266242648999e-01,
          2.7790265193941888e-01, -3.0141835139335439e-03,
          -5.5103449377196002e-02, -4.8776855918722012e-01,
          2.9644120848610267e-01, 1.5834745986150089e-01,
          -4.4094329702325924e-01, 3.1931265554814875e-01,
          -7.1397781394501862e+00, 5.4118953400618519e-01,
          -1.5215939391208805e-01, -1.1365259640310295e-01,
          -1.0812426994866861e-01, 5.6554125446147699e-02,
          -2.6479504018978878e-01, -3.5667566081938751e-01,
          3.3663014995130375e-01, 1.7009280292240636e-01,
          -2.5713649361923946e-01, -2.4012963511025881e-01,
          4.8390961460656606e-01, -1.4991917163164176e-01,
          -1.7206436237999165e-01, 2.5987600287983009e-01,
          5.8770871028247722e+00, 2.2411687949131640e-01,
          -2.3226624944117774e-01, 1.3257212479534192e-01,
          -4.0519344596307483e-01, 1.6729630843428833e-01,
          2.6168384385418025e-01, -1.9243725536517078e-01,
          8.1274633355652848e-01, -3.3267946547046545e-01,
          -3.7774727054513052e-01, 8.2048687274101334e-02,
          3.1210995076015902e-01, -2.8254937354851262e-01,
          6.9530563412663782e-02, -4.8677178812368396e-02,
          7.0868018580437049e+00, 1.7127993250378801e-01,
          -5.3387585705547669e-01, 1.1845366488446275e-01,
          9.6230574068851493e-02, -9.9152765920540439e-02,
          5.8601676735185915e-01, 9.3670971985506696e-02,
          6.7998670266599126e-01, -1.3268482152855927e-02,
          -2.1680476189378742e-01, -6.9625581228274125e-01,
          4.3262907379742671e-01, -3.7366930052677100e-01,
          4.2977242301623529e-03, 6.0131795137130850e-02,
          3.3976821764042238e+00, 5.2500899114019528e-01,
          4.2767064608873286e-02, 2.7371854234938225e-01,
          -6.1197401479578521e-02, -7.1776642623876938e-02,
          6.5188942878387746e-01, -3.0641341370626901e-01,
          3.2996921315904265e-01, 5.1858628152450001e-02,
          2.7759270705191696e-01, -3.3758301639408300e-01,
          2.8003391656789028e-01, 7.6091989889920345e-02,
          1.4109317356049081e-01, 2.9650677160706079e-01,
          9.7894586971249637e+00, 4.1278633709196227e-01,
          1.9004213434565964e-01, 4.1641949451582899e-01,
          7.2491431154633051e-02, 4.2805802178383084e-01,
          2.5875188113781661e-01, -8.5902856423056111e-03,
          2.5391142380975051e-01, -2.0150343081936525e-01,
          1.3632926991546915e-01, 2.1651587349099097e-02,
          -4.3167017892132048e-01, -3.0528379454502402e-01,
          9.5074772558893780e-02, -4.5852529712333018e-01,
          6.2130953734557048e-01, 1.5598532570695595e-01,
          2.3506774497945832e-01, -3.6755251631065622e-01,
          6.6183907426317246e-01, -4.2428917819533341e-02,
          2.7194539173852889e-01, -3.6247896330432067e-01,
          -5.4178755648327015e-01, 1.7739231932528007e-01,
          9.4499860159313775e-02, 1.9383002837933236e-01,
          2.9866312873731526e-01, -4.1001591516695557e-01,
          -8.0163220179608830e-01, -4.4674527758840032e-01,
          9.4216805471266181e+00, 3.6867302480722397e-01,
          -1.1510277564182271e-01, -1.5461218797236906e-01,
          3.3962148170253482e-02, -1.0422264910318463e-01,
          2.4914284393043126e-01, -2.2942045791660010e-01,
          -2.2701522010557507e-01, -9.2609945087875817e-02,
          7.1885376729470277e-02, 1.9921311375300307e-01,
          -1.5841603977293880e-01, -3.8156850704417195e-01,
          -7.3898578014360361e-01, -1.3515387430806186e-01,
          8.9742536737628562e+00, -2.5818462494334321e-01,
          2.9380422294418107e-01, 1.4164803394510220e-01,
          -7.3312804730150671e-02, 7.7969492118043313e-02,
          -2.6620594827543748e-01, -5.7817866108896013e-02,
          -3.0716322430757453e-01, -4.5937414761507933e-01,
          -9.2936804479022209e-02, -1.2587397463852787e-01,
          1.2784414134180169e-01, 1.7965880933652145e-02,
          -5.6812557162641546e-02, -1.4715551751811548e-01,
          -1.5902912190037938e-03, -2.1655303283695474e-03,
          3.3844920706563248e-03, 5.7699423300306156e-04,
          6.5559443797017060e-03, -3.3671073312597625e-03,
          -1.5141800229612349e-03, 6.0544057229788163e-03,
          8.0059910944831872e-04, 1.4712431459477924e-03,
          -1.4677182488146013e-03, 3.9474851272604996e-03,
          7.4610531766021214e-03, -2.4772628106072003e-03,
          2.4798035108042644e-03, 4.4162253092610605e-03,
          7.4395022202418897e+00, 1.1866315276052398e-02,
          -1.7301009436387082e-02, 4.3051214384499054e-01,
          -6.0327954520522764e-01, 5.2339962595822839e-02,
          2.7936774894678018e-01, -1.9568008302783460e-01,
          3.0034724128758566e-01, 2.0636875063394414e-01,
          -2.7965465034779903e-02, -1.0148572372883895e-01,
          6.6612618233142878e-02, 7.1514551822302666e-02,
          1.0591452332585949e-01, 1.1956967965578116e-01,
          -5.1893777678887254e+00, -5.7852415677315749e-01,
          -7.4691760602936685e-01, 2.1505252209473363e-01,
          2.9569529789859150e-01, -7.2833246947528824e-02,
          -4.7173458702986676e-01, -7.2691377510819572e-03,
          -5.3453704357046827e-01, 6.0537143866447096e-01,
          -6.2253876798836283e-03, -3.0410323232642517e-01,
          2.9116455828793332e-02, -6.1674015665283721e-01,
          1.7295953225013354e-02, -1.0203373061086787e-01,
          1.3814832749919732e+00, -7.6887501638638792e-02,
          -7.0513362880393712e-02, -1.1937676879450427e-02,
          9.0080476253014852e-01, -3.3600652412691689e-01,
          6.0017145401863592e-01, 6.6906361112456858e-01,
          -6.8593752843618883e-01, 3.0820919703170618e-01,
          4.0565827031035284e-01, -3.6626956805486124e-02,
          3.8326470631305745e-02, -6.1085358852561078e-01,
          -3.5379609946844498e-01, -2.7557388004472536e-02,
          5.2598490231135608e+00, -3.1051011211956314e-01,
          -2.4139614550166710e-01, 6.5147440431867154e-01,
          3.7292481144204387e-01, 4.7800679527841250e-01,
          1.3712879351532647e-01, 2.6993284598960310e-01,
          1.4787060066311428e-01, -7.1850181879556363e-01,
          2.8086236341548820e-01, 3.6307956628435534e-01,
          1.4709479616647750e-01, 1.9900008098048691e-02,
          -1.8917197426271065e-01, -4.3642226543336948e-01,
          -5.1614261849709200e+00, 1.8607062816372766e-01,
          -1.8483204172601428e-01, 2.0994082926408081e-01,
          -1.1411767659097979e-01, 4.5729116300442552e-01,
          -5.6762436969615582e-01, -3.5327809253169995e-01,
          4.8101316981209180e-01, 5.1011554019640817e-02,
          1.7407866760081994e-01, -7.2223153799571047e-02,
          -4.3859542611405185e-02, 1.6413592136621796e-01,
          -5.6844937903274473e-01, -6.1026476857284562e-01,
          -1.6492703763152468e+00, 1.1970501138693179e-01,
          -1.5582935443603366e-01, 2.4206868592840389e-01,
          -1.3629111481546696e-01, 1.2593068521001805e-01,
          -9.1791711382114075e-02, -3.5137966405204946e-01,
          3.1222166288235431e-01, -3.9344233343043927e-01,
          2.3185530844959185e-01, -3.1249531117139090e-01,
          -3.6341224722391937e-04, 4.7716652633795119e-02,
          -2.8076504986495004e-01, -1.8329049154647259e-01,
          -6.5967177566472293e+00, 5.3163055209408894e-01,
          3.5396612770055685e-01, -4.9991541184032665e-02,
          -3.6226234547427510e-01, 2.1085424580562309e-01,
          -1.6028082333834470e-01, -2.2838790231050174e-01,
          2.4453619219826573e-02, 1.1952879510549970e-01,
          2.9572023893023808e-01, 2.9743476899520371e-01,
          8.9850475190826076e-02, -1.5989651430424998e-01,
          -3.7678275820049884e-01, 7.8050901533117778e-02,
          -2.0607588103289407e+00, 3.3064867627445504e-01,
          6.0894189154074063e-01, 5.1458030912361752e-01,
          -1.3576519840845755e-02, -4.2051297401261324e-02,
          -7.9040457017947111e-02, -2.6545817460119686e-01,
          -5.5888295671905652e-01, 1.4248112392111756e-01,
          2.7277875036466004e-01, 4.3458466852276550e-01,
          2.1951148528093087e-01, 2.2723762670710013e-02,
          -1.4675538792432630e-01, 2.8259904966140409e-01,
          -5.0716571561296258e+00, 3.7839093551090308e-01,
          -3.2787883004641499e-01, 3.8239804660459076e-01,
          -3.2024323699388196e-01, -1.9678756024711655e-01,
          3.2029890715031956e-01, -3.8593633204131304e-02,
          -1.9786893966177177e-01, -1.6868740133221097e-01,
          3.8357179339953024e-01, -3.1677011321935067e-01,
          -2.0930986675078012e-01, 2.4245950773871837e-02,
          -1.3944715034904021e-01, -1.3972887575091597e-01,
          1.1195639407298394e+00, 7.1313687443803842e-02,
          -2.7165618845323503e-01, 2.7872377585962425e-02,
          1.3992195356839740e-01, 8.0429754344728491e-03,
          4.1459677603714035e-01, 4.8844252281218559e-01,
          -3.3391184787880987e-02, 5.7537177803572634e-03,
          5.7991819717158466e-01, -5.0875699558497833e-01,
          -9.8794229676884920e-02, 3.2103378563033652e-01,
          -1.6502627987320748e-01, 2.8494697665970076e-01,
          -9.4882305261636173e+00, 3.9711024774667619e-01,
          2.1588315047577405e-01, 1.1316486759395043e-01,
          3.4895112007138690e-01, -1.6001752166572072e-01,
          -1.2956716733247459e-01, -6.6630982640362479e-01,
          -1.8840586110203966e-01, 1.6337535114564358e-01,
          4.7132920243066667e-01, -2.9939242056702409e-01,
          9.0969706650136692e-02, 2.5751210028539068e-01,
          5.8730265793860137e-01, 4.7914486274185403e-01,
          1.7134680779711517e+00, -6.8965442361938592e-02,
          4.5834333991452403e-01, 1.9046343695885767e-01,
          -1.9809930090060060e-01, 2.6476617947848152e-01,
          1.2531250741333044e-01, 3.5602506158119335e-01,
          1.2664650737702091e-01, -1.4673058206911557e-01,
          4.0782843045247968e-01, -3.0652342269793059e-01,
          2.1986616109365843e-02, -9.6228006587931958e-02,
          3.4434629515159931e-01, 3.6983244516856645e-01,
          1.3605628224307766e+01, -1.9693029444995933e-01,
          -7.3896324281665079e-02, -2.4730828177108607e-01,
          1.5108697599510024e-01, 6.3626368065181249e-01,
          2.2851068365417385e-01, 1.4633919946186388e-01,
          -1.2134967966409327e-01, -3.2852485730130504e-01,
          -6.9356719551804405e-02, 1.1134037242360541e-02,
          2.4523060128384713e-01, -3.5770610682434140e-01,
          -1.9823066109349857e-01, 2.0943994702296473e-01,
          1.0402530275431850e+01, 4.9232595007780516e-01,
          -4.1966437810500989e-01, -2.3255938315352331e-01,
          -1.8941970681919054e-01, 4.2600076640618090e-01,
          4.2987149469095598e-01, -9.8369586062594883e-02,
          -4.7424439125881784e-01, 1.8673529782389184e-01,
          2.6144280104426587e-01, 2.7369631057926062e-02,
          8.9668499448718655e-03, 1.3570912397692278e-01,
          -5.8802901730497181e-01, 3.9161109987383141e-01,
          -3.6963828855591738e+00, -8.5288149921395939e-02,
          -1.9065118282917981e-01, 5.7411387316354666e-02,
          -2.1766720799315983e-01, -1.0255766159763940e-01,
          -2.1407086858740307e-01, -1.1861889360665639e-01,
          1.0998208237977233e-01, -3.2438107353314011e-01,
          1.4660317442100565e-01, -5.1688031731391493e-01,
          3.3031744683334691e-01, 1.3273965687291245e-01,
          1.3766412234677852e-01, 6.6553160936026590e-01,
          1.0882821909033518e-03, -3.6424948579796590e-04,
          1.2878605139618232e-03, 2.8050099642187203e-03,
          -4.1541473631401607e-03, 4.6913953339737429e-03,
          -5.9815184388310278e-03, -2.8337904540531242e-03,
          -2.7638377629383526e-03, -3.8677973794467701e-03,
          -1.8527496876348346e-03, -7.8110797673310907e-04,
          -5.1458270278457894e-03, -7.0371189899961382e-03,
          -3.6929486687712976e-03, 2.1718830321692482e-04,
          8.9609923308452260e+00, -1.3605711001108381e-01,
          -8.2226100618284226e-02, 3.1208173704462472e-01,
          -2.3064265819496571e-01, -3.1134428764018685e-01,
          -1.9841573287589134e-01, 1.6514747111645880e-02,
          5.7469818434069264e-01, -1.6317327451371866e-01,
          -2.7202211782096969e-01, -1.5219375997319767e-01,
          2.8175244829917812e-01, -1.0689311947129938e-01,
          8.0697397367680584e-02, 2.7166213459732434e-02,
          7.6964355962084587e+00, -6.0864614973406794e-01,
          -6.5753587744300468e-01, 6.1360898385324839e-03,
          3.2729414999356804e-01, -6.5803177922279785e-02,
          -5.5990208575788381e-01, 3.3323934566848276e-02,
          8.3282983829132254e-02, 3.3719619269036127e-01,
          9.2583066922912113e-02, 1.6000098100011950e-01,
          -8.5685828234973108e-05, 1.0699735276887892e-01,
          -1.7686013456781335e-01, 1.9026407568772932e-01,
          5.6084146342738688e+00, 2.0607811552503075e-01,
          -4.8630839989813150e-02, 8.1683109863982403e-02,
          3.8164255168960265e-01, 7.4626931039902686e-02,
          6.3323580556855441e-02, 5.2025823211438851e-02,
          -8.2696213081979525e-02, -5.7283840904744765e-01,
          -3.2299365082918460e-02, 2.1780871988858450e-02,
          -1.5587187945799150e-01, 2.5741296126768975e-01,
          2.4926096690817859e-01, -2.3151132868843924e-01,
          -1.0570331370360387e+01, 1.2061915420035117e-02,
          -9.2037289201625391e-02, -1.6341027874005504e-01,
          -2.5764673240239899e-01, 4.6052734143649871e-01,
          2.6425338308581403e-01, 2.8369700940367809e-01,
          -6.5253120358932826e-02, -3.5190392138646864e-01,
          2.6470978210818652e-01, 4.2723389522915822e-01,
          -2.0544628127251393e-03, -3.7265388284178391e-01,
          -1.3854366651420497e-01, -5.0387637170306210e-01,
          -1.6329465394851059e+01, -2.6296672732940596e-01,
          6.2022124081195687e-02, -4.9103570342987368e-01,
          -4.7822313008894508e-02, -4.8379710429491806e-03,
          6.4483952513825507e-02, -4.7412657024320448e-01,
          5.2167673383598867e-01, -3.7402396311087460e-01,
          2.6878427020661383e-01, -3.8705459704314205e-01,
          -9.4221991588897172e-02, -3.1179315826633253e-01,
          -3.6368213819174522e-01, -1.1293135540085050e-01,
          -1.5308167227413527e+01, -2.8786979981586458e-01,
          2.1447318936584700e-01, -3.0304438498649466e-01,
          -3.5781314545640353e-01, -1.2464027193069316e-01,
          8.1748156553838519e-02, -1.4131108513410606e-01,
          1.5377149160100453e-01, -8.9269159019252767e-02,
          3.2264247306412314e-01, 2.0701943612570844e-01,
          -5.0770259316353719e-02, 1.5588275342031524e-01,
          1.7349331286446734e-01, -2.0597022599338216e-01,
          -1.5858344473483747e+01, 2.2594157348936644e-01,
          1.5659110039858570e-01, -6.8555455344358696e-02,
          -1.7279990491699981e-01, 1.1201939909024573e-01,
          -1.7060116642302975e-01, -1.3281475533836143e-01,
          3.9904577426967031e-01, -7.5541091554662834e-02,
          9.9518405286662587e-02, 1.8013995572619729e-01,
          3.6218217159137678e-01, 3.7215164945793888e-01,
          2.6852576228269698e-01, 5.1758964049290661e-03,
          -7.3796978407069496e+00, -9.3499928198258933e-02,
          3.6704376567922153e-01, 2.9679187692081471e-01,
          5.1362777787108869e-02, 2.1392625263958892e-01,
          5.6346454654411626e-02, 8.5418191587676253e-04,
          -4.4555562391922471e-01, -4.9792813132607340e-02,
          3.0215791560426436e-01, 5.2131471069496216e-01,
          3.0945893201079172e-01, 5.4829666554797540e-01,
          -2.7997379165724295e-01, 2.3726115702461602e-02,
          -1.4740589873176026e+01, 3.7859376234381759e-01,
          -1.4767712854849036e-01, 1.8252357184705645e-01,
          -1.5533178332774100e-01, -6.3107526957222604e-02,
          5.2009237947971443e-01, 2.4510462170652888e-02,
          6.4090881536561700e-02, -5.7258104202483423e-02,
          1.6425202473125988e-01, -3.7256252289785868e-01,
          1.9548583619392576e-01, -1.5200005143232928e-01,
          5.2422412772450533e-01, -3.8295970383197009e-01,
          -6.3496412348791775e+00, 1.7321019038990515e-01,
          -1.6282986981080363e-01, -1.2824295586363363e-01,
          2.3494148588285604e-01, 3.0332904858724197e-02,
          -7.3604179976456602e-02, -2.2463018553217487e-02,
          4.4423601496163967e-01, 2.5454248151199166e-01,
          7.8931037468651974e-02, -1.8859973881215375e-01,
          -3.9872955698765566e-01, -1.0063651392290551e-01,
          -7.8887887982818372e-02, -7.7038459938599835e-01,
          1.0485902196280099e+00, -1.7983165966930753e-01,
          2.6269682189080751e-01, -2.8847445037575742e-01,
          1.6052910833892237e-01, 3.2754906400423400e-01,
          4.0227903424345507e-01, -1.4174108425178655e-01,
          3.1847921989825123e-01, 1.6029031677691979e-01,
          3.2176249315040906e-01, 7.7729385686896284e-03,
          -2.0073288849509793e-01, -6.4921423747368745e-01,
          1.3569969169273338e-01, -3.9236679357382026e-01,
          -9.0625917833637999e+00, -5.5485265221033764e-01,
          -2.3014285365180892e-01, -4.4380123337168054e-01,
          1.6469348068013800e-01, 2.7009744571327016e-01,
          4.0890247295719612e-01, 1.2282161362777481e-01,
          -1.9541712547372841e-01, -2.5447356284400940e-01,
          4.8526371419735070e-01, 8.8858021091500392e-04,
          2.1090106446918325e-01, -2.6631629198882650e-01,
          1.3401886603938856e-01, 1.3361501507084801e-02,
          3.7606275877230888e+00, -4.0688830333705744e-01,
          4.8852094415085402e-02, -1.4129743494137190e-01,
          -4.7990125178781651e-02, 3.8541913133733779e-01,
          3.8667365116152264e-01, -1.9170923106406404e-02,
          -2.3716052696423318e-01, -5.6215828849144189e-01,
          1.2877519444476024e-01, 1.6857299578054311e-01,
          -8.8469444995057600e-02, -5.7067399335467595e-01,
          2.1909616848213975e-01, -2.0907645181126494e-01,
          -7.8769519667858967e+00, -2.6174068610944595e-01,
          -6.9426274404131572e-02, 6.6349568937978318e-02,
          -4.5434621389753221e-01, 3.2311645828028657e-01,
          1.1830720258003617e-01, 2.7704547467497254e-01,
          1.4710870601817888e-01, 2.3385936498787618e-01,
          -6.4184681974481031e-02, -6.5884560930429803e-01,
          1.2382047549680608e-01, 7.5497391152902826e-02,
          2.6575896208936134e-01, 1.8575302587602541e-01,
          -4.7592068783308417e+00, 1.4711236672495431e-01,
          -3.3684187249177522e-01, 5.7490301543830308e-02,
          -3.1716454487144136e-01, -2.4020643791125068e-01,
          9.0652715009470648e-03, -5.7864200132240140e-02,
          3.6064772132097189e-02, -6.7159892940284877e-02,
          8.6789123525594994e-02, -5.5705956951021129e-01,
          5.6873573275790248e-02, 8.4086098377740962e-02,
          1.1799869852001924e-01, 4.0975765061818353e-01,
          -5.8983691478462089e-03, -4.0250332209628269e-03,
          5.2269606025530102e-03, 7.3014375771528455e-03,
          4.1553179183099927e-03, 7.0019386681875028e-03,
          -3.7936640804557038e-04, 5.5247555607851944e-05,
          -7.7854630787873337e-03, -2.9454043218497014e-04,
          -4.4281894689220617e-03, 1.4175953247936763e-03,
          3.8968531603657940e-03, 3.3794342736827017e-03,
          1.4607819433765639e-03, -4.2600799050915186e-04,
          7.0269471097970166e+00, 7.6694231273841285e-02,
          -4.8583031471185617e-02, 2.6169447550720054e-01,
          1.7094788896463550e-01, -2.7876432157472203e-01,
          -3.3416943703289917e-02, -2.6142484412344524e-01,
          4.2504698204550273e-01, -3.1403965132249517e-01,
          -3.5693837496588172e-02, -1.4005553651801000e-01,
          6.1361174380711048e-01, -2.7114041293594737e-01,
          -5.0751520495101329e-02, 1.1224618586778004e-01,
          1.0985259109541497e+01, -2.5553806485644803e-01,
          -4.6269890873385749e-01, 1.8366262220754964e-02,
          1.4438704690960921e-01, -2.1036719571149143e-01,
          1.6897048706719670e-01, 5.9825885313479439e-02,
          -2.9300918908892343e-01, 5.0611009671239063e-02,
          4.0627120570384367e-02, -3.6651712392357294e-01,
          1.6372526992491254e-01, 2.7720197257684770e-01,
          -3.5852284675322565e-01, -4.1264466578908782e-01,
          9.9533821639645605e+00, 2.6053130701088201e-01,
          9.1933630801814492e-02, -9.2409935940554730e-02,
          3.0339138116384494e-02, -2.5432767703850201e-01,
          7.4253519235656235e-02, -1.9110861257469958e-01,
          -4.7244279502230452e-01, -2.1342843591450469e-01,
          6.6858753236117799e-02, -5.9750167799999081e-02,
          7.6086984655050732e-02, 2.5540510363765351e-01,
          4.1052819253227463e-01, -2.0811698825774580e-01,
          -1.6381998784940041e+01, -4.4130179865627378e-01,
          3.0839473412959734e-01, 6.1899920882971769e-02,
          -6.8059976452220405e-01, 5.0919290703343834e-01,
          1.7966117098712395e-01, 1.0443979492067570e-01,
          3.7464038834010954e-01, -2.1355042716356151e-01,
          8.7294491145822592e-02, 1.1672140721104719e-01,
          1.1230105796742437e-01, -1.7559386555633119e-01,
          -3.7417794660487369e-01, -2.9715652659309338e-01,
          -1.7001233742997279e+01, -2.6379986175936526e-01,
          -5.7113097842700106e-02, 4.2770026104996828e-01,
          -5.4050734024136904e-01, 1.0093054779238556e-01,
          4.6426268910445273e-01, 1.1949613965529447e-01,
          2.0093391628871565e-02, -3.1783881072154935e-01,
          6.5121921412290129e-01, 3.1031772172859181e-02,
          1.2122924993149670e-01, -4.1515326172617434e-01,
          1.6373884536891434e-01, 3.7407981665294798e-01,
          -1.5168016680592196e+01, 6.7454292595008946e-03,
          -9.6084370776238770e-03, 2.5754368450747006e-01,
          -5.1211491154406208e-01, 1.9441846738946197e-01,
          -4.0776809205828135e-01, -4.8179601904959263e-01,
          5.5575351283082897e-01, 1.0659409193175312e-01,
          5.6852696190922436e-01, 1.7459481728968740e-01,
          -1.5330924497916817e-01, 1.6033313676001487e-01,
          4.2257493814135405e-01, 1.8155015187145671e-01,
          -1.7432543909936474e+01, 2.6623219347423327e-01,
          7.4427138422591230e-02, 2.2689596185432465e-01,
          -2.2938889683764291e-01, -2.8843301633385904e-01,
          -6.7795394474910675e-02, -1.2470875206057536e-01,
          -2.1920933910333829e-01, 3.4209832445924759e-01,
          4.0914070779255118e-01, 3.4216419061644139e-02,
          1.1190985329261237e-01, 1.6477351503607299e-01,
          3.6365688861939111e-01, 6.5320872183785350e-01,
          -1.4068677975435561e+01, -3.5783106787220756e-02,
          -4.7853223660524041e-01, 2.0866234823651675e-01,
          -4.6843366007350250e-02, 2.6037587476327808e-02,
          -4.5721984156432133e-01, 2.2936633065857673e-01,
          -5.6029973227308474e-02, 3.0831109749532903e-02,
          2.3097511346421584e-01, 7.2660840620769662e-02,
          1.4835465660914440e-01, 2.3758804066930481e-01,
          -8.9210210187345498e-02, -1.8924919855830177e-01,
          -1.7379907190166087e+01, 2.1437629078897266e-01,
          -6.3436689078574360e-01, 8.3497012732670364e-02,
          3.2354503271006624e-01, -1.9264790184270184e-01,
          -1.1737248776911380e-01, 5.6194406353505789e-02,
          -7.9479879953119351e-02, 2.4017070343588631e-01,
          1.6532517447859579e-01, 6.4548390028707020e-02,
          -1.0938216394005190e-01, 3.9114943066883297e-02,
          1.4178956556869396e-01, -6.3729351363804210e-01,
          -1.0226324063833344e+01, -3.5836570125916789e-01,
          -5.4448188376583795e-01, -2.0681314135907541e-01,
          2.2208197169310506e-01, 1.7380917486376579e-01,
          -5.8358666158415229e-01, -8.3122424542686105e-02,
          -3.1403050633144874e-01, -1.2723776793094915e-01,
          5.0274160971762676e-02, 4.6385275345362909e-02,
          -1.7156459121484688e-01, -2.9746752335578019e-01,
          -2.7269522681518460e-01, -6.6657927183177790e-01,
          2.2218592124739653e+00, -4.2396247337525628e-01,
          -5.4195936229406005e-01, 1.9973163446332109e-01,
          2.3565783088844408e-01, 5.2257374803465773e-01,
          2.0784189692950217e-01, 3.0370797629717117e-01,
          2.6964352475414424e-02, -2.3793655101287603e-01,
          3.3842375645468625e-01, -4.5114319130469327e-01,
          2.1950806487006893e-02, -7.6095215515590120e-01,
          5.2327951501355080e-02, -3.1575950703559652e-01,
          -2.8687914670400394e+00, -4.2898603053914997e-01,
          4.6397959164227037e-02, 2.0901296407896203e-02,
          -7.3650044154575489e-02, -1.3074649303276150e-02,
          5.9029204152786319e-01, -6.7803813109404462e-02,
          -3.6949119471303471e-01, -1.8745248738926057e-01,
          4.3061503625394038e-01, -4.4263025711333170e-02,
          4.8500963610970876e-01, 2.1001136492576264e-01,
          2.1856450305454350e-01, 2.0607655359078000e-01,
          2.6820562358322793e+00, -6.5479736208246897e-01,
          6.7104115352666382e-01, -3.6103338922438488e-01,
          -5.0204599263718099e-02, -2.8158034598239545e-01,
          3.8969523116909772e-02, -2.6321180095490737e-01,
          -5.2823282582238451e-01, 1.3608418408850262e-01,
          -4.6898463415979717e-02, -5.1405183426683931e-01,
          2.3912558372895681e-01, 4.6783259713393471e-01,
          6.7876830284684053e-02, -6.0307195459809428e-02,
          -1.3450382603175539e+01, -3.7618114986412998e-01,
          5.6597411736712733e-01, -1.4819677981608955e-02,
          -5.5018203348531247e-01, 2.7035934803055506e-01,
          1.6610097674801427e-01, 2.6739964525747612e-01,
          2.3925075839711851e-01, 2.6486953643639005e-01,
          -2.3111053578072799e-01, -4.1392532147777006e-01,
          2.0937340822597761e-01, 2.0148795120518920e-01,
          2.8619057869780229e-01, 1.2456729361237577e-01,
          -5.4798539665683395e+00, 1.8814001178153678e-01,
          1.4079075493881615e-01, 2.6746104038209956e-01,
          -1.5708673131104106e-02, -1.5731050861246845e-01,
          -1.3211660314509918e-01, -4.0908273631076303e-01,
          1.8493262315082942e-01, -2.1254186779470993e-02,
          4.9230941926717273e-02, -2.2502752467678844e-01,
          3.0027418384186566e-01, 1.9679239668572107e-01,
          3.5264032462505257e-02, 7.6090855680146885e-01,
          -8.2376671355891755e-04, -2.0730970547531992e-03,
          3.7728792606329187e-03, 1.7356110034590245e-03,
          4.8884747228717376e-03, -6.8513303160012287e-03,
          -5.7266497914313054e-03, 2.8077434844500718e-03,
          -3.9367488993032667e-03, 3.0702184987954810e-03,
          -3.8916925784709734e-03, -4.0767031239196524e-03,
          7.7426520912413184e-03, -5.9246332463825336e-03,
          -4.2537887516214358e-03, 4.9294664653151479e-03,
          5.0223802908634436e+00, -1.7728444758892106e-01,
          -2.9093668050359894e-01, 2.0213348728031799e-01,
          1.4767222091824936e-01, -3.1817573241740188e-01,
          1.1503146607120547e-01, -5.6049437991949580e-01,
          2.6156205043760300e-01, -3.4488107670499474e-01,
          2.5949045262620596e-01, 1.4845186618032716e-01,
          4.9409044396464802e-01, 2.3721304197223647e-01,
          1.9288997245172665e-01, 7.6082539018960949e-02,
          8.7175293632285182e+00, -3.9356436900341803e-02,
          -1.5921715853542731e-01, 2.3703943217246021e-01,
          -3.6349269450710120e-01, 4.0284279023231823e-01,
          2.5398734348342533e-01, 2.5674246680722862e-01,
          7.9297508345343257e-02, -3.5027105957860716e-01,
          1.0792004489279425e-01, -1.2933927573239327e-02,
          -2.5533899443834648e-02, 5.1721331281828820e-01,
          1.2763877953759778e-01, -1.2386700125083755e-02,
          4.1071297346619495e+00, -4.1146267457068514e-01,
          2.9635767032427161e-03, 1.7379568495449921e-01,
          -4.6675481305947925e-01, 5.0647316368830564e-01,
          -1.3593697754597467e-01, 1.2842684811766622e-01,
          2.1795874721244557e-02, -5.5220897514019984e-01,
          -2.8094154310202926e-02, -1.6595875135363783e-03,
          3.3007359449498286e-01, 2.6262765158729701e-01,
          1.9767301888410058e-01, -2.7931354225067212e-01,
          -4.3747377655151878e+00, -3.3107615116791528e-01,
          8.0453652932860664e-02, -1.9501161075127232e-01,
          -5.2479778645982977e-01, -1.1139517674129219e-02,
          -5.7258095052611105e-02, -4.2877956549926724e-02,
          3.4606618229043290e-02, -3.8910972212740219e-01,
          1.7289637232485655e-01, 7.3727107475650228e-02,
          9.7199034608657364e-02, 4.3761023319227960e-01,
          -1.2655770351491644e-01, 5.5238081295007624e-03,
          -1.7097542137319035e+01, 3.3772952568486767e-02,
          1.4662058201548619e-01, -9.0500743887028841e-03,
          -1.8183062197735070e-01, 2.2340454845978194e-01,
          -1.3790058696203561e-01, -4.0349003774506703e-01,
          2.3852493381256898e-01, -3.7916773136951626e-01,
          9.8980066429682351e-02, -4.8372790368282509e-01,
          -2.2151744580629479e-01, -2.4268233982642615e-01,
          3.7542771041528492e-02, -2.8893519869141415e-01,
          -2.0008912952892626e+01, -2.4421600616307568e-01,
          2.7878847763792680e-01, 8.4244052262024728e-03,
          -4.4228706914297461e-01, 2.0857307836659386e-01,
          5.7846850399536798e-01, -6.1174489328380321e-02,
          -1.4840423241616740e-01, -1.4141466776303043e-02,
          5.4402474430858705e-01, -1.1523605591942546e-01,
          -5.1638636686528894e-01, -4.8825531578861409e-01,
          4.8776653332742399e-02, 7.4292715645907739e-02,
          -6.2608566496056950e+00, 6.6813977765572657e-02,
          -4.1537140755886819e-02, 1.3976447719268198e-01,
          -1.8421333146219307e-01, 1.8902262647715362e-01,
          -2.2731489945257610e-01, -4.0958217808872299e-01,
          -1.1753120996291190e-01, 1.5255663034952680e-01,
          1.6551613694113013e-01, 7.3930115944357597e-02,
          -9.0037676830483040e-02, -3.7450612594333368e-02,
          7.1240945002757058e-02, 5.8762015790364351e-02,
          -8.8423087337111053e+00, 1.4631940303083724e-01,
          -2.6314064906348467e-01, -1.1401479040701812e-01,
          4.2804601227836397e-01, -1.1196268756142504e-01,
          1.7938023872250899e-01, 5.2686102867968210e-01,
          -4.0949856309659033e-01, 6.7376177427441479e-03,
          1.1619397568615472e-01, -5.7309774596855621e-02,
          -2.7318242922782188e-01, -1.1662988506609702e-01,
          -2.6799851334584973e-01, -2.1560395841116364e-01,
          1.4499493424946949e-01, -2.7122688543852559e-02,
          1.6676877438586337e-02, 6.1074768185934478e-02,
          3.3328387682494909e-01, -4.0008710661658403e-01,
          1.3931657261892680e-01, 3.8195782879667306e-01,
          -3.3426189567554032e-01, -8.6786059568254317e-02,
          -6.6446814454167960e-02, -1.5423068511237256e-01,
          9.1569549589172017e-02, 1.7431310260530136e-01,
          1.9306548922342209e-01, -7.4560104313173683e-02,
          -3.0615064734532393e+00, 2.0332466984672135e-01,
          4.4775232691465083e-01, -2.5414078783202004e-01,
          3.0386194605432476e-01, -1.0784581649287472e-01,
          8.3139661406587163e-03, -3.7894950297600073e-02,
          -9.4917980245749545e-02, 2.8665476481185015e-01,
          -1.4227194592853123e-01, 2.5286537070617690e-02,
          -3.0909108025482333e-02, 1.3682442759257313e-01,
          3.0044569013839534e-01, -5.2166116065602020e-01,
          3.7339984040766838e+00, -3.9951896396946313e-01,
          -4.2660264615395238e-02, 1.5585102240700011e-01,
          -3.9531688526959638e-02, 2.8747964057258135e-01,
          3.5373157862725474e-01, -4.2430737164491794e-01,
          1.6899187406449835e-02, -1.8006293937900906e-02,
          1.5879135660650961e-01, 9.4097359580287518e-02,
          -6.9471663330364017e-02, -4.9344167121596831e-02,
          5.4899346421971952e-02, -1.4091353710621926e-01,
          2.6860436389136964e+00, -2.6741642805240323e-01,
          2.0422828540921442e-01, 2.5108425012468788e-01,
          -2.9741531317052244e-01, 9.4227651828339934e-02,
          6.6173008385217837e-03, -4.0265749402928336e-01,
          -9.2223504464802625e-02, 7.2000661236531899e-02,
          -3.5814780468763553e-02, -4.7840728093858204e-01,
          2.2766716990958127e-01, 3.5264511343531979e-01,
          1.1142831131630612e-01, 4.9438309178436135e-01,
          -1.0734965386141850e+00, -3.0679349865024852e-01,
          8.8431561213617693e-01, 6.1814274864956546e-02,
          -2.1664951138398061e-01, 4.1062310365515449e-02,
          -2.8299303244338680e-01, -3.7293351907409628e-01,
          9.8612481539597355e-02, 1.3184933510604660e-01,
          -2.2734905653167811e-01, -8.0095852501879361e-01,
          2.4208264858278411e-01, 6.8324026798901538e-02,
          6.6055151327569173e-01, 6.8812319641797154e-02,
          -3.0983757432673662e+00, -3.5771847586174338e-01,
          3.2272708923577020e-01, -3.3028399645342232e-01,
          -4.2238030306524760e-01, 1.8417834057767597e-02,
          7.2578086825831195e-02, -3.0428498240029311e-01,
          5.1922382394370699e-02, 3.2775028903441666e-01,
          3.2159440492912528e-02, -2.6804252412141810e-01,
          1.4791716207353561e-02, 2.3799267212608896e-01,
          1.5014135064995121e-01, -1.7124421352580632e-01,
          3.1929673556669944e+00, 2.1761356529388190e-01,
          6.9615014681249832e-01, 4.2651898073935951e-01,
          -2.3668349319375448e-01, 2.8782206583102982e-01,
          -1.5400773394614498e-01, -3.4024757119620980e-01,
          -1.6484514563164396e-01, -4.2944472754876500e-01,
          2.1190508399483482e-01, 1.4041770195176873e-01,
          2.5693037430100418e-01, -7.1275430395866327e-02,
          4.6358874479226092e-01, 5.1153525108117333e-02,
          -1.2826261203119141e-03, 3.7975799801706523e-03,
          -2.5892739483871861e-03, -6.7192739438511609e-03,
          -1.2956304247691867e-03, -6.1331746371326270e-03,
          -3.2437381614774566e-04, 3.1801954283502596e-03,
          -6.3661836387392309e-03, 2.0074071664278642e-03,
          6.7677092101662041e-03, 5.2048700295324974e-03,
          1.8495932883333332e-03, -7.3577662633318268e-03,
          -4.3041706460917517e-03, 6.5046793103540413e-03,
          1.1688404076041541e+01, 9.4925410599009472e-03,
          1.6113635260332043e-01, 5.4592350169639769e-01,
          -3.3441084046809892e-02, -2.8404679944373141e-02,
          2.0902770408377414e-01, -2.9406713779483157e-01,
          -1.4979996664034642e-01, -6.3780751401074731e-01,
          3.1379499253955173e-01, 6.1636659356426460e-01,
          4.3011429846000648e-01, 3.6874739234654369e-01,
          1.1633845002425744e-01, 2.0286630213745729e-02,
          -3.2325201516430475e+00, -1.0579831142350610e-01,
          1.5809848744145483e-01, 1.2644808611859748e-01,
          -6.3363362881564589e-01, 3.5120671868151959e-01,
          4.7517362213590833e-02, -4.4988697281819134e-01,
          4.1211849365000536e-01, -3.4435623883566169e-01,
          7.9666116743955639e-03, -1.0035757621549536e-01,
          -2.4770319786094838e-02, 8.7021111311545621e-02,
          -4.5756484557586179e-02, -1.1847909123010633e-01,
          -1.2966083330870500e+01, -5.0363441363764494e-01,
          3.6894548521427956e-03, -7.8779882776951152e-02,
          -5.7347207574240544e-01, 3.0585881853812252e-01,
          4.9236691444764841e-01, -9.2596786902811146e-02,
          2.2595285900976339e-01, -2.5082742614577785e-01,
          2.8259534961728273e-02, -5.6860613677950933e-01,
          -2.4777017713565913e-02, 4.2054157498653905e-01,
          4.9966663506100441e-02, 1.4215267871612861e-01,
          9.9018201545918636e+00, -2.6266216651194924e-01,
          -2.9465879223033536e-01, -3.2663474865686087e-01,
          -1.7558376020380267e-01, 2.8725509001032847e-02,
          -3.3443190808647320e-02, -3.5386811843207810e-01,
          5.3772638266700912e-01, -6.5282884225351323e-01,
          8.4118238703058748e-03, -3.9439511602950927e-01,
          2.8082350756493779e-01, 2.4141144789561364e-01,
          1.9553786354430794e-01, 7.9376148079160969e-01,
          -6.6128988346486450e-01, -2.5569036143839402e-01,
          -2.1724349650059796e-01, -2.8428819550281492e-01,
          4.3873989384892523e-02, -2.2928275267272513e-01,
          3.5187068467594790e-01, -2.7587171966347723e-01,
          2.2835459811313236e-01, -7.3723386297345955e-02,
          6.7058069512251156e-02, -3.0026151968107129e-01,
          -2.9292306308059665e-02, 2.0782088228027301e-01,
          4.9026968509896635e-01, 9.3582521232676474e-01,
          -1.1532563175371189e+01, -3.9055500658427866e-01,
          3.1825312392365179e-01, 3.4193207247151064e-01,
          -1.1719889819368254e-01, 3.8241201222620197e-01,
          1.2637545284252147e-01, -3.5717027747083091e-01,
          3.8643266072065163e-01, 7.9224345165565993e-02,
          -1.0765667887378493e-01, 3.4224226603370003e-02,
          -9.9905598115605315e-02, -4.6789386763679186e-01,
          5.3273531015214137e-01, 4.4842665679118082e-01,
          -1.2338492927959878e+01, -5.4139507681165366e-01,
          -4.3357974692166373e-01, -6.9362265122310446e-02,
          5.0523294812400221e-01, -2.1264501713179110e-01,
          -1.0081464771345991e-01, 3.9910220116408124e-01,
          -1.1642948485382216e-02, -3.5155588470027177e-01,
          -1.1614957483574566e-01, 6.8288750902404979e-02,
          -1.8054255312839843e-01, -3.6481933793785032e-01,
          -1.8276542432596041e-01, 3.0694707520904146e-01,
          -5.2294796479859826e+00, -3.3676244893314516e-04,
          -2.0016258174531412e-01, -4.6972436522108812e-01,
          4.7495901763101173e-01, 1.2603986143364906e-01,
          -2.2677413270318753e-01, 2.3492472047616361e-01,
          -1.1879917083127998e-02, -1.1336103499409207e-01,
          -2.5418990763754212e-01, 3.2652324506584413e-01,
          -9.8561665900964060e-02, -3.9796695778219682e-01,
          -1.6027447251298477e-01, 9.0233778045253593e-02,
          4.0400213144024892e+00, 3.8464744170626994e-02,
          -4.7103867157768854e-02, -3.3539671782197877e-01,
          4.1148464340982865e-01, -4.8376973171966826e-02,
          3.8879088072365614e-01, -9.0886507192644336e-02,
          -9.1655939178133194e-02, 3.8123546428905294e-02,
          1.4969282988893312e-01, -6.7017153852538064e-02,
          -5.2762596116685219e-02, -4.5095349191033324e-01,
          1.8415781412065776e-01, -4.0255910158023697e-02,
          -5.9164275532428210e+00, 5.4008453207385909e-01,
          2.2519883410204719e-01, -5.4450819750090040e-01,
          2.9421702713958914e-01, -1.5624680497106730e-01,
          -2.9972360263100623e-01, -4.2793213546626196e-01,
          2.4596684020509494e-02, 2.9354767265552451e-01,
          3.1795932160940932e-03, 1.4935968473223279e-01,
          -5.0465776813451446e-01, 3.2840004939578799e-01,
          -4.6498896017997263e-03, -7.7350800731388697e-02,
          1.3883322819882924e+01, 2.6012041313334350e-01,
          2.3461646776583873e-02, -2.0132962474505076e-01,
          -2.2212116346538247e-01, 8.7387291742684489e-02,
          -2.1760059487768413e-01, -5.4905520143023256e-01,
          -2.1947866912930415e-02, -2.4645769740851234e-01,
          -3.4398093195619532e-02, -1.6315438932312359e-01,
          -3.0143099168612941e-01, 4.2418014778980606e-01,
          3.7970157181624736e-01, -6.0070500842042274e-01,
          1.5603064119530677e+01, 3.9477865882844926e-01,
          2.8141223269045273e-01, 4.8313134947811215e-01,
          -1.6223860531708326e-01, 2.6215845164697610e-01,
          9.6277306463539020e-02, -9.1805196310015977e-02,
          -2.5617380972675202e-01, -3.1936450845656300e-01,
          2.2653800519269851e-01, -6.8624951569184689e-01,
          -3.1441307544003194e-01, 1.7393970505260875e-01,
          6.4612211438017320e-02, -2.8376300710371521e-01,
          1.1257311039722531e+01, 1.2520428838136766e-01,
          4.2050246308305145e-01, 5.2039874009444598e-01,
          -1.4432484474903198e-01, -1.5542890940024121e-01,
          -5.8892635222868930e-02, -1.5335885777434527e-01,
          -8.0583919743512037e-03, 1.3466239650772024e-01,
          1.1822780557665613e-01, -5.2119763621117365e-01,
          2.8258233123954207e-01, 3.3429070435715635e-01,
          6.4552219039993641e-01, 3.0015185220587753e-01,
          1.4728520059890840e+01, 4.3899288139213559e-02,
          6.5823441456675247e-01, 2.7675973206243870e-01,
          -2.9160254638985922e-01, 6.3487696053036433e-02,
          -2.0231095982577582e-01, -3.0706471509729039e-01,
          -5.5799995085736187e-01, -1.5402216539109431e-01,
          7.0646482468077393e-02, 1.1794577828037577e-01,
          3.6463692238781337e-01, 1.4872906941909822e-01,
          4.8684691997227847e-01, -4.3121637144988417e-01,
          -3.9303577028668344e+00, -3.0491498219178455e-02,
          6.3403304907636659e-01, 5.2933615552369284e-01,
          -1.0826268953287027e-01, 1.4020533164098106e-01,
          -1.3612728029174926e-02, -2.2311715142802344e-01,
          -3.2383290591692393e-01, -2.6852921287994430e-01,
          2.0860842619571632e-01, -2.9902799408053377e-02,
          1.6925594328608812e-01, -1.3027668985426724e-01,
          4.7755574329114758e-01, 1.2883130720874325e-02,
          -3.5965725342188039e-03, -2.5055748346126004e-03,
          6.5434985623568287e-03, -6.3225488002369400e-03,
          -7.0566025868102492e-03, -5.9516271529887815e-03,
          -4.4323137436746854e-03, -1.5693761914439828e-03,
          6.2679406914242081e-04, 1.2434150572720342e-04,
          7.5834126209780080e-03, -4.5792130002537332e-03,
          1.4515386701510911e-03, -1.9239194266306486e-03,
          7.4872714889851382e-03, 5.0387689638578667e-03,
          6.0100898977646784e+00, -9.2259335735285330e-02,
          -7.8086995335540210e-03, 1.1135564591446982e-01,
          8.3324311889037758e-02, -2.7320881931545249e-01,
          2.1313347476778424e-01, -5.7247320032742299e-01,
          -2.3512868097979936e-01, -3.5569068102252466e-01,
          3.1697844422121263e-01, 9.4345961031713110e-02,
          3.7435014384664977e-01, 1.0332606590117664e-01,
          1.9415452622166227e-01, 8.6289041548232845e-02,
          -3.9010183489911410e-01, 2.5176496579200675e-01,
          5.1600564244182390e-01, -3.8688213917445624e-01,
          -6.2912051055528195e-01, 4.3543164057370926e-01,
          -3.3791232504490959e-01, -1.8144122275285593e-01,
          5.6712636402454231e-01, 2.5177104963603797e-01,
          -4.4944571561285662e-01, -3.7693934107777938e-01,
          -2.1351511957567204e-01, -2.8139611329750991e-01,
          5.9313020028125063e-01, -4.0137361154377715e-01,
          4.0165844804595938e+00, 6.8337150762666915e-02,
          3.9355828805869980e-01, 1.5395242371084086e-01,
          -1.3785752092440812e-01, -1.1431349329499031e-01,
          2.8685665974357760e-01, -2.7070332719938674e-02,
          1.7041591864181585e-01, -4.7327879679337874e-02,
          1.4494868232391689e-01, -2.7960149451680355e-01,
          1.4792293588865033e-01, -1.5527793130761769e-01,
          1.7343833236889646e-02, 5.1601200227764446e-02,
          4.7619411412657993e+00, -1.0234067898325182e-01,
          6.5729105277362376e-01, 3.2741956469481726e-01,
          5.5883329062921970e-04, 1.9284831824283144e-01,
          1.7261638478755040e-01, -5.9638584136500472e-01,
          3.7134941051006620e-01, -5.9846960816142203e-01,
          2.4794579889325172e-01, -2.0060432709759782e-02,
          2.3184556435164194e-01, -2.0989684990363588e-02,
          -4.6864481842628265e-02, 2.6213463214256133e-01,
          3.4839313928234734e+00, 1.8612586308257992e-01,
          5.7544661838882283e-01, 2.5146969769104127e-01,
          -2.4702657529260394e-01, 6.5479998274430670e-02,
          -2.2065872347859511e-01, -3.5330644449963325e-02,
          4.2465382467213864e-01, -3.9080080795902666e-01,
          8.9250608242524426e-03, 2.6784761099774118e-01,
          1.2245609591809620e-01, -1.9808354859930200e-01,
          5.1460205076653365e-01, 1.2743986507006022e-01,
          8.4016471919227325e+00, -2.4291300427545942e-01,
          1.8336852385148569e-01, -2.8897050493100634e-01,
          7.5641023093330817e-01, -5.6229047727633041e-01,
          1.7919104891517759e-01, 5.8481897980532127e-01,
          -1.2573248327917161e-01, 6.8380318555525824e-03,
          -3.5496617970146749e-02, 2.1611798034642304e-01,
          -4.2201843494339703e-01, -2.1109850043186709e-01,
          -1.0338835777567312e-01, 1.7121549325826418e-02,
          1.0268292018954464e+01, -1.6620343081066952e-01,
          1.6977225983995980e-01, -4.7292573313925251e-02,
          3.6898117581322004e-01, -1.5975219793761120e-01,
          -2.2637367451651857e-01, 3.8130787514812636e-01,
          1.1988595126669263e-01, -2.8847216825589223e-01,
          1.3069191416527082e-01, 5.2247005314036610e-01,
          -1.8800720839241745e-02, -2.6376649043980355e-01,
          -2.1031349828807019e-01, -2.1554758043165662e-01,
          -8.6010306739742437e-01, -1.6140754400454177e-01,
          6.0052325433156091e-02, -1.4077812039167989e-01,
          3.0150037168116406e-01, 1.1465494018480708e-01,
          -5.0901285367511506e-01, 4.3647483438084295e-01,
          7.1309436543593518e-01, 2.2928079181948646e-01,
          -3.9216999550490295e-01, -3.4447534579964176e-02,
          -4.9369442373668815e-01, -3.2324758118827490e-01,
          8.2967818533341772e-03, -5.2387235526841602e-01,
          7.2656744425396349e+00, -3.2228799459123986e-01,
          4.9050722103597802e-02, -5.5937380241020440e-01,
          4.2500451446216242e-01, 6.9389522044958768e-02,
          -3.5926660970346991e-01, 3.6564912266171444e-02,
          4.8397575403986270e-01, 2.4886410714736512e-01,
          1.0043687757961768e-01, 1.2544447359125693e-01,
          -9.2479556666264159e-02, -1.6445834880656848e-01,
          -2.7599329630245423e-01, 7.2466731755924524e-02,
          2.1765657763484413e+01, -1.0098199689231792e-01,
          -3.9350995739725253e-01, -4.5605250899501865e-01,
          1.2947162157457183e-02, 2.1895098567486015e-01,
          -1.1946083660853167e-01, 1.7734950792715234e-01,
          2.3657243291000125e-02, -1.9353110813852208e-02,
          2.9523062940138957e-03, 4.7573170429002215e-01,
          -4.1479744785545308e-01, -1.7681851735212570e-01,
          -2.8827504967278234e-01, 2.6077636059032228e-01,
          2.0429753294221136e+01, 2.5161001015546752e-01,
          -3.3368343959693070e-01, -7.0334892728262707e-03,
          3.4297045000793017e-02, 1.4981709370168128e-01,
          -6.0867714466212941e-01, 1.5599168346967601e-01,
          1.7890501223345099e-02, 5.2575457928836622e-01,
          -7.6341898813031453e-02, 4.6696168945993416e-01,
          -2.4639418394408444e-01, -5.9144481571648998e-02,
          -3.6455702074415036e-01, -2.0886459886471034e-01,
          8.7208348995214102e+00, -9.6700966117725648e-02,
          -2.9505919382465551e-01, 1.5630171078312910e-01,
          3.4476577217572058e-01, 1.2362279173530734e-01,
          -3.3928588535552695e-01, 5.9332921405645687e-02,
          -1.4109355359071124e-01, -1.1972562241179606e-01,
          6.8615169797672765e-02, -3.4467995142490443e-01,
          3.7104113591595750e-01, 3.8438721132203382e-02,
          -1.7648668431392886e-01, -2.0971729204209444e-01,
          -5.8101577607025243e+00, -2.0106349320381031e-01,
          -2.0935677929188413e-02, -1.4287446150308225e-01,
          4.0742946648100811e-02, -5.6817600031607018e-02,
          6.7884091538739047e-02, -1.2159344509050082e-01,
          -7.5981471833665479e-02, 1.0266070907525539e-01,
          2.6869701817589853e-01, -4.6244700346194278e-01,
          4.8596076579790859e-01, 1.8959029284130668e-01,
          1.0085446718418864e-01, 6.2025790965514284e-02,
          6.1948533432419561e-01, -2.6973979835762391e-01,
          -5.3591090978257150e-01, -4.0664411096337799e-01,
          -1.2732483776196427e-01, 9.5578702589805581e-02,
          -6.3701614638510795e-01, 1.5643578356945675e-01,
          -1.5906881146011245e-01, 3.0670529490398735e-01,
          4.8051288414705648e-03, -3.6514769389982334e-02,
          4.6815713079432597e-01, 2.6642131156887278e-01,
          -2.4442899480921029e-02, 1.6446457585827669e-02,
          -1.0722675654935211e+01, -2.9985709892774609e-01,
          1.2933709086697956e-01, -1.2310709604857910e-01,
          -1.4365680027528088e-01, -6.2129270343774926e-02,
          2.6124094371088014e-01, -1.6395145149700124e-01,
          1.2961586387831481e-01, -2.2118804572059411e-01,
          1.5525953858730779e-01, 6.3485133797774831e-02,
          1.9792717573881294e-01, -2.7292699635443319e-03,
          -1.7688415627205803e-01, 2.2662616665855081e-01,
          7.2766071293338249e-03, -4.8555600467275299e-03,
          6.3008089813587995e-03, 4.3881212786355747e-03,
          7.8800899674755266e-03, 7.1583034029988127e-03,
          3.6582569206111875e-03, 2.3039362420211023e-03,
          3.9866007033962057e-03, -6.3573339247830389e-03,
          3.6593464836106519e-03, -5.8071949500908297e-03,
          6.0264860989557778e-03, -3.0397943730393652e-03,
          1.8867579624606697e-03, -5.2560399317283964e-03,
          4.6827189716089643e+00, -2.2079370116507985e-02,
          2.8864839082306443e-01, -1.8046168227137957e-01,
          -1.5811915265234955e-02, -1.6593632181063472e-01,
          1.0486419477019100e-01, -6.6321093321502811e-01,
          -1.2104439845520308e-01, -1.5660962838952980e-01,
          1.3087343680995364e-01, 2.2257195320402583e-02,
          1.4063328140598411e-01, -3.8510875690774722e-03,
          1.1670345241419995e-01, -2.1201446615296546e-01,
          2.7387369977765021e+00, 4.7173643490430186e-04,
          7.9070986709726476e-01, -3.6532349953236919e-02,
          -7.9342506877017371e-01, 4.1615586005561422e-01,
          -3.6976849491777636e-01, -4.1778204639056071e-01,
          5.9724255854571411e-02, 1.9621062443280862e-01,
          -2.8608422202833111e-01, -3.1124260980237312e-01,
          3.9746758582171790e-02, -3.3123540290099829e-01,
          2.7597108524788339e-01, -3.1964239968855107e-01,
          -1.7973778765354180e+00, 3.0626562521898909e-01,
          6.1122460386450372e-01, 2.1087526919803382e-01,
          -6.9292140454458728e-01, 4.6046514157000168e-01,
          8.7469087560940031e-02, -3.1596911302948533e-02,
          9.1591675955854351e-02, 3.7600775995482516e-01,
          4.1542028863072067e-01, 5.6579264706102750e-02,
          1.0141734917598949e-01, 1.8717019363554457e-01,
          1.1579434419951709e-01, 1.6953623061885889e-01,
          9.5089306130284523e+00, 3.3970770319548915e-01,
          8.6957181855752991e-02, -7.2612108623684404e-02,
          2.0948164973152741e-01, 2.5320114837341146e-01,
          -5.6718141206362774e-02, -4.1337242430182924e-01,
          -5.4058372370320451e-01, 3.7253775112182358e-01,
          6.0451268457655261e-01, 2.4206516766947928e-01,
          1.4453495496875077e-01, 3.4838273984241919e-01,
          -1.9834612606185553e-01, 1.3246176480305188e-01,
          8.1946583863811426e+00, 2.4196799621295968e-02,
          4.0920110753479767e-02, 1.0836754144182378e-02,
          -3.5287433867465939e-02, 1.6643333492913479e-01,
          -1.3301893807707124e-01, -6.5474764763232884e-02,
          1.9173572182273006e-02, 8.8648588070054962e-02,
          3.0770396667629457e-01, 3.8491429080379802e-01,
          5.4705214337609676e-01, 1.2997395080272398e-01,
          -2.2487443557745021e-01, 9.4686085459167360e-02,
          1.0275991556089627e+01, 5.3690468478669023e-03,
          3.7789797400829564e-02, -3.1964560376961781e-01,
          2.4114311037007075e-01, 1.8856872232994776e-01,
          2.9111527593723091e-01, 4.8067136993829146e-01,
          1.5327141702251673e-01, -2.4609340226677420e-01,
          2.3360887553799056e-01, 5.3942914894940172e-02,
          -1.6098573047044151e-01, 6.7125776919578677e-03,
          -3.9269335093746960e-01, -2.5354302233537990e-01,
          4.9422114681493188e+00, 1.8291449044493394e-01,
          1.7527130216970838e-01, -6.5640051782409725e-01,
          -1.5106767698548785e-02, -2.4223124125727542e-02,
          3.5306566975560255e-02, 2.6784781979267952e-01,
          3.6432740235830506e-02, 3.0706287979371344e-01,
          5.0319934227279750e-01, 5.8706397372028658e-02,
          2.6996816122389741e-02, 6.2345548286255971e-02,
          -6.0846662400190465e-01, 1.6907421674407264e-01,
          -5.0322604841233103e+00, -2.0463861394457514e-01,
          2.9776621558251481e-01, -8.3575843284169393e-01,
          3.5256500149277659e-01, -3.7109957243703373e-01,
          6.7563965814026478e-03, 5.4357687297645736e-02,
          1.3262227092864742e-01, 3.9053574684438658e-01,
          4.6709335244811967e-02, -8.9859084187764238e-01,
          -4.4832123699295323e-01, 2.8550084202889037e-01,
          -2.7170009143128288e-01, -2.9007435837625101e-01,
          -1.2065206998348674e+00, 8.6235796470626541e-02,
          2.8543618836387202e-01, -6.6245171102739919e-02,
          -6.8328537002129958e-02, 1.1515546052219960e-01,
          -6.2050613620084150e-01, -1.0381110369166792e-01,
          3.7871225886203275e-01, -1.7550658074103828e-01,
          -1.6911703912391998e-01, 7.7331803286299627e-02,
          2.9103225868134402e-01, 2.5102554699564006e-01,
          -3.2333571783332488e-02, 1.7794207706256970e-01,
          6.5605533557794704e+00, 3.3549829421608217e-02,
          3.2346432656250906e-01, -8.6130382705189204e-02,
          -3.8412026543979721e-01, 3.6124774850520978e-02,
          2.1154684671848445e-01, 2.9304551397109874e-01,
          4.9397024810615017e-02, 3.7989566560402838e-01,
          -7.6985488196856258e-02, 5.4205743353841851e-01,
          -6.0255509913373106e-01, -2.6047005249365551e-02,
          -1.0518707558140193e-01, 1.0189887161039121e-01,
          1.3880104837490633e+01, 1.4446981066144710e-01,
          6.1684517708397897e-02, -4.2997566444062441e-01,
          9.6376956181196322e-02, -5.3959205833177114e-02,
          3.6754931682746617e-01, 6.3689040171601249e-02,
          1.7477007662280722e-01, 3.2062313407442050e-01,
          -8.3663750297973793e-02, -5.4752129474427338e-03,
          -4.4797201758747851e-01, 1.8797736569600790e-01,
          4.7611211591272233e-02, 1.0281508292007385e-01,
          1.3587121466736478e+00, -2.7210185921060108e-02,
          5.6199541803827642e-02, 4.8365074490827664e-01,
          1.3447992019526973e-02, 1.3867307325348565e-02,
          -2.2476342980568814e-01, -1.4379307417901854e-01,
          5.9268608952272461e-01, 1.7678544855246961e-01,
          7.8761796956337934e-02, -2.1178491742365824e-03,
          1.9495401053023506e-01, 3.4340263367998847e-01,
          -8.6936609410577959e-02, -3.5168390456979354e-01,
          -2.4063075044566848e+00, -2.8943569359811938e-01,
          -2.7900271796630771e-01, 4.3996828013317987e-02,
          -4.6561390318163370e-01, 6.2316157840954393e-02,
          -1.5276637844018112e-01, 5.5456969859317662e-01,
          3.9064906886114872e-02, 3.4338567006602161e-01,
          1.8170645528430765e-01, 1.1189273464645084e-01,
          2.1699197318159902e-01, 4.1494334596120508e-01,
          4.3742521275923631e-02, -2.6042166823124530e-01,
          4.7896135315942256e+00, -2.9415222544394987e-01,
          -3.2379034017677044e-01, -3.9531266345106880e-01,
          4.5232505068731423e-02, 1.1482586931424989e-01,
          -3.0366383747430742e-01, -5.8185217323013197e-02,
          -7.0464519831129013e-01, 1.5471811577225406e-01,
          8.8846974343075369e-02, 1.6141748049909841e-02,
          1.6092404505086005e-01, 1.9924133668053035e-01,
          4.0376242931395134e-02, -3.4245877583873030e-01,
          -9.2068470910246987e+00, -1.0124425191814246e-01,
          1.7050667176595383e-01, -5.7934828031250558e-02,
          -1.2930220122549022e-01, 4.3278228220555381e-01,
          4.4897159782525474e-02, -4.0929967755392774e-02,
          2.6480726647988512e-01, 2.6491199025132452e-02,
          1.4217632782739495e-01, 1.5500996673372777e-01,
          2.3961502227427445e-01, -1.6785199435129033e-01,
          -1.0357076882684511e-01, -3.9863902658081353e-02,
          -3.9622833881032566e-03, -5.4728610674414559e-03,
          4.4420536729368612e-03, 1.1534673912519738e-03,
          3.6028758742318993e-03, 9.8199550523014076e-04,
          3.7523233302603964e-03, -2.9418227324034050e-03,
          -4.1244485550794852e-03, 8.0681271681229509e-03,
          8.9425207553219855e-04, 1.8112924389835552e-03,
          -7.0357722388193905e-03, 5.1168850183492993e-03,
          6.8515305075482150e-03, -6.4654218751858525e-03,
          7.0912329856216072e+00, 1.7651025678940396e-01,
          6.9613475403865381e-03, 1.7081869492389640e-01,
          -1.3172760407425671e-01, -2.2006054771557235e-01,
          -1.1077114528095527e-01, -6.0982209941642262e-01,
          4.9166850680261920e-01, -1.7769644826201503e-01,
          -5.9135521483437425e-02, -3.8299758091735372e-02,
          -2.9900451270169220e-01, 2.0670750649475200e-01,
          5.9481216873870391e-01, 2.0940252003281129e-01,
          2.1151248299613306e+00, -4.4473455840737586e-01,
          5.0090973029349473e-01, 1.7900312883172823e-01,
          -1.0275061450716891e+00, 4.3299567904291458e-02,
          -6.9210114437213574e-02, -9.6437004834176887e-02,
          3.0943557631109264e-01, 3.2811322102612733e-01,
          4.5885607715977395e-01, 7.9276660130007548e-01,
          2.2995797037434124e-01, 4.5761424265814543e-01,
          -5.0276514124384031e-01, 1.0799927559250171e-01,
          -1.3464991826204342e+01, 1.9007152516183926e-01,
          6.0298618308966601e-02, 3.1725001345242221e-01,
          -8.0299521550290853e-01, -1.4257466719370426e-02,
          4.5182205745002674e-01, -1.9645924067472408e-02,
          4.0595394821012443e-01, 1.5043557229979077e-01,
          4.4785057223954761e-01, -4.3920649276490792e-01,
          7.4408378241525588e-02, 4.3990859006127769e-01,
          -8.6895840160491525e-02, 4.5983823421975234e-01,
          9.5839359126821950e+00, 3.1337796678132773e-01,
          3.9265989004081042e-01, -4.1809815926283128e-01,
          9.3954978579087509e-02, 5.1861608917855428e-01,
          1.5079650534123237e-01, -2.7222023976429088e-02,
          9.1881099529028468e-02, 3.1516967683180219e-01,
          -4.1656843600717287e-02, 4.6856160268450231e-01,
          -1.7926143905663197e-01, 3.1682193959256971e-01,
          -1.7457700257355194e-01, 5.0140867207708380e-03,
          2.2792498898011844e+00, 3.9368685182356850e-01,
          2.5426244554700062e-01, 8.2361412864082953e-02,
          -4.7998412393710049e-01, 2.7903898047999498e-01,
          1.4566177924719176e-01, 2.0082272255817557e-01,
          3.2182646863620223e-01, 2.9306091242108934e-01,
          -4.6869924397686696e-02, 2.5069050080937533e-01,
          5.7383776574763079e-01, 1.9832592010845412e-01,
          6.3795527752001535e-02, 6.0527846458911294e-01,
          -4.8217185262915265e+00, 4.1390915766456365e-04,
          2.4195026631534269e-01, 4.1941522273098317e-02,
          -1.7606307304151980e-01, -1.0532353401014007e-01,
          1.9411106755466798e-01, -1.2539989125810297e-01,
          -5.3003084164786253e-02, 8.1088319231608905e-02,
          1.7809918967044550e-02, -1.6635574598830827e-01,
          2.9656633711714186e-02, 1.5574103028022540e-01,
          9.0165871349069823e-02, 4.3862899756393081e-01,
          -5.7801963623073940e+00, -3.4356358300674039e-01,
          -2.3661671588311706e-03, -1.6087096514574470e-01,
          -4.3247334017296418e-01, -9.0104226605981066e-02,
          -4.3361138301874297e-02, -1.5537409422685097e-01,
